svm_type c_svc
kernel_type rbf
gamma 0.07692307692307693
nr_class 2
total_sv 9266
rho 2.3716481671435607
label 0 1
nr_sv 4633 4633
SV
1.0 1:0.252117679129 2:0.0501222211596 3:-0.135137592427 4:-0.186833399127 5:-0.240900558321 6:-0.201634862724 7:-0.289631492788 8:0.188286354963 9:-0.0732331751517 10:-0.0392537540174 11:-0.467699197334 12:0.202422882291 13:-0.180544992081 
1.0 1:0.27015128648 2:0.0367335604987 3:-0.136578671726 4:-0.185113531402 5:-0.240047653786 6:-0.200863356743 7:-0.288408969144 8:0.226212080847 9:-0.10592586382 10:-0.0381049633543 11:-0.460146140627 12:-0.0306857571811 13:0.102622238045 
1.0 1:-0.226538699833 2:0.0898356140894 3:-0.0458768083844 4:-0.19303068444 5:-0.244486697873 6:-0.203940018645 7:-0.294607580941 8:0.0884866730473 9:0.031170555827 10:-0.0797524755751 11:0.176177382395 12:0.0257692542353 13:-0.140057189138 
1.0 1:0.181223390143 2:-0.693839062256 3:-0.0154082892975 4:-0.180956391471 5:-0.242077975539 6:-0.201212698073 7:-0.286852667457 8:0.0632609475816 9:0.0251171302691 10:-0.0797604153494 11:0.385414851585 12:-0.076955608959 13:-0.0729407831577 
1.0 1:-0.23249422925 2:0.0872397528783 3:-0.0365865301671 4:-0.191944593071 5:-0.243697497265 6:-0.203886889987 7:-0.292805017535 8:0.098253552072 9:0.0240066707454 10:-0.0805012140582 11:0.301790685374 12:-0.0543580880335 13:-0.127504295852 
1.0 1:0.0158223330235 2:0.116260192559 3:0.112821506396 4:-0.187486948165 5:-0.242264326579 6:-0.202373539178 7:-0.288625385053 8:-0.0794223074087 9:0.106796416659 10:-0.00276727291106 11:0.18210268892 12:-0.137693140718 13:-0.342517620001 
1.0 1:-0.174946594638 2:0.108931840552 3:-0.0241109067743 4:-0.193247187619 5:-0.244770465956 6:-0.204430635382 7:-0.295213299762 8:0.0152020411329 9:0.085329948928 10:-0.0804784866944 11:0.103839231044 12:0.10375916449 13:0.0282678001909 
1.0 1:0.175143485536 2:-0.69578928535 3:-0.0159996929115 4:-0.19223875323 5:-0.244433996974 6:-0.203500645359 7:-0.2942073029 8:0.0543015037195 9:0.0304979798393 10:-0.0798313669852 11:0.114015627857 12:-0.0827485017131 13:-0.0358973462902 
1.0 1:0.250991244449 2:0.0503052624038 3:-0.137379686549 4:-0.169715314513 5:-0.230303893445 6:-0.201350363198 7:-0.267199113505 8:0.186021257303 9:-0.0727697931921 10:-0.037459879156 11:-0.513489293544 12:0.00987375398918 13:-0.0216863553588 
1.0 1:0.202764219086 2:0.0890102606018 3:-0.040572890376 4:-0.191058312157 5:-0.243804923247 6:-0.203363244388 7:-0.293074479721 8:0.0971807669717 9:0.0288877781505 10:-0.0802588320017 11:-0.22417977702 12:-0.0865742638938 13:0.16310802553 
1.0 1:0.208837022053 2:0.0846205956777 3:-0.0388361099897 4:-0.185919360506 5:-0.242220928842 6:-0.200936369837 7:-0.289219372098 8:0.107391056784 9:0.0168272223232 10:-0.0803735735124 11:-0.235030954499 12:-0.149903569809 13:0.248488674685 
1.0 1:0.167411246789 2:-0.699303683312 3:-0.0128667507141 4:-0.190557480292 5:-0.243569996145 6:-0.201900022423 7:-0.292089429368 8:0.0433407347751 9:0.0402664044899 10:-0.0794473270049 11:0.11469517938 12:-0.129365078505 13:-0.169363215971 
1.0 1:0.119134477027 2:0.115664468611 3:-0.0971829501111 4:-0.163771264366 5:-0.236147738239 6:-0.186521686931 7:-0.268900783701 8:-0.0144308411066 9:0.105058914827 10:-0.0637801250807 11:-0.397937309825 12:0.303867475909 13:-0.338273175604 
1.0 1:0.25694322427 2:0.0411931171449 3:-0.144895752649 4:-0.162967735574 5:-0.22522066019 6:-0.129776103813 7:-0.241372201773 8:0.198309726849 9:-0.0951535672681 10:-0.0302131014333 11:-0.21706880117 12:0.214059302731 13:0.160418523437 
1.0 1:0.029062377515 2:0.107547380186 3:0.128052022463 4:-0.19273299513 5:-0.244604071887 6:-0.204094232854 7:-0.29468829705 8:-0.0756867078062 9:0.0813169918918 10:0.0146505070554 11:-0.100441922201 12:-0.0596424986999 13:-0.00420626614491 
1.0 1:-0.230525635023 2:0.0884112163753 3:-0.0382110187842 4:-0.191118643966 5:-0.244198534412 6:-0.20479803428 7:-0.29426211925 8:0.0949973048795 9:0.0272341798415 10:-0.0804175703508 11:0.294650660916 12:-0.0313053797908 13:-0.133323564138 
1.0 1:0.207195340189 2:0.0861681295356 3:-0.0354411534061 4:-0.191369592153 5:-0.244387977118 6:-0.204391022114 7:-0.293957654098 8:0.104600863576 9:0.0210633884588 10:-0.0805476073966 11:-0.185797078523 12:0.0035893466385 13:0.00304880363242 
1.0 1:0.253126852802 2:0.0497594652749 3:-0.134392722428 4:-0.185323061973 5:-0.239833128548 6:-0.195528251767 7:-0.285341831388 8:0.190346440777 9:-0.0741343064279 10:-0.0398395921499 11:-0.423705865992 12:0.0072126987848 13:0.0963056607514 
1.0 1:0.257024956517 2:0.0501421880785 3:-0.120075512006 4:-0.186165114884 5:-0.240722588113 6:-0.19854690092 7:-0.2881234935 8:0.198361007722 9:-0.0731833464406 10:-0.0503184234883 11:-0.449141463164 12:-0.119411490389 13:0.197522781245 
1.0 1:0.044153754888 2:0.109983499826 3:0.117051163878 4:-0.192523990099 5:-0.244806857217 6:-0.204217005263 7:-0.293485252245 8:-0.0697979521484 9:0.0883871785192 10:0.00189348897503 11:-0.0270996538933 12:-0.0578199153384 13:0.0127818476809 
1.0 1:-0.173447052902 2:0.10917478509 3:-0.0191326353863 4:-0.19358156403 5:-0.244969350345 6:-0.204643902447 7:-0.295258257928 8:0.013375897093 9:0.0860355250866 10:-0.0801400648064 11:-0.0656362779345 12:-0.00137533271025 13:0.0810551553144 
1.0 1:0.267038492079 2:0.0389034351984 3:-0.136900574613 4:-0.175054905139 5:-0.235593824854 6:-0.193199146462 7:-0.271657850428 8:0.219493217359 9:-0.100711713886 10:-0.0378464569911 11:-0.490487381083 12:-0.25340243865 13:0.290922737146 
1.0 1:0.261292613275 2:0.0414726778474 3:-0.147830312504 4:-0.184463241076 5:-0.239620914729 6:-0.19111789561 7:-0.2819685796 8:0.207276133636 9:-0.0944979899191 10:-0.0285900911924 11:-0.434533900628 12:0.162493220807 13:-0.0827859592203 
1.0 1:0.254498474353 2:0.0469938759407 3:-0.144749772033 4:-0.190831777901 5:-0.243879713186 6:-0.199432955205 7:-0.290782822132 8:0.193152696643 9:-0.0809850226904 10:-0.0312942205745 11:-0.288249206945 12:-0.0149895671026 13:0.244934192975 
1.0 1:-0.175195333293 2:0.108705533203 3:-0.0242830876405 4:-0.192370852151 5:-0.244495288166 6:-0.20363583086 7:-0.293984788312 8:0.0155068370492 9:0.0846729963459 10:-0.0804865272989 11:0.0248975893934 12:0.0517867507695 13:-0.0206859700779 
1.0 1:0.256207673159 2:0.0507645301017 3:-0.117960682191 4:-0.191123047249 5:-0.243429044001 6:-0.199070199321 7:-0.291188027096 8:0.196670239049 9:-0.0716330405126 10:-0.0517350953501 11:-0.303576525704 12:0.0848578331633 13:0.093284367029 
1.0 1:0.0773853411113 2:0.111867188243 3:0.102415795543 4:-0.192090586533 5:-0.244487588941 6:-0.20368543971 7:-0.293037980726 8:-0.0507061878019 9:0.0938828245595 10:-0.0136577938003 11:-0.0169973011416 12:-0.0305190202534 13:-0.284418551735 
1.0 1:0.180441629239 2:-0.693872345146 3:-0.011886068743 4:-0.192836783332 5:-0.244287204431 6:-0.203675728809 7:-0.29388152426 8:0.0620752827289 9:0.025206623768 10:-0.0793126873319 11:0.133203612463 12:-0.124529243982 13:-0.0383880954171 
1.0 1:0.168651392288 2:-0.698291961386 3:-0.00973380862229 4:-0.192457123608 5:-0.244245097462 6:-0.203558325684 7:-0.294067083072 8:0.0450681660143 9:0.0374454056683 10:-0.0789904793387 11:0.150872285587 12:-0.0470479115906 13:-0.111408059495 
1.0 1:-0.231556127571 2:0.0876757227448 3:-0.0368335722093 4:-0.189924633087 5:-0.24297304219 6:-0.199745859548 7:-0.290368411038 8:0.0967032581002 9:0.0252072732439 10:-0.0804828407557 11:0.257528238225 12:0.112637021131 13:-0.136719559925 
1.0 1:0.265787688478 2:0.0395357641561 3:-0.138551264179 4:-0.188638878118 5:-0.241142886095 6:-0.199280390068 7:-0.289413035957 8:0.216807611239 9:-0.0991879853824 10:-0.036507189333 11:-0.389225183552 12:0.289012010658 13:-0.266305241615 
1.0 1:0.26609683546 2:0.0415924867622 3:-0.125439319228 4:-0.188043960659 5:-0.241198081398 6:-0.199689745516 7:-0.287510305287 8:0.217471071523 9:-0.0942067654856 10:-0.046575504805 11:-0.384728843288 12:0.150059891097 13:-0.103396145655 
1.0 1:0.0224494616263 2:0.108589053602 3:0.12703765314 4:-0.193071792579 5:-0.244200526871 6:-0.202937489518 7:-0.293702297999 8:-0.0777200483853 9:0.0843350419109 10:0.0134360973022 11:0.00242147356634 12:-0.176765421316 13:0.00546386798327 
1.0 1:-0.17540853725 2:0.108965121704 3:-0.0204464498505 4:-0.189943573501 5:-0.243883105951 6:-0.202331769108 7:-0.29245159259 8:0.0157737287019 9:0.0854266052866 10:-0.0802462229166 11:0.0767964694907 12:0.0650825812097 13:0.219013302665 
1.0 1:0.264359214246 2:0.0400150014139 3:-0.138839479187 4:-0.189071291906 5:-0.242246811697 6:-0.196162091608 7:-0.287179883567 8:0.213760447151 9:-0.0980300537932 10:-0.0362706149553 11:-0.374110719964 12:0.0564128170663 13:0.0635518523629 
1.0 1:0.170403227061 2:-0.697879286641 3:-0.0139260370223 4:-0.190982909227 5:-0.243662130412 6:-0.203314700822 7:-0.292233358202 8:0.0475285591085 9:0.0362970401454 10:-0.0795860060119 11:0.205280034215 12:-0.110750986734 13:-0.0388625343051 
1.0 1:-0.234203425533 2:0.0853993540583 3:-0.0587641686715 4:-0.192807763369 5:-0.24403335687 6:-0.204279678445 7:-0.294876184544 8:0.101107338897 9:0.0189564465663 10:-0.0776314111566 11:0.252480779096 12:0.0837005391201 13:-0.0915281900077 
1.0 1:0.174471889823 2:-0.696248552944 3:-0.0156291298397 4:-0.193154907307 5:-0.244184918248 6:-0.204182671838 7:-0.293991605648 8:0.0533317220809 9:0.0317696601738 10:-0.079789997327 11:-0.0209317026352 12:0.0823814043793 13:0.0414886826194 
1.0 1:-0.229374327457 2:0.0887939394569 3:-0.0376720179773 4:-0.191281985448 5:-0.24398098248 6:-0.204262155063 7:-0.293013155187 8:0.093104151569 9:0.0282904357193 10:-0.0804471075528 11:0.290262400318 12:-0.0964236892952 13:-0.20742540021 
1.0 1:0.194797458101 2:0.0723701107938 3:-0.11056065132 4:-0.00236565933625 5:-0.173024946985 6:-0.102311350173 7:-0.203755581929 8:0.0879895316411 9:-0.0154738137803 10:-0.0552241669589 11:-0.521400704 12:0.486936757593 13:-0.504853167035 
1.0 1:0.257693001557 2:0.0439221072724 3:-0.141096545309 4:-0.187572686731 5:-0.242164891327 6:-0.197082307106 7:-0.288507300115 8:0.199751521657 9:-0.0885286967014 10:-0.034401332887 11:-0.39885159355 12:-0.0634439240242 13:0.215320038882 
1.0 1:-0.241185901797 2:0.0786467786106 3:-0.0537110357761 4:-0.166305098511 5:-0.224562099607 6:-0.0809357898956 7:-0.234574250877 8:0.113092541017 9:6.61102670858E-4 10:-0.0785762168452 11:0.410497102404 12:0.255551217569 13:0.181233064108 
1.0 1:0.197419877798 2:0.0908040698751 3:-0.0388810267173 4:-0.192685432613 5:-0.244388836192 6:-0.204617525243 7:-0.294319997148 8:0.0884302101073 9:0.0338555170664 10:-0.0803770065925 11:-0.18326396446 12:-0.0915097983521 13:-0.056070395049 
1.0 1:0.254015207968 2:0.04851811228 3:-0.141085316055 4:-0.190307137076 5:-0.24379579204 6:-0.197777635668 7:-0.290320628089 8:0.192160515124 9:-0.0772164851341 10:-0.0344112371193 11:-0.387647296721 12:-0.130649262088 13:0.240612896991 
1.0 1:-0.178876673065 2:0.107793653516 3:-0.0231526831539 4:-0.192847188295 5:-0.244554280387 6:-0.202769354832 7:-0.293055250202 8:0.0200702258166 9:0.0820299880452 10:-0.0804270171545 11:-0.00169722409069 12:-0.112651560479 13:0.014919902203 
1.0 1:0.208197409067 2:0.0863678101916 3:-0.0330418511149 4:-0.191402202945 5:-0.244184059569 6:-0.202196923385 7:-0.292753582447 8:0.106300165235 9:0.02161106495 10:-0.0806087468152 11:-0.236801884268 12:-0.0943910325341 13:0.0768221914256 
1.0 1:0.175648070721 2:-0.695895782569 3:-0.0151949347827 4:-0.192322516752 5:-0.243857574063 6:-0.203239233743 7:-0.293120897708 8:0.0550329706485 9:0.0307927982375 10:-0.0797396541352 11:0.204212401951 12:-0.0990847571943 13:-0.0427143336814 
1.0 1:0.268235994151 2:0.0388967813311 3:-0.135137592466 4:-0.181545241057 5:-0.238505514767 6:-0.198660783986 7:-0.283194224909 8:0.222069853201 9:-0.100727704481 10:-0.0392534481909 11:-0.480756703592 12:0.0395178753226 13:0.00822164340306 
1.0 1:0.175484613018 2:-0.695945704036 3:-0.0157189633371 4:-0.19182130008 5:-0.243887129402 6:-0.204122211199 7:-0.293932902371 8:0.0547960779989 9:0.0309313692432 10:-0.0797997565918 11:0.227797815386 12:0.0313490267381 13:0.0918981006671 
1.0 1:-0.223998006187 2:0.0909371887486 3:-0.0417931282826 4:-0.19211760112 5:-0.244171003291 6:-0.204263966301 7:-0.293877077724 8:0.0844038060232 9:0.034224918336 10:-0.0801620848616 11:0.233641851913 12:-0.140429196567 13:-0.220606732898 
1.0 1:-0.203302884791 2:0.100661688297 3:-0.0387350473386 4:-0.192200997408 5:-0.244770588777 6:-0.203729399287 7:-0.293932900665 8:0.0529682498481 9:0.0615592328023 10:-0.0803862583242 11:0.145425218069 12:-0.0409336096265 13:-0.191229897283 
1.0 1:0.258677294626 2:0.0426774228436 3:-0.146662477581 4:-0.181684868003 5:-0.237564109914 6:-0.187020717514 7:-0.279120606798 8:0.201800036268 9:-0.0915665191304 10:-0.0296223645685 11:-0.411534526641 12:0.160520616 13:0.022160389145 
1.0 1:-0.0526058828963 2:0.127662016915 3:-0.134564904767 4:-0.180586535846 5:-0.244770769325 6:-0.196863196649 7:-0.287339980494 8:-0.0774122016194 9:0.140947517296 10:-0.0397041977668 11:-0.0889659842026 12:0.0875269017671 13:-0.45464083433 
1.0 1:-0.179857417243 2:0.101117626924 3:-0.122122966805 4:-0.189708983073 5:-0.243890701268 6:-0.202078995705 7:-0.29046342197 8:0.0213059811576 9:0.0628575914625 10:-0.048913915484 11:0.13232695677 12:0.0829141057137 13:0.0902085611873 
0.43195472930718903 1:0.0335467942349 2:0.12187124766 3:0.0872114799488 4:-0.164772139063 5:-0.242921934249 6:-0.193010976663 7:-0.275788295738 8:-0.0740495452541 9:0.123488443605 10:-0.0280702897432 11:0.07084320136 12:0.0147270797709 13:-0.42244618538 
1.0 1:0.260791582398 2:0.0420683936286 3:-0.140651121213 4:-0.184841478171 5:-0.239718737906 6:-0.19796120603 7:-0.286012546527 8:0.206222535544 9:-0.0930494808172 10:-0.0347736809938 11:-0.460341713879 12:0.12953948526 13:-0.0494435510464 
1.0 1:-0.225024943238 2:0.0905378267417 3:-0.0393563954976 4:-0.192813384636 5:-0.244459784967 6:-0.204217173132 7:-0.294612745122 8:0.0860475457526 9:0.0331165943715 10:-0.0803460906013 11:0.23748103561 12:-0.0105927539525 13:0.0219420061322 
1.0 1:-0.202499813397 2:0.100997819921 3:-0.038925943464 4:-0.193468186618 5:-0.244998085805 6:-0.204358065965 7:-0.295638773721 8:0.0518138934838 9:0.0625159607145 10:-0.0803743440739 11:0.0317180524595 12:0.0325093361384 13:0.144092828427 
1.0 1:-0.174523734649 2:0.109264648769 3:-0.0234408988874 4:-0.179578511647 5:-0.242258611425 6:-0.198954773679 7:-0.28720625191 8:0.0147070995605 9:0.0862983588629 10:-0.0804243588478 11:0.382029805825 12:-0.15347987805 13:-0.0779119655703 
1.0 1:0.267269462569 2:0.0387436921679 3:-0.136350345422 4:-0.186327501536 5:-0.240924564305 6:-0.20176631503 7:-0.287709678464 8:0.21998584749 9:-0.101098089749 10:-0.0382875528749 11:-0.449450092356 12:0.0442915372589 13:-0.00481301981549 
1.0 1:-0.237355317771 2:0.084667188352 3:-0.0442747781231 4:-0.191471636382 5:-0.244082886073 6:-0.20450458873 7:-0.293713063447 8:0.10642764705 9:0.0169544438346 10:-0.07992737204 11:0.314300911277 12:0.0161058841381 13:-0.0913726471697 
1.0 1:0.18244576436 2:-0.693120209462 3:-0.0166584717178 4:-0.19099571199 5:-0.243898373663 6:-0.203130802094 7:-0.292651960512 8:0.0650772733322 9:0.0231382088578 10:-0.0799020538852 11:0.141593907508 12:-0.210293417515 13:-0.0105537954565 
1.0 1:-0.173578529696 2:0.109084927491 3:-0.0194919692509 4:-0.193778444306 5:-0.24512486399 6:-0.204382306919 7:-0.295556140385 8:0.0135351405942 9:0.0857744398384 10:-0.0801711080581 11:-0.0174961426076 12:-0.00984237219473 13:0.119770176404 
1.0 1:0.0598669777898 2:0.105467363189 3:0.125806184031 4:-0.18369685216 5:-0.240477862775 6:-0.19650748958 7:-0.284865592801 8:-0.0618149935926 9:0.0753136949595 10:0.0119751256858 11:-0.00457239664238 12:0.00633121552848 13:-0.376357559954 
1.0 1:0.255706634341 2:0.0487910101842 3:-0.129055116929 4:-0.174842739165 5:-0.233842122506 6:-0.191600940651 7:-0.277663232752 8:0.195645895365 9:-0.0765326454214 10:-0.0439282382958 11:-0.494954900507 12:0.048873095131 13:-0.0171219878681 
1.0 1:0.261136262408 2:0.0417821823254 3:-0.138959258471 4:-0.179379895459 5:-0.236652439563 6:-0.198361350656 7:-0.282205221428 8:0.206952942692 9:-0.0937434212197 10:-0.036173068678 11:-0.487585088251 12:0.0123993400312 13:0.03110287713 
1.0 1:0.166242171577 2:-0.699050752049 3:-0.00895150861874 4:-0.192357953432 5:-0.243475648094 6:-0.201390633085 7:-0.291517937503 8:0.0417235490514 9:0.0395607260624 10:-0.078863958275 11:0.0448997847992 12:-0.133293598807 13:-0.106027045547 
1.0 1:0.253940586119 2:0.048348382871 3:-0.140898163201 4:-0.191496470198 5:-0.244142394877 6:-0.198878166325 7:-0.290603137428 8:0.192007436765 9:-0.0776371261223 10:-0.0345672440315 11:-0.310847299624 12:-0.0144061616741 13:0.219009912452 
1.0 1:0.267329870412 2:0.0382178638344 3:-0.13896300235 4:-0.186115925629 5:-0.241070263144 6:-0.20221935579 7:-0.289559336129 8:0.220115109894 9:-0.102363871115 10:-0.0361695689524 11:-0.445847582419 12:1.20390972657E-4 13:0.0647453579777 
1.0 1:0.251097845871 2:0.0507711843513 3:-0.136413976911 4:-0.184578886878 5:-0.238826103836 6:-0.200426632688 7:-0.281312107238 8:0.186218135919 9:-0.071615857689 10:-0.0382358961711 11:-0.483757862128 12:0.140150802348 13:-0.0880031750046 
1.0 1:0.0963463924109 2:0.112795712241 3:0.0826786318636 4:-0.184695497154 5:-0.243927391008 6:-0.198797159288 7:-0.287953202575 8:-0.036008085867 9:0.0966009018385 10:-0.0320457730195 11:0.00602486686742 12:-0.0680065889156 13:-0.432782165626 
1.0 1:0.181603606075 2:-0.694458077329 3:-0.0241146498591 4:-0.174930559038 5:-0.236263256439 6:-0.193760377796 7:-0.266860369197 8:0.0638222044033 9:0.026821031465 10:-0.0804732514436 11:0.120943083287 12:0.00168898610252 13:-0.229000490824 
1.0 1:-0.216041905901 2:0.094854277858 3:-0.0435486241946 4:-0.191409616732 5:-0.244137317369 6:-0.202956609604 7:-0.293324281778 8:0.071931650866 9:0.0451554709987 10:-0.0800011108022 11:0.245553508501 12:0.141318040098 13:0.214887910402 
1.0 1:0.202664723127 2:0.0891733349619 3:-0.0389259434851 4:-0.192566569282 5:-0.244514927696 6:-0.204193241361 7:-0.294390862864 8:0.0970151601617 9:0.0293384183907 10:-0.0803740329552 11:-0.171954776615 12:0.00606450984777 13:0.0375813565557 
1.0 1:-0.0296223599883 2:0.131941861909 3:-0.0273523979772 4:-0.162683186894 5:-0.233172348183 6:-0.112593912266 7:-0.244489410318 8:-0.0819019558328 9:0.154032614073 10:-0.0790118348156 11:0.464418129365 12:-0.493408117234 13:-0.504437978514 
1.0 1:0.17601407543 2:-0.695646183747 3:-0.0196716361077 4:-0.158305506805 5:-0.234352309301 6:-0.187514268216 7:-0.258168983767 8:0.0555716585456 9:0.0301024736989 10:-0.0801456675938 11:0.22152227725 12:-0.0478735602962 13:-0.151451522195 
1.0 1:0.206196826919 2:0.0870966493639 3:-0.0367699401987 4:-0.192751741264 5:-0.244537644615 6:-0.204343241294 7:-0.294528288039 8:0.10291573897 9:0.0236133935629 10:-0.0804928321253 11:-0.251846806024 12:-0.100532532568 13:0.0734843857132 
1.0 1:0.203368299934 2:0.0887706441622 3:-0.039693271011 4:-0.191663463889 5:-0.24406366818 6:-0.202861124945 7:-0.29270983637 8:0.0981830251614 9:0.028225823371 10:-0.0803210261762 11:-0.228018622655 12:-0.140938754934 13:0.11168125764 
1.0 1:0.175022669552 2:-0.696451563609 3:-0.016261707259 4:-0.191191714548 5:-0.243503482113 6:-0.202370286781 7:-0.292301351048 8:0.0541268144228 9:0.032332208567 10:-0.0798591850264 11:0.167003421866 12:-0.00885610488639 13:0.0620724834125 
1.0 1:0.253833981691 2:0.0493168387262 3:-0.13440020878 4:-0.179553945698 5:-0.236733476233 6:-0.194348621169 7:-0.281327818306 8:0.191791694433 9:-0.0752350528766 10:-0.039829460914 11:-0.446449401977 12:-0.228499227192 13:0.290480807194 
1.0 1:0.166192423282 2:-0.699446787348 3:-0.0101343161124 4:-0.191732986906 5:-0.244509570903 6:-0.204325727509 7:-0.294250155889 8:0.0416554796177 9:0.0406659773664 10:-0.0790531192349 11:0.0954940866377 12:-0.143709524384 13:-0.0292369522634 
1.0 1:-0.171037828147 2:0.109913614811 3:-0.0175830078718 4:-0.192443200532 5:-0.244172092794 6:-0.202154567287 7:-0.292782918293 8:0.0104772994921 9:0.0881839099853 10:-0.0799967949265 11:0.0385783377626 12:0.216603856296 13:-0.133950615346 
1.0 1:0.206442013492 2:0.0863178899407 3:-0.0422759833208 4:-0.191245759863 5:-0.243016002866 6:-0.203050097268 7:-0.292488370981 8:0.103328348594 9:0.0214740126198 10:-0.0801195031836 11:-0.196150784098 12:0.0837576386657 13:-0.0643444802923 
1.0 1:0.197846287679 2:0.0907308525921 3:-0.0387986793872 4:-0.192722339165 5:-0.244472943596 6:-0.204505498065 7:-0.294420504437 8:0.0891194621601 9:0.0336520765736 10:-0.080382063584 11:-0.237151267012 12:0.0026485169978 13:-0.0348745108952 
1.0 1:0.263765795284 2:0.0384475004286 3:-0.152834785314 4:-0.191777823464 5:-0.243594113676 6:-0.200926083672 7:-0.291748165593 8:0.21249928717 9:-0.101811330131 10:-0.0240576327734 11:-0.277525986443 12:0.230734405163 13:-0.0680770609357 
1.0 1:0.154817923529 2:0.107031534408 3:0.00679180695137 4:-0.190036826065 5:-0.244283447281 6:-0.201802395428 7:-0.292079491492 8:0.0264721426525 9:0.0798258910576 10:-0.0753432292378 11:-0.303223563704 12:0.187124207357 13:-0.359060023149 
1.0 1:0.254427405551 2:0.0484715195362 3:-0.135568045461 4:-0.189857850332 5:-0.241630390359 6:-0.199991365723 7:-0.290240254397 8:0.193005432788 9:-0.0773317562908 10:-0.0389122574274 11:-0.445895226906 12:0.223022873398 13:-0.169968961241 
1.0 1:0.262767283015 2:0.0402080236154 3:-0.140886934142 4:-0.17423059094 5:-0.23510593263 6:-0.189943460112 7:-0.275171776253 8:0.210392181246 9:-0.0975607741984 10:-0.0345716481086 11:-0.498715828622 12:-0.352622114612 13:0.368240315916 
1.0 1:0.202199224981 2:0.0888605019343 3:-0.0390195199685 4:-0.193002203293 5:-0.244796551068 6:-0.204469565676 7:-0.294967709885 8:0.0962450588195 9:0.0284739359048 10:-0.0803683663576 11:-0.185557827177 12:-0.0207313645157 13:-0.1002662697 
1.0 1:-0.232632813622 2:0.0873695452178 3:-0.0336594562117 4:-0.190784382804 5:-0.244105634988 6:-0.204139184566 7:-0.293587448699 8:0.0984849197837 9:0.0243644308809 10:-0.0806011741367 11:0.29414596554 12:-0.103476436328 13:-0.123286373455 
1.0 1:0.271729002258 2:0.0359880806287 3:-0.134942953534 4:-0.188374863902 5:-0.242385491524 6:-0.201760302591 7:-0.290969312965 8:0.22964902603 9:-0.107708389654 10:-0.03940786914 11:-0.423023170794 12:-0.0814312123197 13:0.14610229194 
1.0 1:0.271466052751 2:0.0358915687114 3:-0.136122018141 4:-0.184944467164 5:-0.240407265517 6:-0.200828328235 7:-0.288216042761 8:0.229074661128 9:-0.107939845956 10:-0.0384706592101 11:-0.452656030996 12:0.0321669673498 13:0.00553669782455 
1.0 1:-0.183741307175 2:0.105687011041 3:-0.0264877507452 4:-0.181044550365 5:-0.242108569342 6:-0.202867698214 7:-0.286764662858 8:0.0262614286819 9:0.07594592277 10:-0.0805733493281 11:0.360334438168 12:-0.0444629052237 13:-0.127110155309 
0.5800799930024148 1:0.206459782362 2:0.0869202617438 3:-0.0346139368418 4:-0.189708614454 5:-0.243637988521 6:-0.203150987942 7:-0.292528886776 8:0.103359001479 9:0.0231286721509 10:-0.0805744433355 11:-0.325292087484 12:-0.224922440225 13:0.219536574594 
1.0 1:0.201584483435 2:0.0889237345764 3:-0.0393788538729 4:-0.191671521392 5:-0.24390377884 6:-0.204652950178 7:-0.294214422084 8:0.0952304027783 9:0.028648934785 10:-0.0803442924286 11:-0.248266036055 12:-0.092406186531 13:0.1046733951 
1.0 1:0.263947018222 2:0.0398253028969 3:-0.14015703841 4:-0.185194590522 5:-0.240246690392 6:-0.203391134191 7:-0.288431830208 8:0.212884725765 9:-0.0984880554132 10:-0.0351846765848 11:-0.468239206869 12:-0.134644972498 13:0.147067432493 
1.0 1:0.273388451693 2:0.0323438823344 3:-0.148369313496 4:-0.185088182426 5:-0.240638550928 6:-0.188940403316 7:-0.282697250216 8:0.23328240826 9:-0.116369841551 10:-0.0281135612521 11:-0.319585710815 12:-0.0123115755099 13:0.167192430598 
1.0 1:0.252359312136 2:0.0502852943034 3:-0.134022159661 4:-0.176487049256 5:-0.235810930792 6:-0.184965228386 7:-0.270397089669 8:0.188790799186 9:-0.0728249246717 10:-0.0401024187506 11:-0.497749920612 12:-0.243058995831 13:0.30638807925 
1.0 1:-0.176950720817 2:0.108222970662 3:-0.0252787419837 4:-0.189492347598 5:-0.244274796299 6:-0.201838268381 7:-0.291266236088 8:0.017674289619 9:0.0832735814409 10:-0.0805296839332 11:0.187041735765 12:0.174255384923 13:0.29617299184 
1.0 1:0.0197097750523 2:0.107816955066 3:0.12840012551 4:-0.17702413453 5:-0.239415925362 6:-0.200979303161 7:-0.280826758316 8:-0.0784268222624 9:0.0820984689903 10:0.0150721424595 11:-0.0984868645353 12:-0.0725040489752 13:0.177348003525 
1.0 1:0.179805573122 2:-0.695829223914 3:-0.0243841503498 4:-0.171611189039 5:-0.232737633976 6:-0.191799226389 7:-0.261754892326 8:0.0611827773345 9:0.0306112702269 10:-0.0804795113001 11:0.10939822516 12:-0.149993279857 13:-0.151222598067 
1.0 1:-0.0581598788914 2:0.122303892382 3:-0.160538004815 4:-0.187460298972 5:-0.244111294604 6:-0.192957175801 7:-0.288954662758 8:-0.0756785824996 9:0.124784631882 10:-0.0166985914711 11:-0.131439229642 12:0.290969832597 13:-0.355655431771 
1.0 1:0.026909004514 2:0.107926773258 3:0.12829157802 4:-0.1896391432 5:-0.244232049742 6:-0.202578983617 7:-0.291452334096 8:-0.076380694276 9:0.0824154949408 10:0.0149389942304 11:0.00690009110416 12:-0.0673775990861 13:0.00467843449329 
1.0 1:0.182079760022 2:-0.693413075988 3:-0.0151649902549 4:-0.191706362069 5:-0.24433229421 6:-0.203598353724 7:-0.293224675656 8:0.0645223646196 9:0.0239426738555 10:-0.0797364227866 11:0.221524692992 12:-0.215536910438 13:-0.13005744174 
1.0 1:0.0262409614401 2:0.107424240914 3:0.129335891266 4:-0.191935737727 5:-0.244546053652 6:-0.204101116292 7:-0.294300629613 8:-0.0765954450291 9:0.0809607190579 10:0.0161996164214 11:-0.0022590188429 12:-0.0790175412098 13:-0.115148336747 
1.0 1:0.168829061992 2:-0.698371833996 3:-0.0117962352652 4:-0.191264766926 5:-0.243426000368 6:-0.202723731934 7:-0.292509490224 8:0.0453176660728 9:0.0376682122012 10:-0.0792981703872 11:0.14485902166 12:-0.0940189467468 13:-0.0867018093786 
1.0 1:0.175463293476 2:-0.696078824647 3:-0.0172124449251 4:-0.192731298118 5:-0.243841047455 6:-0.204153804214 7:-0.294167178448 8:0.0547647285482 9:0.0312994782312 10:-0.0799597909297 11:0.244424535605 12:-0.0302939063609 13:0.00620924401606 
1.0 1:0.270559932129 2:0.0357451318865 3:-0.136065871519 4:-0.173303776161 5:-0.234541248425 6:-0.192141703096 7:-0.27564542703 8:0.227124803161 9:-0.108280621189 10:-0.0385074730608 11:-0.504159490688 12:-0.269632007246 13:0.287376696481 
1.0 1:-0.175017663588 2:0.105151198414 3:-0.108790181121 4:-0.193687982017 5:-0.244589192821 6:-0.203024863128 7:-0.29437121415 8:0.0152889839202 9:0.0744034719141 10:-0.0574834376328 11:0.0474345013534 12:0.120690073333 13:0.154194293507 
1.0 1:0.203769839564 2:0.0866906295977 3:-0.0501364119456 4:-0.183425419458 5:-0.240960538966 6:-0.20259906659 7:-0.285638398521 8:0.0988519654857 9:0.0224978890971 10:-0.0791905944169 11:-0.370845892229 12:0.0177902926838 13:-0.0505118971132 
1.0 1:-0.220831912188 2:0.0924447885604 3:-0.0470371573464 4:-0.188626163124 5:-0.243722588926 6:-0.2027283954 7:-0.292332156573 8:0.0793819569192 9:0.0384190358616 10:-0.0796119679851 11:0.238922443104 12:-0.114645508909 13:-0.264924287482 
1.0 1:-0.18219556789 2:0.106492394378 3:-0.0262818823962 4:-0.191647025107 5:-0.244619575198 6:-0.203317171681 7:-0.293570639714 8:0.0242734522271 9:0.0782681385189 10:-0.0805668018587 11:0.0933856514736 12:0.00735496035282 13:0.12245008267 
1.0 1:0.202629188281 2:0.0887307087261 3:-0.0387949363153 4:-0.193650273765 5:-0.244718002685 6:-0.204656581369 7:-0.295319037113 8:0.0969561274815 9:0.0281154390328 10:-0.0803823642415 11:-0.129666339221 12:-0.0431634548805 13:-0.0163930909518 
1.0 1:-0.185219529813 2:0.105044701022 3:-0.0267609942234 4:-0.180911413423 5:-0.242062297206 6:-0.201647285446 7:-0.286863110652 8:0.0281843379893 9:0.07409813599 10:-0.0805798399184 11:0.318942182389 12:-0.159734843707 13:-0.178824567102 
1.0 1:0.272553395346 2:0.0353890358114 3:-0.134965411495 4:-0.189465201459 5:-0.242160147872 6:-0.201959713873 7:-0.291032434607 8:0.231450672573 9:-0.10913931092 10:-0.0393900076109 11:-0.388174676391 12:-0.0626378249119 13:0.0844297712571 
1.0 1:0.264583079644 2:0.0394558914073 3:-0.139112723992 4:-0.186058732218 5:-0.240737689956 6:-0.20070969119 7:-0.287937569003 8:0.214238485907 9:-0.0993799116523 10:-0.036046780425 11:-0.476965833083 12:0.0578165198528 13:-0.0648143349537 
1.0 1:-0.176058813309 2:0.108552442962 3:-0.0222805498613 4:-0.192077345739 5:-0.244512059469 6:-0.203167348215 7:-0.293706598068 8:0.0165679174954 9:0.0842290508059 10:-0.0803750510914 11:0.107961032297 12:0.156367330625 13:0.190415834439 
1.0 1:0.260891079582 2:0.0419186337448 3:-0.138850709965 4:-0.189809624258 5:-0.242439984833 6:-0.200979339982 7:-0.291434135452 8:0.206428535581 9:-0.0934142660701 10:-0.0362616035687 11:-0.364381731002 12:0.0558246030139 13:0.0836708701253 
1.0 1:0.207685714746 2:0.0853727303184 3:-0.0419465939216 4:-0.192314735696 5:-0.244326497574 6:-0.204247942354 7:-0.294319995597 8:0.105430848673 9:0.0188835698867 10:-0.0801486696104 11:-0.275701694895 12:-0.0675933321069 13:-0.00121617458229 
1.0 1:0.17996902641 2:-0.693875671159 3:-0.0145548712735 4:-0.189970671503 5:-0.243558754991 6:-0.202921899317 7:-0.290739620887 8:0.0613761687416 9:0.025216503248 10:-0.0796620356443 11:0.258863510348 12:-0.104502420036 13:-0.0315552875842 
1.0 1:-0.175223760487 2:0.108755455017 3:-0.020117060506 4:-0.193038565519 5:-0.244484599614 6:-0.203834137364 7:-0.2946230862 8:0.0155423927037 9:0.0848180676757 10:-0.0802217071561 11:0.0955153984689 12:-0.0134275270597 13:0.14374935789 
1.0 1:-0.177231441383 2:0.108376060207 3:-0.0279849752781 4:-0.188322655546 5:-0.243783317254 6:-0.202210279783 7:-0.289836243182 8:0.0180190445918 9:0.083717307863 10:-0.0806116596863 11:0.185625125109 12:0.0996995662844 13:0.325619152829 
1.0 1:-0.221237001265 2:0.0919722059692 3:-0.0547141760232 4:-0.19327331324 5:-0.244908290255 6:-0.2044763239 7:-0.295415208839 8:0.0800207548502 9:0.0371027118687 10:-0.0784339337245 11:0.107392710766 12:0.0609993889044 13:-0.11462382219 
1.0 1:0.20295610365 2:0.0891766632335 3:-0.0367624540829 4:-0.190605093932 5:-0.244056002455 6:-0.204436125798 7:-0.291722930406 8:0.0974997693401 9:0.0293477870734 10:-0.0804931660364 11:-0.352084385283 12:0.00855170514967 13:-0.0434725280594 
1.0 1:0.0287248025343 2:0.107510768677 3:0.127932244625 4:-0.192800453848 5:-0.244923069114 6:-0.20353576254 7:-0.2943516406 8:-0.0757977131694 9:0.0812111591117 10:0.0145074091482 11:-0.0827492911515 12:-0.117052649868 13:0.00287925160548 
1.0 1:-0.175237974493 2:0.108735486604 3:-0.0205213111079 4:-0.192489713101 5:-0.244843965577 6:-0.203550966448 7:-0.294174222376 8:0.0155596284745 9:0.0847599845085 10:-0.0802534882027 11:0.0886846993168 12:0.0289531869344 13:0.143854166085 
1.0 1:-0.172157157884 2:0.109437701168 3:-0.0182305576312 4:-0.193113064319 5:-0.244815987663 6:-0.204493553281 7:-0.294945330969 8:0.0118187218136 9:0.0867995300877 10:-0.0800586964928 11:-0.00911730116069 12:0.0165033604997 13:-0.00398872400947 
1.0 1:-0.204866391647 2:0.10001605435 3:-0.0357630566599 4:-0.170885427903 5:-0.231775989271 6:-0.187703059845 7:-0.266549469585 8:0.0552312642393 9:0.0597294696852 10:-0.0805349316283 11:-0.0912631425855 12:-0.0724050081778 13:0.0604826805041 
1.0 1:0.202497711635 2:0.0887806267181 3:-0.0389034850879 4:-0.193274032337 5:-0.244990212725 6:-0.204029561546 7:-0.294546072968 8:0.0967386683477 9:0.028253336962 10:-0.0803740853803 11:-0.131920201888 12:-0.105311219121 13:-0.0210991952752 
1.0 1:0.179226367201 2:-0.695270114429 3:-0.0222318900598 4:-0.176674407018 5:-0.236583470805 6:-0.193172381237 7:-0.266860369197 8:0.060275351619 9:0.0290626890505 10:-0.0803672142976 11:0.141820397101 12:0.0081882338211 13:-0.250815892765 
1.0 1:0.264401855 2:0.0403910652766 3:-0.139939939953 4:-0.176061509813 5:-0.235114117662 6:-0.186401743164 7:-0.275949134152 8:0.213856280935 9:-0.0971144617832 10:-0.0353578235814 11:-0.47383205984 12:-0.0382144594164 13:0.120238601572 
1.0 1:0.175100844485 2:-0.696448236206 3:-0.019083975538 4:-0.191881574461 5:-0.243964164685 6:-0.202606934463 7:-0.293623354171 8:0.0542406964194 9:0.0323233541556 10:-0.0801339652199 11:0.220097816916 12:-0.139568848701 13:-0.146324415772 
1.0 1:0.266654721838 2:0.0372360961787 3:-0.149746759664 4:-0.190944226826 5:-0.243344890567 6:-0.20017856507 7:-0.290960753275 8:0.218664506754 9:-0.104721703542 10:-0.026879994992 11:-0.258601899494 12:0.130752248283 13:0.0989232745733 
1.0 1:0.182037119045 2:-0.693173459201 3:-0.0131512233041 4:-0.192230749099 5:-0.244430339127 6:-0.203437500305 7:-0.293850489827 8:0.0644582626246 9:0.0232837738243 10:-0.0794854006331 11:0.0184232299815 12:-0.102045168065 13:-0.082996675924 
1.0 1:0.0178406759224 2:0.110020113419 3:0.128460013784 4:-0.131611493781 5:-0.232839119011 6:-0.190565655968 7:-0.258078035749 8:-0.078608532227 9:0.0885025197801 10:0.0151629224451 11:-0.247244744337 12:0.143092902103 13:-0.11999257016 
1.0 1:-0.182014343877 2:0.106475754237 3:-0.0252263390724 4:-0.190184176146 5:-0.244338832233 6:-0.203527284531 7:-0.292711653075 8:0.0240455524426 9:0.0782205535663 10:-0.0805280067935 11:0.269325116515 12:0.130537477287 13:0.207191093875 
1.0 1:-0.230458120604 2:0.0883313448079 3:-0.0350967917648 4:-0.190743506934 5:-0.243611330766 6:-0.203962268041 7:-0.292260474472 8:0.0948839885219 9:0.02701335421 10:-0.080560528475 11:0.283058876676 12:0.00920200501523 13:-0.0244972901224 
1.0 1:0.203471349163 2:0.0881549597941 3:-0.0380874977762 4:-0.192560851346 5:-0.244588823659 6:-0.203863908795 7:-0.293991595747 8:0.0983545596743 9:0.0265270591789 10:-0.0804243474879 11:-0.16716585145 12:-0.0653500751093 13:0.0628369724095 
1.0 1:0.166668582163 2:-0.699473413173 3:-0.0100931424048 4:-0.190910248715 5:-0.243894492297 6:-0.202451267023 7:-0.292644760172 8:0.0423124783362 9:0.040740288084 10:-0.0790464670157 11:0.129792275726 12:-0.110360521769 13:-0.133027118879 
1.0 1:-0.234310029886 2:0.0854526039708 3:-0.0656214566333 4:-0.189244059066 5:-0.24372149961 6:-0.201594734529 7:-0.291113487183 8:0.101292139084 9:0.0191029199453 10:-0.0759902642731 11:0.103978724226 12:-0.0433092672549 13:-0.338183949131 
1.0 1:0.168914343279 2:-0.698608124423 3:-0.0126983129539 4:-0.186082046652 5:-0.242269664402 6:-0.200384810538 7:-0.28835797971 8:0.0454370157147 9:0.0383261154294 10:-0.0794221508117 11:0.318512575265 12:-0.1576330673 13:-0.224522267355 
1.0 1:0.20595874681 2:0.086114882577 3:-0.0456222801776 4:-0.192965299849 5:-0.244362364741 6:-0.20426645514 7:-0.29453844101 8:0.102514481721 9:0.02091716604 10:-0.079780685369 11:-0.143606979275 12:0.1718301983 13:-0.00428770596077 
1.0 1:0.0267064594706 2:0.106901740331 3:0.130410148042 4:-0.192061638231 5:-0.243993965953 6:-0.203664493099 7:-0.293566452897 8:-0.0764491688742 9:0.0794504492423 10:0.0175050730392 11:-0.174388558716 12:-0.132938370445 13:0.0687152454221 
1.0 1:-0.225312770195 2:0.0905245157405 3:-0.0469810114941 4:-0.191504661185 5:-0.244649904956 6:-0.203720555594 7:-0.294286158429 8:0.0865114172475 9:0.0330797255638 10:-0.0796196573812 11:0.246230327979 12:-0.0874156132261 13:-0.286831250912 
1.0 1:-0.234761315066 2:0.0857388132585 3:-0.0304067358891 4:-0.188942736332 5:-0.24035818567 6:-0.174565610039 7:-0.276047393304 8:0.102044536563 9:0.0198870272507 10:-0.0805171449101 11:0.25441464259 12:0.162065631243 13:0.180805129127 
1.0 1:0.264629274188 2:0.0400116719261 3:-0.138614896567 4:-0.187037598827 5:-0.239789942428 6:-0.198514409055 7:-0.28639678726 8:0.21433601754 9:-0.0980380568622 10:-0.0364543614611 11:-0.429683208115 12:0.0683470658183 13:0.02366058854 
1.0 1:-0.22910426733 2:0.0887806274131 3:-0.0384468316314 4:-0.192274812445 5:-0.244076656533 6:-0.204195413619 7:-0.294167170396 8:0.0926609613758 9:0.0282536126366 10:-0.0804036640377 11:0.0927725921132 12:0.0909519195685 13:-0.110722165 
1.0 1:-0.228493079238 2:0.0890834777111 3:-0.0388585683631 4:-0.192098889505 5:-0.244387218733 6:-0.203948480165 7:-0.292941115499 8:0.0916624955465 9:0.0290898923295 10:-0.0803785372605 11:0.242600219563 12:0.0769841020927 13:-0.046186178959 
1.0 1:0.270655868177 2:0.0346136016017 3:-0.147800368426 4:-0.191680870342 5:-0.243882317659 6:-0.20241195215 7:-0.292879219713 8:0.227308548358 9:-0.110986839703 10:-0.0286220049218 11:-0.273945387144 12:-0.0941485191547 13:0.1268123927 
1.0 1:-0.17436383118 2:0.108881924472 3:-0.0244290670856 4:-0.185423478427 5:-0.24274980819 6:-0.192708260508 7:-0.287012274826 8:0.0145143326776 9:0.0851882715153 10:-0.0804702463726 11:0.304708088283 12:-0.174613325791 13:-0.0715483177519 
1.0 1:-0.054464321812 2:0.114446411571 3:0.106701598982 4:-0.180855597515 5:-0.237669338112 6:-0.200407620008 7:-0.284207366356 8:-0.0768367018653 9:0.101448168196 10:-0.00926893215543 11:-0.0140917284338 12:0.236802740529 13:-0.0159574703749 
1.0 1:-0.175703470338 2:0.10842930734 3:-0.0173284797822 4:-0.186188790863 5:-0.243794507919 6:-0.201804320562 7:-0.2900906598 8:0.0161313614532 9:0.0838717634678 10:-0.0799713055335 11:0.232825083782 12:-0.0317758655087 13:-0.123583401879 
1.0 1:0.208090806124 2:0.085336122285 3:-0.0414562528481 4:-0.192529313687 5:-0.244353729149 6:-0.20427549943 7:-0.294487889116 8:0.106118515221 9:0.0187835041105 10:-0.0801899854706 11:-0.222891955185 12:-0.102196856923 13:0.0605347224891 
1.0 1:-0.232934852655 2:0.085871935607 3:-0.0581652787722 4:-0.193142446803 5:-0.244859792609 6:-0.20206190603 7:-0.294388408325 8:0.0989871009075 9:0.020251080724 10:-0.0777577502382 11:0.052444993769 12:0.0335081367816 13:-0.170400843782 
1.0 1:0.169646348022 2:-0.6980590001 3:-0.0121742843643 4:-0.189044778656 5:-0.243849681182 6:-0.202462904411 7:-0.291201258073 8:0.0464635412772 9:0.036796938841 10:-0.0793523938469 11:0.124651780951 12:-0.134349561838 13:-0.0514877630363 
1.0 1:0.256527477128 2:0.05192601073 3:-0.111556304157 4:-0.185878727687 5:-0.239530382342 6:-0.192355788681 7:-0.283735209542 8:0.197331664658 9:-0.0687319612936 10:-0.0558154652981 11:-0.446590867529 12:0.140145793379 13:0.00293838804598 
1.0 1:0.265123198266 2:0.0398752234953 3:-0.139138925247 4:-0.185386020285 5:-0.2396368613 6:-0.196590412907 7:-0.2854572892 8:0.21539142382 9:-0.0983660638801 10:-0.0360253184534 11:-0.422246676578 12:0.178078424652 13:-0.0738672241735 
1.0 1:0.166132015178 2:-0.69955328474 3:-0.0107930948406 4:-0.186921371567 5:-0.243814466729 6:-0.202314015992 7:-0.29076746635 8:0.041572985455 9:0.0409635942201 10:-0.0791532958519 11:0.175264043978 12:-0.197891791091 13:-0.00529656702884 
1.0 1:0.209348715669 2:0.0855191619306 3:-0.0362421685145 4:-0.188048892048 5:-0.241623540304 6:-0.202263918711 7:-0.289872704679 8:0.108261507005 9:0.0192848092997 10:-0.08051615723 11:-0.414856429561 12:-0.247912606741 13:0.281690100007 
1.0 1:-0.172619101387 2:0.109743886514 3:-0.0216030557519 4:-0.181462207444 5:-0.242456841804 6:-0.197417959994 7:-0.286970978515 8:0.0123968768596 9:0.0876913975989 10:-0.0803197720322 11:0.386633490415 12:-0.0709156279686 13:-0.0204830275167 
1.0 1:0.256118835635 2:0.0513802149911 3:-0.11696877079 4:-0.19000579795 5:-0.242976782384 6:-0.198533371999 7:-0.290869889083 8:0.196487610426 9:-0.0700964290264 10:-0.0523867586373 11:-0.354649774669 12:0.134195694693 13:-0.0132680564551 
1.0 1:0.171892109509 2:-0.697463285187 3:-0.0127394866498 4:-0.192256241584 5:-0.244254021764 6:-0.204080292123 7:-0.293881530379 8:0.0496380207819 9:0.0351402239912 10:-0.0794306462269 11:0.0383424976262 12:-0.19575134982 13:0.0104431137274 
1.0 1:0.198969167828 2:0.0904180173056 3:-0.0393975692029 4:-0.192231534503 5:-0.244441336834 6:-0.203936625664 7:-0.293483191095 8:0.0909435638406 9:0.0327843628267 10:-0.0803437194451 11:-0.270096911689 12:-0.0328785215038 13:-0.00881899158472 
1.0 1:0.264657699267 2:0.0428637889885 3:-0.12269191315 4:-0.178238209068 5:-0.233311777218 6:-0.166365435463 7:-0.266736374378 8:0.214409055127 9:-0.091103588955 10:-0.0483604434622 11:-0.3553189845 12:0.281388052685 13:0.0404546314614 
1.0 1:0.252828366 2:0.0471070279648 3:-0.14051262734 4:-0.177161456694 5:-0.23471723987 6:-0.181900766217 7:-0.270732058272 8:0.189784246995 9:-0.0806923665695 10:-0.0348612303503 11:-0.344666857026 12:-0.0219511754006 13:0.207593646432 
1.0 1:-0.234729334231 2:0.0858386527176 3:-0.0410070855495 4:-0.189635453206 5:-0.242797789317 6:-0.201004821554 7:-0.29086706399 8:0.101988852381 9:0.0201602306635 10:-0.0802257714695 11:0.313803383004 12:-0.0310639035571 13:-0.190114865308 
1.0 1:-0.227469695345 2:0.0896059802057 3:-0.0379452614273 4:-0.192103045226 5:-0.244424566914 6:-0.203515507328 7:-0.294592126849 8:0.0899962394508 9:0.030535039674 10:-0.0804325702622 11:0.15488458819 12:0.0624705138177 13:-0.0775450899033 
1.0 1:0.1768242534 2:-0.695636197716 3:-0.0191625798156 4:-0.185405554258 5:-0.240959269303 6:-0.198143633648 7:-0.285338446918 8:0.0567479253233 9:0.0300755712569 10:-0.0801421605778 11:0.258623150308 12:-0.140135676842 13:-0.00389110351605 
1.0 1:0.169372736258 2:-0.697899255923 3:-0.0113320957234 4:-0.193544705758 5:-0.244620339989 6:-0.203841341151 7:-0.294518152012 8:0.0460781434972 9:0.0363522555053 10:-0.0792325750128 11:0.0783615374492 12:-0.0382835497744 13:-0.0105323259913 
1.0 1:-0.163795960877 2:0.11135799258 3:-0.0845239171245 4:-0.190781715214 5:-0.244392344336 6:-0.201848836377 7:-0.291525591027 8:0.00203167040267 9:0.0923947585009 10:-0.0696237829433 11:0.169116862058 12:0.0158324236366 13:-0.125486618213 
1.0 1:0.263421108077 2:0.0389034325921 3:-0.151449852403 4:-0.172647189208 5:-0.232881877114 6:-0.183489214662 7:-0.272242742737 8:0.211832650274 9:-0.100702415112 10:-0.0253274143883 11:-0.372990565065 12:0.272387940905 13:-0.130805624099 
1.0 1:0.175690715149 2:-0.69604221644 3:-0.0192673855035 4:-0.176251408759 5:-0.240523711058 6:-0.195156161885 7:-0.280767630429 8:0.0551187752413 9:0.0311986252218 10:-0.0801449242746 11:0.321684132047 12:-0.241960708627 13:-0.349616643147 
1.0 1:0.0224921026404 2:0.107494130099 3:0.129826231518 4:-0.189450474222 5:-0.24315026288 6:-0.202797527179 7:-0.290236307545 8:-0.0777054618656 9:0.0811629046862 10:0.0167947727166 11:-0.115511628905 12:0.201108521807 13:-0.00573843163301 
1.0 1:0.169383396363 2:-0.698668029141 3:-0.0161456723785 4:-0.192317419505 5:-0.24446993458 6:-0.202764621198 7:-0.293919448299 8:0.0460933501884 9:0.0384931034863 10:-0.0798462872804 11:0.100306328945 12:-0.0990883758098 13:-0.170899618275 
1.0 1:-0.175906017047 2:0.104096212954 3:-0.115104726489 4:-0.193041747828 5:-0.24481596609 6:-0.203685238924 7:-0.294643849233 8:0.0163795979179 9:0.0713724717472 10:-0.0535937890419 11:0.116638665915 12:0.0448625305286 13:0.0884995918557 
1.0 1:-0.227295577574 2:0.0897124763817 3:-0.0386751583745 4:-0.190774510044 5:-0.243724686496 6:-0.20398759589 7:-0.29334240114 8:0.0897156689011 9:0.030830125251 10:-0.0803899334254 11:0.336673022249 12:-0.0135904870636 13:-0.10508300894 
1.0 1:0.209220792144 2:0.084796982429 3:-0.039363881602 4:-0.188063826669 5:-0.242872211726 6:-0.201975700607 7:-0.290299477617 8:0.108043984881 9:0.0173088192086 10:-0.0803453435768 11:-0.172894139254 12:0.00229313217029 13:0.213357752219 
1.0 1:0.0799331436339 2:0.112156728061 3:0.0999566036673 4:-0.186718022667 5:-0.244025281064 6:-0.202910902351 7:-0.290425825365 8:-0.0488854632333 9:0.094730141984 10:-0.0161103533299 11:-0.265633857261 12:0.103232984883 13:-0.131911089107 
1.0 1:0.253233454781 2:0.0492602611677 3:-0.135478211467 4:-0.180897595665 5:-0.236463907956 6:-0.198833347936 7:-0.281837320193 8:0.190560961095 9:-0.0753759465781 10:-0.0389834300875 11:-0.493386515553 12:0.223517880741 13:-0.19273528435 
1.0 1:0.258304190205 2:0.0431832847797 3:-0.140512628473 4:-0.189072017928 5:-0.241880952014 6:-0.200585658448 7:-0.29070494717 8:0.201017777493 9:-0.0903342868094 10:-0.0348891843519 11:-0.43195591143 12:0.0960336737941 13:-0.00257507130398 
1.0 1:0.20795932651 2:0.0854026821562 3:-0.0413851347229 4:-0.190120591172 5:-0.242032368025 6:-0.20167742483 7:-0.291002253677 8:0.105895057442 9:0.018965605175 10:-0.0801949570371 11:-0.286684293128 12:-0.0244036824341 13:0.14434346352 
1.0 1:0.18282953575 2:-0.693316562194 3:-0.0174744591929 4:-0.187841514479 5:-0.243025323549 6:-0.201260442562 7:-0.289467182605 8:0.0656506500185 9:0.0236776250691 10:-0.0799859730041 11:0.225745479219 12:-0.173031912527 13:-0.149686702534 
1.0 1:0.02652878856 2:0.107347697792 3:0.128549848754 4:-0.188713952636 5:-0.243181068141 6:-0.201138309125 7:-0.288900939988 8:-0.0765047737811 9:0.0807394428112 10:0.0152497342974 11:-0.127410656206 12:0.139563600255 13:0.0763129761833 
1.0 1:0.254512686837 2:0.0485047999582 3:-0.136219337431 4:-0.187321413328 5:-0.240327060895 6:-0.200303259272 7:-0.287838014438 8:0.193180617774 9:-0.0772496292666 10:-0.0383930651468 11:-0.457654636143 12:0.17003957161 13:-0.0899545859306 
1.0 1:0.17968120257 2:-0.694614493756 3:-0.0239611843749 4:-0.183829848541 5:-0.242520000773 6:-0.198916191166 7:-0.283464250243 8:0.0609471472378 9:0.0272520796749 10:-0.0804670237637 11:0.125595459195 12:-0.100473702208 13:-0.135253168267 
1.0 1:0.253855303349 2:0.0488409302265 3:-0.135976038502 4:-0.188423147758 5:-0.241245483379 6:-0.200534350958 7:-0.290315335349 8:0.191834330613 9:-0.0764159942152 10:-0.038587320864 11:-0.466767568943 12:0.134300405429 13:-0.0850382812433 
1.0 1:0.167748822523 2:-0.699200512975 3:-0.0135929046504 4:-0.191103473051 5:-0.244199120275 6:-0.202019698571 7:-0.293130603399 8:0.0438099380832 9:0.0399783416701 10:-0.0795419777249 11:0.234558129951 12:-0.246142966128 13:-0.282999485751 
1.0 1:-0.177625870058 2:0.107743733786 3:-0.0234858155684 4:-0.192589071639 5:-0.244897595307 6:-0.204836433124 7:-0.295009988334 8:0.0185097648008 9:0.0818853642023 10:-0.0804461609592 11:0.0254000346559 12:-0.0675757860039 13:0.121978504901 
1.0 1:-0.178006085582 2:0.107850229094 3:-0.0235344753668 4:-0.193371587529 5:-0.244772679298 6:-0.204908668804 7:-0.295396396182 8:0.0189820170264 9:0.0821936479244 10:-0.0804488605537 11:-0.0636264034093 12:0.0232299251783 13:0.128234201984 
1.0 1:0.204324170892 2:0.0878987019967 3:-0.0370020099672 4:-0.190219226194 5:-0.243815085526 6:-0.202732887122 7:-0.291969513414 8:0.0997751291745 9:0.0258206929898 10:-0.0804803305197 11:-0.303698615851 12:-0.0984780010233 13:0.138528535645 
1.0 1:-0.0648580768417 2:0.125369003743 3:-0.14346216068 4:-0.187582408224 5:-0.243868566401 6:-0.191959141239 7:-0.286605411274 8:-0.0732787915514 9:0.134005752417 10:-0.0323972257618 11:-0.261892663843 12:0.327954179598 13:-0.386100119322 
0.9449267477546097 1:-0.173699343788 2:0.109344516862 3:-0.0228944119029 4:-0.191637601703 5:-0.244465916949 6:-0.202679605053 7:-0.292589236598 8:0.0136819411267 9:0.0865286883982 10:-0.080413047803 11:0.135884870625 12:0.172044617449 13:0.220717140754 
1.0 1:-0.246633294615 2:0.0786933675666 3:-4.73474883545E-4 4:-0.11341854279 5:-0.204681456166 6:0.0139560672802 7:-0.024879879622 8:0.122553591801 9:8.24505631892E-4 10:-0.0762976538494 11:0.0969532789483 12:0.0885894115921 13:-0.12789608594 
1.0 1:-0.222622834224 2:0.0917459001833 3:-0.0452255157071 4:-0.190528633192 5:-0.243796267024 6:-0.202417419361 7:-0.291843578874 8:0.0822135028098 9:0.0364726518924 10:-0.0798263396165 11:0.242325197051 12:-0.176295282049 13:-0.282150696235 
1.0 1:-0.168099148919 2:0.110888733395 3:-0.0167857358642 4:-0.192005202166 5:-0.244575200584 6:-0.201865259179 7:-0.292589235345 8:0.00700250493336 9:0.0910250815199 10:-0.0799142236343 11:0.123443459097 12:0.195663411014 13:0.326529273409 
1.0 1:-0.227004201726 2:0.0893796725432 3:-0.0448137788718 4:-0.139901914458 5:-0.218858967145 6:-0.165849391874 7:-0.241295786162 8:0.0896343988586 9:0.0300070193594 10:-0.0797691684884 11:0.452495140622 12:-0.300222026496 13:-0.374996309177 
1.0 1:0.185434200082 2:-0.691169987759 3:-0.00736445066233 4:-0.1912580155 5:-0.243712157654 6:-0.201884090733 7:-0.292544811083 8:0.0695972028922 9:0.0177909518363 10:-0.0785950314797 11:0.0978262073318 12:-0.0814765620179 13:0.113180847675 
1.0 1:0.263808434072 2:0.040354457 3:-0.137349740908 4:-0.177749850451 5:-0.235315058797 6:-0.187226438646 7:-0.27751981714 8:0.212590296624 9:-0.0972088893535 10:-0.0374769916012 11:-0.485869718017 12:0.0273111636075 13:0.0677385355658 
1.0 1:-0.192269515876 2:-0.00443085447594 3:-0.265908923253 4:0.0609754370421 5:-0.0353884404809 6:0.119146164283 7:-0.0350849242059 8:0.037583859937 9:-0.197006620574 10:0.132606002042 11:0.385516978267 12:0.446509503999 13:0.402045315775 
1.0 1:0.132314113112 2:-0.263454807865 3:0.347343009749 4:0.00738103010793 5:0.141267304888 6:-0.0287085702223 7:0.0173645213037 8:0.00458261524795 9:-0.505216398666 10:0.471447017968 11:0.0776610879385 12:0.0844168928864 13:0.336049793463 
1.0 1:-0.328212719365 2:-0.27661384164 3:0.27609009551 4:-0.0562776423511 5:-0.0440771018516 6:0.00363393329127 7:-0.0656434225234 8:0.293599556422 9:-0.505181300047 10:0.281804773319 11:0.392164427763 12:-0.475725508878 13:-0.383997368974 
1.0 1:-0.391261056597 2:-0.430788191219 3:-0.160051408284 4:-0.0482408190517 5:-0.0269838718707 6:-0.00663969067845 7:-0.0775561556122 8:0.458531613609 9:-0.449097920813 10:-0.0168099860326 11:-0.342778844973 12:-0.401086966588 13:0.29732181323 
1.0 1:0.0544835470905 2:-0.599316337874 3:0.143042981908 4:0.0125296750976 5:0.00791354710608 6:0.237882945148 7:-0.0531658071149 8:-0.0640927011593 9:-0.199805391488 10:0.0398604733474 11:0.398019989979 12:0.485260939333 13:0.42427018161 
1.0 1:0.172354053631 2:-0.216928940224 3:0.29977244521 4:0.158213690937 5:0.144219836475 6:0.0116717383508 7:0.110698198376 8:0.0748114117693 9:-0.485134495996 10:0.348099952684 11:-0.135999774526 12:-0.0244600986168 13:0.257725734733 
1.0 1:0.0699551386591 2:-0.0156795985996 3:0.283295487253 4:0.0630289914023 5:-0.0865982082536 6:-0.00504156410308 7:-0.0778306382303 8:-0.0527141077472 9:-0.220783734948 10:0.292962637884 11:0.441013224487 12:-0.402841191829 13:-0.435297825427 
1.0 1:-0.00135134796842 2:-0.349717362972 3:0.416855400519 4:0.0659889850565 5:-0.0515402143427 6:-0.075984977418 7:0.0324315276693 8:-0.0754983769599 9:-0.501223451348 10:0.677687184056 11:0.240976454004 12:-0.338628648553 13:-0.029117813896 
1.0 1:0.149402509932 2:-0.156059258147 3:0.222190010885 4:0.144634572731 5:0.0419151288651 6:0.259224858402 7:0.081530447836 8:0.0316734369257 9:-0.43118378961 10:0.191909945866 11:-0.467053412779 12:-0.481571020277 13:0.441512428824 
1.0 1:0.250937943997 2:-0.232846909833 3:0.332640267062 4:-0.107918900042 5:0.0417166419593 6:-0.146092133121 7:-0.093662833814 8:0.187365835188 9:-0.494205578753 10:0.419375873557 11:-0.0968977873922 12:0.0879003890283 13:0.250029769424 
1.0 1:0.254811172373 2:-0.0394750152076 3:0.128194257202 4:0.20422552008 5:-0.0289166817869 6:-0.0076228043216 7:0.0473854346231 8:0.196706446184 9:-0.266852872992 10:0.0190164624872 11:-0.356407415721 12:-0.150894726749 13:0.158048163258 
1.0 1:-0.318184967238 2:-0.463762317357 3:0.282823861629 4:-0.130742467212 5:-0.188271934753 6:-0.158568764736 7:-0.215129374694 8:0.268789365002 9:-0.421572367966 10:0.291374369679 11:-0.269792747564 12:0.11599740467 13:0.187853008578 
1.0 1:0.24896579544 2:-0.0294709554436 3:0.123605263612 4:0.0650566344068 5:-0.00665478019092 6:0.109178677398 7:0.0142029837388 8:0.182243054794 9:-0.24759379299 10:0.0253686726378 11:-0.337387648964 12:-0.29924737231 13:0.28051547974 
1.0 1:0.12692357434 2:-0.54577498135 3:0.160062680211 4:0.0957350434683 5:0.0571264772415 6:0.195000700965 7:-0.0285105002948 8:0.0148799678187 9:-0.291169174295 10:0.0682184390233 11:0.443122830185 12:0.474167765197 13:0.408878610525 
1.0 1:-0.11700807308 2:-0.721368546958 3:-0.0285052607985 4:-0.172350572862 5:-0.240305217913 6:-0.197512191427 7:-0.278872818238 8:-0.0428626243427 9:0.103587580777 10:-0.0806135437682 11:-0.397113594185 12:0.119179294829 13:-0.209375332336 
1.0 1:0.16930166589 2:0.0262336217364 3:0.157124377567 4:0.0236908898291 5:-0.0720280413298 6:0.0943008230076 7:-0.0197246048935 8:0.0469036862053 9:-0.130366263299 10:0.0575626264893 11:-0.232351217499 12:-0.348611801416 13:0.245288718676 
1.0 1:-0.182362581917 2:-0.350249848175 3:-0.467805906423 4:-0.0325924555547 5:-0.0479012338661 6:-0.0896961931976 7:-0.063144165112 8:0.027504452608 9:-0.491432252135 10:0.646522264297 11:-0.17673602611 12:-0.403569318443 13:0.300327165368 
1.0 1:-0.157449550042 2:-0.0473458103595 3:0.335866784514 4:-0.160988230036 5:-0.189130888046 6:-0.152006947525 7:-0.232307810186 8:-0.00503264561452 9:-0.28180124544 10:0.428013036445 11:0.114441098568 12:-0.419736139476 13:-0.167003816007 
1.0 1:-0.110228146686 2:-0.174110496649 3:0.364935397854 4:0.0248280811365 5:0.0447242011291 6:0.0217558010228 7:-0.0392687646408 8:-0.0456119466577 9:-0.443609441547 10:0.527039942707 11:0.392550405621 12:-0.306630603321 13:-0.1916906538 
1.0 1:-0.279928842805 2:-0.209061474763 3:-0.400475718798 4:-0.0407505545822 5:0.0242977141508 6:-0.118205921727 7:-0.0676464580461 8:0.192124681895 9:-0.476843621574 10:0.439591866437 11:-0.216025292314 12:-0.132359724353 13:0.323943060742 
1.0 1:8.16239218998E-4 2:0.0792657876709 3:-0.149248932922 4:0.13569519 5:-0.136186358548 6:0.115680718991 7:0.012550269062 8:-0.0810661849363 9:0.00298379272336 10:-0.0231439900677 11:0.201931555726 12:0.281575207545 13:0.408630462698 
1.0 1:0.186592609216 2:-0.211567483377 3:0.178149153558 4:0.310971067973 5:0.187234865949 6:0.0349589665141 7:0.0839900508122 8:0.106695818909 9:-0.454319657322 10:0.086913481012 11:-0.370913444293 12:-0.296834791034 13:0.434364219901 
1.0 1:0.143791660275 2:-0.27644078432 3:0.239932121375 4:0.0403854256146 5:0.167690204764 6:0.293284678891 7:0.0292729501981 8:0.0168069814958 9:-0.49261893655 10:0.220142305478 11:0.410030618511 12:-0.491363839412 13:-0.483435293279 
1.0 1:-0.207606078251 2:-0.403072350815 3:0.398072718639 4:-0.110632943943 5:-0.177919393049 6:-0.123038448841 7:-0.168073727771 8:0.0593363147174 9:-0.477550872386 10:0.615355406855 11:-0.101992247728 12:-0.113959511677 13:0.121295790172 
1.0 1:-0.0666880874365 2:-0.6626021666 3:0.0761207880291 4:-0.00842538353916 5:-0.0619219532715 6:0.0843713648311 7:-0.0372889448975 8:-0.0694318792488 9:-0.0535370716392 10:-0.0237689889154 11:-0.33438465488 12:0.431687645229 13:-0.346484989493 
1.0 1:-0.388624420484 2:-0.210089836332 3:0.256150808207 4:-0.0780677211184 5:-0.157504986564 6:-0.109977081395 7:-0.131303195244 8:0.451988892511 9:-0.481679224157 10:0.23187906641 11:0.209827375532 12:0.274342664002 13:0.238547445705 
1.0 1:0.133010582608 2:-0.708572253026 3:-0.0191850378873 4:-0.0529103960649 5:-0.186577053857 6:-0.0395421544776 7:-0.0455427709596 8:0.00167802485961 9:0.0667096473287 10:-0.0789704201079 11:-0.0396703914408 12:0.0557042450304 13:0.350297960238 
1.0 1:0.199360048704 2:-0.271595171212 3:0.355933334892 4:-0.00899681253711 5:0.0565165354313 6:-0.0111336602931 7:0.0333278498984 8:0.0981049588612 9:-0.497148670589 10:0.486089253671 11:-0.3600225167 12:-0.100842558319 13:0.140034411107 
1.0 1:-0.281755301528 2:-0.206272584949 3:0.298735615855 4:0.0503023095441 5:0.069000051974 6:-0.0605972147894 7:-0.00948992277829 8:0.193396573233 9:-0.468208707103 10:0.333841272436 11:0.285551748435 12:-0.4035032698 13:-0.26868671743 
1.0 1:0.264092707415 2:0.00598255322204 3:0.0681929843112 4:0.0824666275161 5:-0.0447146348885 6:0.0290201354082 7:0.0621652061994 8:0.218348264494 9:-0.175936563448 10:-0.0434099947215 11:-0.217618304993 12:-0.351578435128 13:0.271060285988 
1.0 1:0.274454480162 2:-0.341403942684 3:0.277014630663 4:-0.077051911943 5:0.0539733319254 6:-0.0113781258863 7:0.00914734802166 8:0.235809468535 9:-0.48529978406 10:0.28041740858 11:-0.123106177957 12:-0.197648631928 13:0.151399352186 
1.0 1:0.135142635206 2:-0.70839253425 3:-0.0174782022887 4:-0.134967531077 5:-0.207042708734 6:-0.13670782188 7:-0.210984480984 8:0.0027750387702 9:0.0661125117608 10:-0.0794449065473 11:-0.105799564923 12:0.120921044802 13:0.188405195333 
1.0 1:-0.183208295348 2:-0.00948946270202 3:0.184755656539 4:0.058433107691 5:0.0241954939104 6:0.0227617581738 7:0.00155721424288 8:0.0279376370077 9:-0.199815206838 10:0.0973693174171 11:0.357702340031 12:-0.43124704831 13:-0.338675218345 
1.0 1:0.191354192935 2:-0.377010542529 3:0.357131115457 4:-0.0564254381651 5:-0.0694431827687 6:-0.103798540518 7:-0.121965525992 8:0.0815526621424 9:-0.492685097733 10:0.488913870537 11:0.171283174122 12:0.358324204472 13:-0.0336293255508 
1.0 1:0.278736351987 2:-0.105569704097 3:0.236686889802 4:0.106333146848 5:0.0135718709817 6:-0.0760391268071 7:0.0421840229318 8:0.250071951407 9:-0.37502958308 10:0.19135751123 11:-0.313465686896 12:-0.19102488519 13:0.364687010165 
1.0 1:0.391362012672 2:-0.377023854316 3:0.117436699182 4:-0.0940514118846 5:-0.0297526785306 6:-0.0151271469826 7:-0.0952227086397 8:0.54664498838 9:-0.474004590045 10:0.00865258598245 11:0.23818709898 12:0.0960721422472 13:-0.0567199574005 
1.0 1:0.265624230145 2:-0.425962545675 3:0.205555848319 4:0.00397908658705 5:0.133702298019 6:0.0257430063514 7:0.0585579610242 8:0.227045547726 9:-0.40879360186 10:0.139929449945 11:0.0236033620654 12:-0.147350082556 13:0.319321513265 
1.0 1:0.332819409932 2:-0.0321034282517 3:-0.025578186614 4:0.102741462513 5:-0.0476390721768 6:0.104694009842 7:0.189876448293 8:0.390894101658 9:-0.251090602963 10:-0.0744476244873 11:0.0452139813769 12:0.115206361527 13:-0.198021696089 
1.0 1:0.0996261991842 2:0.0468208182949 3:0.135485741042 4:-3.34292114562E-4 5:-0.0601844013338 6:0.190089905429 7:0.0113098145566 8:-0.0292119906209 9:-0.0799726411049 10:0.0299625046451 11:-0.24742785037 12:-0.454828659053 13:0.228275520687 
1.0 1:-0.30215193417 2:-0.351657607924 3:-0.0999790161783 4:-0.0117330261324 5:0.276296773451 6:0.122416226392 7:0.0427314265612 8:0.240511370811 9:-0.482272705353 10:-0.0164385550563 11:0.335316091669 12:0.196557380479 13:0.381662287972 
1.0 1:-0.343265008849 2:-0.405798008223 3:-0.267117931395 4:-0.00447365133619 5:0.0572182475116 6:-0.0411615119402 7:0.0173651856882 8:0.339311443666 9:-0.473093909315 10:0.140160469312 11:0.221667327634 12:0.102992271588 13:0.424697716939 
1.0 1:-0.270256433946 2:0.0631614386746 3:-0.0634355089456 4:-0.176160051196 5:-0.237799507589 6:-0.198119405474 7:-0.275578028384 8:0.166494873971 9:-0.0401754680126 10:-0.0765487780357 11:0.281121132843 12:0.0791850605956 13:0.0164066429282 
1.0 1:-0.137774262439 2:-0.235063378871 3:-0.513329018 4:-0.126160515728 5:-0.150262473523 6:-0.171474020949 7:-0.190260730887 8:-0.0243266868316 9:-0.493306692013 10:0.801730161158 11:0.346195227854 12:-0.0869666030911 13:-1.08296454555E-4 
1.0 1:-0.276535326947 2:-0.354280093312 3:-0.410963777058 4:-0.0589907997137 5:-0.0573406395642 6:-0.1119801315 7:-0.117575921828 8:0.185165305494 9:-0.490693729534 10:0.470493567211 11:-0.405556082793 12:-0.321336420599 13:0.433620532084 
1.0 1:0.218818577262 2:-0.387324109533 3:0.344599345221 4:0.015355803148 5:0.00574731874075 6:-0.0490570913723 7:-0.0230993156115 8:0.132058672344 9:-0.47962152529 10:0.454939305757 11:0.322654367777 12:0.418866031224 13:0.309167159184 
1.0 1:0.354029777138 2:-0.0193171339567 3:-0.0567990615788 4:-0.077371146052 5:-0.12571572672 6:-0.0907008992009 7:-0.102487503483 8:0.435549569471 9:-0.227932962289 10:-0.0779559956668 11:-0.245037022024 12:0.161031113559 13:-0.252298122434 
1.0 1:-0.139522545199 2:-0.209384294023 3:-0.46190684287 4:0.0171518320349 5:0.0723103151151 6:-0.0674424840725 7:-0.0242333830264 8:-0.0137373659252 9:-0.477284896327 10:0.63118908003 11:0.0222947081989 12:-0.189183927862 13:0.345092432051 
1.0 1:-0.365189611779 2:-0.328823986721 3:0.281723403325 4:-0.119491392014 5:-0.167083867906 6:-0.146691420559 7:-0.196839346341 8:0.386185592744 9:-0.510398458151 10:0.288710412356 11:-0.186949414448 12:-0.215776578029 13:0.346664711754 
1.0 1:0.0171904000669 2:0.0248558155498 3:0.241526669161 4:-0.0218166854717 5:-0.0792062363245 6:0.0903733963853 7:-0.0691053870158 8:-0.073776060414 9:-0.133429611869 10:0.203238276391 11:0.250695206799 12:-0.441650797894 13:-0.357437207621 
1.0 1:0.283220768251 2:0.0349929953692 3:-0.106054005243 4:-0.141727779813 5:-0.212241330139 6:-0.154984788097 7:-0.232123729551 8:0.255325779143 9:-0.110061818037 10:-0.059026330591 11:-0.0534605260265 12:0.0119713971599 13:0.0644804782772 
1.0 1:0.10478931903 2:-0.719667916778 3:-0.0269069736376 4:-0.165244053784 5:-0.237773748227 6:-0.194155006839 7:-0.265201953679 8:-0.0285946623474 9:0.0985906084936 10:-0.080582042293 11:0.0327048475238 12:0.013457934443 13:-0.205094297979 
1.0 1:0.419245689978 2:-0.135448764974 3:-0.087469706116 4:-0.182788147749 5:-0.223858095559 6:-0.190298802869 7:-0.272335232554 8:0.634814928703 9:-0.413768502553 10:-0.0683866418322 11:-0.399012591447 12:0.128770070312 13:-0.0538338022271 
1.0 1:-0.200481470934 2:-0.152871006503 3:0.240980180267 4:0.184612510098 5:0.188665252327 6:0.178864783448 7:0.230854549849 8:0.0922044794244 9:-0.409853418357 10:0.228455792054 11:0.171902687504 12:-0.352473511535 13:-0.255768147869 
1.0 1:-0.288044858063 2:-0.137578706438 3:0.210223447189 4:-0.0463375328596 5:0.056816008304 6:0.115989844349 7:-0.0906779624693 8:0.205202504073 9:-0.406418037626 10:0.150839178108 11:0.463921899832 12:-0.5052211297 13:-0.498906287159 
1.0 1:-0.22474067111 2:0.0862180478404 3:-0.0675566196437 4:-0.0976123383828 5:-0.187949033515 6:-0.122056874303 7:-0.157158285301 8:0.0862004607294 9:0.0214334815593 10:-0.0743710916812 11:0.356913883194 12:-0.144803002395 13:-0.236900804141 
1.0 1:0.259835708064 2:-0.258835501086 3:0.309062722085 4:0.0525614407556 5:0.0537199458612 6:-0.101322972733 7:-0.0259691599918 8:0.219698239587 9:-0.505203749321 10:0.356721455302 11:-0.185585566621 12:0.357321361928 13:-0.0868081859437 
1.0 1:0.129215529759 2:-0.310786060583 3:0.418008262316 4:-0.100308158548 5:-0.163873037682 6:-0.175410439569 7:-0.196156187098 8:-0.00256682828933 9:-0.511698818037 10:0.681296248302 11:0.242039087227 12:-0.042226609011 13:0.0610616685945 
1.0 1:0.274713881063 2:0.0185991171761 3:-0.0857441544296 4:0.183172132962 5:-0.0350279570415 6:0.044554033552 7:0.273475086242 8:0.254581064989 9:-0.147472733762 10:-0.0688580853681 11:0.00160348927528 12:-0.282593178058 13:-0.106044469237 
1.0 1:0.244776314512 2:-0.194684382932 3:0.323046798802 4:-0.0229161662063 5:0.0161194039768 6:0.00663457648699 7:-0.0198066698692 8:0.1761953105 9:-0.471325949 10:0.396818120617 11:-0.014439568201 12:-0.410876694641 13:0.0484743815527 
1.0 1:-0.313984823712 2:-0.371013431274 3:0.222912422494 4:0.0355017596585 5:0.164207891922 6:-0.0564757173235 7:0.0375459098121 8:0.270961143345 9:-0.494965006527 10:0.171391925707 11:-0.15721315773 12:0.0365682053016 13:-0.362236506494 
1.0 1:-0.134526435214 2:-0.00271691319067 3:0.29559144241 4:-0.183127014757 5:-0.239027521017 6:-0.174963385368 7:-0.256554068887 8:-0.0280254870902 9:-0.194909681116 10:0.322204040187 11:0.0659746905292 12:-0.0377707869603 13:-0.236896673552 
1.0 1:0.0124181568306 2:0.0654943998277 3:0.103950450281 4:0.0448162519958 5:-0.0351546490034 6:0.130951393868 7:0.0342190295709 8:-0.0767393125458 9:-0.0337047612 10:-0.00843868551672 11:-0.282781517506 12:-0.322665082424 13:0.369544627791 
1.0 1:-0.206060341912 2:-0.0540651043426 3:0.115946961233 4:0.222299672834 5:0.0643918915704 6:0.0918849875911 7:-0.0580178755393 8:0.0621754928052 9:-0.290903439603 10:0.00397913503362 11:0.473712918679 12:-0.498723267231 13:-0.498653571715 
1.0 1:-0.132614694713 2:-0.114918144271 3:0.307337170213 4:0.00483257350875 5:0.0885086582994 6:0.0562981240738 7:0.0159927096454 8:-0.0294943970089 9:-0.373817377474 10:0.354126766238 11:0.343594327228 12:-0.435106274153 13:-0.409785102421 
1.0 1:-0.0634935623049 2:-0.0460578597605 3:0.220969777124 4:0.0548975120263 5:0.112287158839 6:0.116247154433 7:0.0382628191523 8:-0.0683235726632 9:-0.271545664109 10:0.184510211404 11:0.266096171747 12:-0.409725843327 13:-0.366070773121 
1.0 1:0.170687499294 2:-0.0206916106207 3:0.202340559518 4:0.11389699993 5:-0.0400951375834 6:0.10226451278 7:0.0152246923579 8:0.0519050666506 9:-0.230506659279 10:0.132486613728 11:-0.325292434596 12:-0.438082860027 13:0.319182380929 
1.0 1:0.304917954035 2:0.0206791392594 3:-0.0960712606849 4:-0.125912532237 5:-0.201503465556 6:-0.0890007922347 7:-0.131048093083 8:0.306330571178 9:-0.143462532803 10:-0.0640282042462 11:-0.207071726099 12:-0.0034289820692 13:0.00509772259436 
1.0 1:0.251122723829 2:-0.331037126962 3:0.315920010684 4:0.0409023185195 5:0.0658678964139 6:-0.11365689185 7:-0.0228522996606 8:0.191346582805 9:-0.501929744078 10:0.375875763404 11:0.17879701089 12:0.117985152014 13:-0.102095108141 
1.0 1:-0.215611934899 2:-0.120389424846 3:0.139524502919 4:0.0478935769741 5:0.19844672219 6:0.252113871772 7:0.0287499576482 8:0.0731277138523 9:-0.390073242188 10:0.031337400761 11:0.400119891108 12:-0.476631241941 13:-0.383365015485 
1.0 1:-0.416586283928 2:-0.248581839228 3:-0.15191773465 4:0.0442935103331 5:0.115608634371 6:0.00969305893506 7:0.00701500760268 8:0.53599531021 9:-0.501434283213 10:-0.00902648057543 11:0.272343590781 12:0.0846387605359 13:0.12172327222 
1.0 1:0.275620001734 2:-0.298728605032 3:0.215658370857 4:0.145986204252 5:0.131416153554 6:0.0151214426075 7:0.0698828859797 8:0.246852180953 9:-0.479416892556 10:0.151653163414 11:-0.265967690066 12:-0.186924943905 13:0.390818949616 
1.0 1:-0.321052577218 2:-0.307880689646 3:0.28646585992 4:0.0272177412452 5:-0.0144003397677 6:-0.0577653552741 7:-0.0753595428109 8:0.27715393999 9:-0.507117163679 10:0.300564254105 11:0.323300986271 12:0.317950028155 13:0.286834676359 
1.0 1:0.298898459927 2:-0.456513867705 3:0.203968789749 4:0.0688715773369 5:0.0596311071544 6:-0.0313474016319 7:0.00335385435174 8:0.295601668634 9:-0.426684779765 10:0.129321238797 11:0.354141930663 12:0.394309175636 13:0.265981331806 
1.0 1:-0.269712760682 2:-0.286275115267 3:0.34036968856 4:-0.109578356646 5:0.0344187420081 6:-0.113670365724 7:-0.10963404436 8:0.165637455284 9:-0.503419977711 10:0.440735314548 11:0.100611861094 12:0.0330228511909 13:0.227841914062 
1.0 1:-0.227014860633 2:-0.290997590449 3:0.381723027021 4:-0.00819692552773 5:0.0179372480238 6:-0.0330144527283 7:-0.0414002935189 8:0.0917082779157 9:-0.510642747788 10:0.569215869313 11:0.322318339184 12:-0.0638791286833 13:0.0957030961342 
1.0 1:-0.219954215346 2:-0.185578890935 3:-0.282007830816 4:0.259128582464 5:0.103026095599 6:0.0833401677001 7:-0.0217737344983 8:0.101809594125 9:-0.448010346715 10:0.169085619946 11:0.474010618331 12:0.489186116641 13:0.485398156146 
1.0 1:0.229930123575 2:0.073784524006 3:-0.101674622847 4:-0.1573370471 5:-0.204629106387 6:-0.100805132193 7:-0.179153734668 8:0.145206576983 9:-0.0123353282591 10:-0.0614712404744 11:-0.0547591412212 12:0.385235132198 13:0.151116511633 
1.0 1:-0.35480296842 2:-0.414816971504 3:0.270950868035 4:-0.166081257354 5:-0.210964966478 6:-0.183002726377 7:-0.239306206662 8:0.358693067817 9:-0.468677295957 10:0.263655348962 11:0.22200053344 12:-0.291095465192 13:-0.0499808943453 
1.0 1:-0.042464420844 2:-0.366763535271 3:0.385215301324 4:0.0243055400625 5:0.126513429699 6:0.0477619796385 7:0.0864392812997 8:-0.078976317366 9:-0.48747005093 10:0.577326905576 11:0.126582343768 12:0.251818126997 13:0.32181367002 
1.0 1:-0.0756995610762 2:-0.685622156021 3:0.0138250192831 4:0.121632805042 5:-0.146162897783 6:-0.0346210081872 7:-0.0886329262687 8:-0.0612349982503 9:0.00321212925923 10:-0.0720609251849 11:-0.451553289715 12:0.435144164959 13:-0.486014579554 
1.0 1:-0.26615934002 2:0.0573806562499 3:-0.0150040387148 4:-0.0373563335358 5:-0.142967939075 6:-0.0438388786497 7:-0.104971399503 8:0.163713833675 9:-0.0547524572831 10:-0.0789045860145 11:0.0657132497322 12:-0.0758023103345 13:0.154326592402 
1.0 1:0.188529222629 2:-0.027613915918 3:0.158921049058 4:0.0977631150984 5:0.0583337822299 6:0.133097584322 7:0.0696376978609 8:0.0753809014734 9:-0.24131369005 10:0.0602200398859 11:-0.280197238839 12:-0.400517431007 13:0.300876219998 
1.0 1:0.294048038984 2:-0.315445302755 3:0.261683052756 4:0.0375892854728 5:0.0493337691639 6:-0.0778785283328 7:-0.0472189860938 8:0.280840005944 9:-0.511615798918 10:0.245226916155 11:0.347656469933 12:-0.234401931188 13:-0.339033318629 
1.0 1:0.263996764736 2:-0.268017538303 3:0.250989126723 4:0.00531038471675 5:0.18480874578 6:0.0165185604576 7:0.0574959692774 8:0.219106675179 9:-0.498803344176 10:0.234128258748 11:0.129612350467 12:-0.00999563076705 13:0.269902487313 
1.0 1:-0.261145461811 2:-0.531644161032 3:0.157397621522 4:0.0847014965494 5:0.0632821589292 6:0.119091630695 7:0.0421721191597 8:0.153366673475 9:-0.326891076668 10:0.0564676088812 11:-0.37826529561 12:0.416744816142 13:-0.346487942324 
1.0 1:-0.364411412641 2:-0.334900969908 3:-0.293708640509 4:0.079075733755 5:0.0754723739078 6:0.0579468626309 7:0.104591699133 8:0.390616975529 9:-0.46732959901 10:0.207967633964 11:-0.200071487899 12:-0.437457574639 13:0.154009592298 
1.0 1:-0.374201088704 2:-0.0821370399181 3:-0.106989769795 4:0.10355919039 5:0.0286269696478 6:-0.0455376523785 7:0.0481900404368 8:0.411592668157 9:-0.339554522719 10:-0.0541692685739 11:0.340507221252 12:0.209989999288 13:0.276649125132 
1.0 1:-0.26846195572 2:-0.139718627892 3:0.184980238751 4:0.0603894157084 5:0.128164894904 6:0.0418504788987 7:0.0476113326854 8:0.165000767078 9:-0.406324823063 10:0.0958819875708 11:0.198547873046 12:-0.407800016925 13:-0.290177701255 
1.0 1:0.285359928315 2:-0.0226717908171 3:0.119487896564 4:0.00336708716001 5:-0.0495725603337 6:0.0747970185498 7:0.0481000026439 8:0.260219783415 9:-0.235013676903 10:0.00568308643576 11:-0.116119383354 12:-0.243928839075 13:0.206008939536 
1.0 1:0.271487374776 2:0.0158235412674 3:-0.0579556670999 4:-1.33469842489E-4 5:-0.0470297452017 6:7.57479566782E-4 7:0.0935578555817 8:0.231032001681 9:-0.153929000193 10:-0.0756535765294 11:0.184023572679 12:-0.0937176789178 13:-0.0617128584246 
1.0 1:-0.256707242069 2:-0.122446148376 3:0.129508071917 4:0.112494748212 5:0.160786934881 6:0.108048842818 7:-0.055748251084 8:0.144735060443 9:-0.391121635116 10:0.0209043764482 11:0.474404844861 12:-0.504730733889 13:-0.506796634763 
1.0 1:-0.231339373316 2:-0.00859421875734 3:-0.266496584233 4:0.0859104541932 5:-0.0396275848297 6:0.0605274566978 7:-0.0403296613028 8:0.0965714888412 9:-0.206839070075 10:0.13302062431 11:0.415576324125 12:0.371421132991 13:0.382995507962 
1.0 1:0.0982439186705 2:0.0702202023526 3:-0.102857430316 4:0.199635571383 5:-0.0888233712629 6:-0.01882833939 7:0.10708173597 8:-0.0333363745865 9:-0.0205638832993 10:-0.0592785868016 11:-0.120255426332 12:0.0150196105478 13:0.19453107253 
1.0 1:-0.225131548203 2:-0.557093608697 3:0.177437972903 4:0.163428871475 5:0.0331312223552 6:0.0636630258135 7:0.0137477045787 8:0.0878189512313 9:-0.28442066651 10:0.0837678727835 11:-0.456807123213 12:0.433052765149 13:-0.43840949989 
1.0 1:-0.180081283086 2:-0.161057958087 3:0.29383595451 4:-0.0682675333921 5:0.0452337047434 6:0.204783283209 7:-0.0449381123006 8:0.0254627561405 9:-0.428890442254 10:0.337160961996 11:0.408620797019 12:-0.4999530599 13:-0.421478168495 
1.0 1:0.238209593605 2:-0.308366582426 3:0.323514682618 4:0.00736321570214 5:0.0866698641733 6:-0.146898412358 7:-0.036721946208 8:0.1645390736 9:-0.512346960602 10:0.394650161266 11:0.213801831521 12:-0.046829306459 13:-0.0494844105615 
1.0 1:0.163719242397 2:-0.373482828109 3:0.288584434162 4:-3.03407822803E-4 5:0.144577628739 6:0.107123375118 7:0.0844795377843 8:0.0409153215797 9:-0.466673971227 10:0.310536677637 11:-0.119060385377 12:-0.217762814641 13:0.438068029529 
1.0 1:-0.172334829006 2:-0.155866232575 3:0.0978230570302 4:0.15089268415 5:0.308338133406 6:0.141303301736 7:0.0242110541848 8:0.0120819277115 9:-0.436365461846 10:-0.0181094190639 11:0.471648313711 12:-0.500703909594 13:-0.5013886924 
1.0 1:-0.0211403451118 2:0.00219858249964 3:0.205170313808 4:-0.0236297434408 5:0.00889710227223 6:0.245309857198 7:0.0557286091583 8:-0.0772311309338 9:-0.183076762047 10:0.130756985415 11:-0.184434858679 12:-0.426205831791 13:0.111584579765 
1.0 1:0.193155775096 2:-0.421556233546 3:0.349326830754 4:-0.0102044455509 5:-0.0676827309482 6:-0.100281049287 7:-0.0881034411538 8:0.0855931096664 9:-0.457851471317 10:0.466356189978 11:0.351745075695 12:0.327941744534 13:0.324042537375 
1.0 1:-0.316106216427 2:-0.371309624972 3:0.273979007631 4:0.031681899335 5:-0.0385090951358 6:-0.0356899146111 7:0.0359512788259 8:0.272771084155 9:-0.488187665941 10:0.272861075291 11:0.389365330445 12:-0.0939056744653 13:0.0365084612902 
1.0 1:-0.149226936108 2:0.116702822096 3:-0.062069291637 4:-0.180232876393 5:-0.241815260714 6:-0.181244473972 7:-0.281183033953 8:-0.0137038296213 9:0.108108133992 10:-0.0767443675372 11:0.359712874305 12:-0.351409221499 13:-0.422966818566 
1.0 1:-0.0233790002486 2:-0.051645624427 3:0.342076523967 4:0.0992408509225 5:-0.162966218555 6:-0.0978626114985 7:-0.100682425721 8:-0.0776416462746 9:-0.289100992831 10:0.447719637857 11:0.0796935921248 12:-0.175296399506 13:-0.233681986464 
1.0 1:-0.263750120645 2:-0.300086441852 3:0.374588752199 4:-0.141649650063 5:-0.208790204497 6:-0.156207519986 7:-0.230632861122 8:0.154102825153 9:-0.512668849036 10:0.541273943069 11:0.376534349618 12:0.391555144708 13:0.355998927253 
1.0 1:0.0120237271833 2:-0.0722727572696 3:0.249083905957 4:0.0159254155388 5:0.133265135077 6:0.270893243019 7:0.192728762407 8:-0.0742138654748 9:-0.3211567739 10:0.221315440961 11:-0.108822797612 12:-0.375953289932 13:0.0154950350574 
1.0 1:0.296528327236 2:-0.198355200093 3:0.269337613237 4:-0.0459353770541 5:0.0285406148661 6:-0.105339152775 7:-0.0827337407935 8:0.292682732721 9:-0.473683653532 10:0.259984404809 11:0.0544335213818 12:-0.359832725464 13:-0.100670644683 
1.0 1:-0.197819958375 2:-0.629864328161 3:0.0956445963756 4:0.0727647679311 5:-0.0503356430964 6:0.0451817586841 7:-0.0119996866544 8:0.0475098142218 9:-0.135149027474 10:-0.0186848852523 11:-0.444615994324 12:0.44145912558 13:-0.449661858068 
1.0 1:0.426466244866 2:-0.131831195584 3:-0.0849618543412 4:-0.0908959010131 5:-0.123124560334 6:-0.097326044711 7:-0.0645364044876 8:0.659059974385 9:-0.409177440213 10:-0.0692719143874 11:-0.365174636723 12:0.0110469616438 13:-0.0130523897414 
1.0 1:0.422184379743 2:-0.241782673791 3:-0.070427547386 4:0.0235672599757 5:0.0645669751925 6:-0.0978747961402 7:0.066026464667 8:0.647696542409 9:-0.497209818258 10:-0.0741514805684 11:0.0658849242319 12:-0.0865877816858 13:-0.136035533682 
1.0 1:-0.419755934128 2:-0.351474563325 3:0.168870104162 4:-0.0865737047258 5:-0.0754204322042 6:-0.0653814622872 7:-0.104767395682 8:0.544478394543 9:-0.504130337305 10:0.0710563257895 11:-0.263205470624 12:-0.366287683539 13:0.281244252588 
1.0 1:-0.237973609433 2:0.0424877268287 3:-0.0324991077273 4:-0.138164346009 5:-0.0505260997052 6:0.0968029894361 7:-0.105942409069 8:0.107530963728 9:-0.0864735959615 10:-0.0619383818002 11:0.403809705996 12:-0.498763029506 13:-0.396438005564 
1.0 1:0.18274780885 2:0.00528033973568 3:0.153141760553 4:0.0654011649872 5:-0.0155564852588 6:0.111173676978 7:0.024097534579 8:0.0687648151482 9:-0.177255183386 10:0.0497093066228 11:-0.388736458607 12:-0.416479787736 13:0.348727846117 
1.0 1:-0.0857450809459 2:-0.146704164614 3:0.223990424885 4:0.0383671763307 5:0.225471441267 6:0.245011033422 7:0.0186038489325 8:-0.0557950506646 9:-0.410932111795 10:0.167649240487 11:0.437166099978 12:-0.479367311099 13:-0.426248618959 
1.0 1:-0.110050475545 2:-0.620745526474 3:0.154384457449 4:0.0216928234625 5:-0.011217717671 6:0.21119581096 7:0.0492994903872 8:-0.0467937281921 9:-0.154162869685 10:0.0597412118461 11:-0.375834016756 12:0.448656291069 13:-0.373844856338 
1.0 1:0.303315354805 2:-0.150361670695 3:-0.246066955428 4:0.102919999513 5:0.0244003160709 6:0.00197056158926 7:-0.0307354300885 8:0.326923457638 9:-0.411192301438 10:0.101340052391 11:-0.485168850893 12:0.439571948994 13:-0.422380190629 
1.0 1:-0.0722740646456 2:-0.249377238821 3:-0.519512556902 4:-0.0857389269098 5:-0.1423782906 6:-0.156211532861 7:-0.166315807258 8:-0.0690675775423 9:-0.498789199443 10:0.824484389329 11:0.321240636809 12:0.0161394320053 13:0.143240803886 
1.0 1:-0.328870104832 2:-0.378654591046 3:-0.0219923339246 4:0.293563742512 5:0.253486719309 6:-0.0583991342344 7:0.0905955467522 8:0.300103460343 9:-0.430731255631 10:-0.0800784969722 11:-0.383696097704 12:0.331262924218 13:-0.371488657687 
1.0 1:0.00139544699596 2:0.076237281727 3:0.0635628176002 4:0.164712075495 5:-0.0767300376551 6:0.0286147767393 7:0.0866125887539 8:-0.0767721954748 9:-0.00415861826068 10:-0.0454254922076 11:-0.258545298871 12:-0.115550551181 13:0.286995280407 
1.0 1:-0.0979226527644 2:-0.43174000759 3:0.380689942092 4:-0.00148093173722 5:-0.0109796166548 6:0.0866527025612 7:0.0632857821383 8:-0.0544727404326 9:-0.445990071992 10:0.569575059925 11:-0.27492930042 12:0.402124943631 13:-0.200832795639 
1.0 1:-0.158558218257 2:-0.02204279024 3:0.00790723910016 4:-0.00801000813089 5:0.190935377577 6:0.270040755069 7:0.0999153829914 8:-0.00108823816985 9:-0.213439565881 10:-0.0473605223335 11:0.315151713044 12:-0.461590051728 13:-0.396522620416 
1.0 1:0.174066802824 2:-0.414510792372 3:0.363277225023 4:-0.0456940860325 5:-0.0960586978089 6:-0.11388286478 7:-0.132112503814 8:0.05556171428 9:-0.462676646908 10:0.50757792981 11:0.247921444369 12:0.340149157556 13:0.156745818475 
1.0 1:0.288938222791 2:-0.344572227637 3:0.289366734748 4:-0.00136256031203 5:-0.0540625357843 6:-0.132203339924 7:-0.0972031526313 8:0.273931507937 9:-0.503754230484 10:0.307466460451 11:0.318525563011 12:0.250557785209 13:0.0889758217467 
1.0 1:-0.110345410532 2:-0.178673226289 3:-0.407179544759 4:-0.12059929348 5:0.0845588594108 6:0.179248928537 7:-0.0542773297925 8:-0.046746242301 9:-0.444862914337 10:0.477574944988 11:0.338865877147 12:0.479980057781 13:0.382621672505 
1.0 1:0.078891991176 2:-0.718859199436 3:-0.0136677658393 4:-0.0305641809553 5:-0.227463908196 6:-0.109149307002 7:-0.129293063636 8:-0.047036434718 9:0.0962323926588 10:-0.0778206079142 11:0.083165263111 12:-0.0169023262357 13:-0.313384450693 
1.0 1:-0.205673017241 2:-0.659224217659 3:-0.0482573951357 4:0.012794801742 5:-0.0436568505085 6:-0.0337409097712 7:-0.056895106356 8:0.0568014118358 9:-0.0636227582719 10:-0.0767963472206 11:-0.385377479381 12:0.311426947965 13:-0.36650437127 
1.0 1:-0.203690209822 2:-0.00793526938321 3:0.114404819513 4:0.0966952525306 5:0.0490956937207 6:0.0779081106822 7:-0.0285055456611 8:0.0543527636239 9:-0.202587307609 10:2.07900824002E-4 11:0.379537570642 12:-0.487268537109 13:-0.456773565446 
1.0 1:-0.121908239828 2:-0.704625209438 3:-0.00597203193766 4:-0.085938532962 5:-0.182343421515 6:-0.0558364365459 7:-0.173568115713 8:-0.038504339194 9:0.0555104480295 10:-0.077109652087 11:-0.39536566934 12:0.413809896023 13:-0.419298310069 
0.13822607863430494 1:-0.225376734495 2:0.033222487333 3:-0.134695910101 4:0.137529959071 5:-0.0650504465041 6:0.0314258388355 7:-0.018050946729 8:0.0913249563482 9:-0.113235639807 10:-0.039156982513 11:0.358192540685 12:0.375816149064 13:0.395709228562 
1.0 1:-0.0511169995327 2:-0.0101617228007 3:-0.343989182791 4:0.05012016448 5:-0.0567974701674 6:0.131036842606 7:-0.0152661632234 8:-0.0755818984457 9:-0.208828132414 10:0.294094264384 11:0.334382035378 12:0.390281270789 13:0.336339996461 
1.0 1:0.241834083106 2:0.0196774004175 3:0.1372786676 4:0.154736317367 5:-0.0393538640431 6:0.0282279175224 7:0.0970028334199 8:0.182842009171 9:-0.144273681741 10:0.0330153275284 11:-0.0798648452808 12:0.0479830866405 13:-0.0562620571113 
1.0 1:0.208776612627 2:-0.396299808202 3:0.339939235135 4:0.0978713528579 5:-0.0398235026128 6:-0.0489252920631 7:0.00385667684278 8:0.124756974884 9:-0.46693173651 10:0.444948093461 11:0.227610209755 12:0.350264644716 13:0.161896576536 
1.0 1:0.140582920844 2:-0.0183886130963 3:0.1856465048 4:0.0240595989984 5:0.0104746220218 6:0.155201944606 7:-0.00348213551738 8:0.0143199805295 9:-0.225360457314 10:0.100325866636 11:-0.375008630979 12:-0.415413756898 13:0.262628452679 
1.0 1:-0.0411389951475 2:-0.0269250139347 3:0.235721178083 4:-0.00964446484216 5:0.129836307112 6:0.107538844536 7:0.134839572982 8:-0.0796911750156 9:-0.237370978498 10:0.188188113173 11:0.34398101571 12:-0.382721255417 13:-0.279932521047 
1.0 1:-0.202304375676 2:0.0963851800536 3:0.00673191814084 4:-0.100645904497 5:-0.170389911389 6:-0.0301285139306 7:-0.0898731141334 8:0.0521247439879 9:0.0498437729612 10:-0.0723567996359 11:0.28846559142 12:-0.221341651078 13:-0.215714695822 
1.0 1:-0.138602208459 2:-0.250698466502 3:-0.50299442573 4:-0.110557955619 5:-0.128090523669 6:-0.142643873485 7:-0.183614544544 8:-0.023983845485 9:-0.502032051086 10:0.765041825706 11:-0.354374683284 12:-0.310182437227 13:0.199417662763 
1.0 1:-0.327185780384 2:-0.470228680908 3:-0.239318215952 4:0.103851373374 5:-0.0229777268104 6:0.0259432065537 7:0.0303446861513 8:0.303317076523 9:-0.407053805451 10:0.0942897009182 11:-0.367867316278 12:-0.42511775967 13:0.388020054511 
1.0 1:-0.0784925497379 2:-0.0501613224813 3:0.350026785144 4:0.00518539996327 5:-0.176423575285 6:-0.115977616086 7:-0.160780126083 8:-0.0661144729183 9:-0.287045532178 10:0.468188447807 11:0.217237715105 12:-0.300505219991 13:-0.259405044059 
1.0 1:-0.193886323315 2:0.0938392302667 3:-0.132577338476 4:-0.167711680797 5:-0.235996742867 6:-0.192275785664 7:-0.268383953715 8:0.0398254139262 9:0.0423166658034 10:-0.041246843904 11:0.353374022056 12:0.00714113583146 13:-0.0223674323554 
1.0 1:-0.418650825298 2:-0.285213471797 3:-0.0985491668062 4:0.105929308651 5:-0.00214149069026 6:-0.114670906554 7:0.0295167296552 8:0.550728122463 9:-0.504873349633 10:-0.0619788585981 11:0.264301414776 12:0.247027037903 13:0.360850352113 
1.0 1:0.343866992424 2:-0.456866638185 3:0.181368185854 4:-0.0370502620712 5:-0.074000833549 6:-0.0810291221839 7:-0.11586870884 8:0.409875635928 9:-0.41857715523 10:0.0949092079219 11:0.290763047724 12:0.350314354211 13:0.130713811783 
1.0 1:0.212354905939 2:-0.366437389276 3:0.338131338669 4:-0.0538897003848 5:0.0781789592665 6:-0.0284860042795 7:-0.0287157981388 8:0.113578313711 9:-0.486586967616 10:0.439445114857 11:0.119290212918 12:0.191697815908 13:-0.00129081848411 
1.0 1:0.146072955613 2:-0.129178755205 3:0.323791668005 4:-0.122974059626 5:0.054206674578 6:0.0665523308392 7:0.00216786941631 8:0.0159690780929 9:-0.405848756851 10:0.405355310909 11:-0.271379278125 12:-0.381085806866 13:0.35476974144 
1.0 1:0.123679302602 2:-0.210193005832 3:0.205997531204 4:0.16206163331 5:0.233495225956 6:0.19911948659 7:0.130722979168 8:0.0157610806312 9:-0.471759679941 10:0.166505404653 11:-0.406391647293 12:-0.232901885071 13:0.384565176427 
1.0 1:-0.411387630211 2:-0.503146233128 3:0.0579257672769 4:0.0755587520423 5:-0.039125654941 6:0.00784912099115 7:-0.0154158275316 8:0.520037016513 9:-0.371679071995 10:-0.0507586550011 11:-0.385453566764 12:-0.402130674429 13:0.407525140895 
1.0 1:0.149285248212 2:-0.0819007482777 3:0.261222655174 4:0.154950392626 5:0.0476521144085 6:0.105784411077 7:0.0359810868034 8:0.0261198210786 9:-0.340224966838 10:0.255009237891 11:-0.407893290588 12:-0.396033063661 13:0.272090840916 
1.0 1:-0.148924894857 2:-0.182383978924 3:-0.228287414562 4:0.00933556453266 5:0.322321880619 6:0.197541310795 7:0.0576814486003 8:-0.0099549989647 9:-0.450921149021 10:0.0691930818863 11:0.120840096629 12:0.407175123874 13:0.34111246881 
1.0 1:0.357661372399 2:-0.383862957292 3:-0.273084372935 4:0.00293077813248 5:0.0342496403944 6:-0.115457065558 7:-0.0178697580649 8:0.452255614414 9:-0.484953705719 10:0.142156589293 11:-0.058148756279 12:-0.274266168692 13:-0.180316926609 
1.0 1:-0.310111593737 2:-0.35180071042 3:0.322900819554 4:-0.0369735036361 5:-0.0342754672067 6:-0.0524790778752 7:-0.0711112831849 8:0.251028001929 9:-0.497591360309 10:0.393479347616 11:0.326917025188 12:0.137379528232 13:0.309536515476 
1.0 1:-0.3324377379 2:0.0596936400589 3:-0.00386468801531 4:0.187941840982 5:-0.015235315158 6:0.101684197557 7:0.222988803464 8:0.308878742753 9:-0.0456852305378 10:-0.076859216839 11:0.0407731115077 12:-0.106362607302 13:-0.146259907737 
1.0 1:-0.13442338586 2:-0.179012685887 3:0.399656038465 4:-0.00255072294012 5:-0.0428270942076 6:-0.0957381446661 7:-0.102927379641 8:-0.0272097535569 9:-0.453647534096 10:0.622203047708 11:0.390055557971 12:-0.292668707374 13:-0.283523003583 
1.0 1:-0.107250380914 2:-0.159776669513 3:0.303964673239 4:0.143034668671 5:0.0986692115258 6:0.162933188514 7:0.0472431845893 8:-0.0219395506447 9:-0.395171312641 10:0.385811077053 11:0.425173406838 12:-0.356021891299 13:-0.433377859388 
1.0 1:-0.350975931986 2:-0.276643793704 3:0.272721339777 4:-0.0487280439599 5:-0.124862647386 6:-0.0531671583642 7:-0.0771146943072 8:0.351034424398 9:-0.508408233666 10:0.26986460328 11:-0.359325186794 12:-0.34638965074 13:0.270968789275 
1.0 1:0.0272714532579 2:-0.214229906358 3:0.358366328294 4:0.0191899015775 5:0.137854038995 6:0.207338731886 7:0.111137362791 8:-0.0744884367917 9:-0.445825088069 10:0.510687025692 11:-0.148120768516 12:-0.378182308264 13:0.198788237398 
1.0 1:0.185519475277 2:-0.404007527686 3:0.361626531666 4:-0.0112626689051 5:-0.0229143790917 6:-0.0482685883249 7:-0.0760763632261 8:0.0747188460219 9:-0.471754296602 10:0.503451651347 11:0.326813579536 12:0.452532065609 13:0.279909322529 
1.0 1:0.284301006941 2:-0.454879804547 3:0.245561688301 4:-0.00416068085319 5:0.00487618486273 6:-0.0638076174967 7:-0.0299679658193 8:0.264124367361 9:-0.408352869151 10:0.213441077721 11:0.286375522149 12:0.398363602486 13:0.197860643848 
1.0 1:0.137935623411 2:-0.675894319205 3:-0.0815556688173 4:0.0526695832599 5:-0.0723984463625 6:-0.0190168974412 7:-0.0105461912499 8:0.011942704371 9:-0.0203988972272 10:-0.0662090367592 11:-0.511601172203 12:0.480051275749 13:-0.495781453327 
1.0 1:-0.357368536919 2:-0.414570696714 3:0.266182209365 4:-0.184856392822 5:-0.236719217061 6:-0.192547247501 7:-0.276620029173 8:0.36536540627 9:-0.469028905371 10:0.252826389506 11:0.148085153177 12:0.193733292658 13:0.250211099508 
1.0 1:-0.390703169848 2:-0.470581452845 3:-0.181375627348 4:0.127192800271 5:-0.0332448726641 6:0.020012975006 7:0.0018861945439 8:0.465008929755 9:-0.402489853129 10:0.0221603853293 11:-0.267784122676 12:-0.295909570774 13:0.140094731443 
1.0 1:-0.184487525589 2:0.103723483375 3:-0.0918865185428 4:-0.144080088015 5:-0.222787644466 6:-0.177388497671 7:-0.249134477956 8:0.0275096072368 9:0.0703413179467 10:-0.0662731820288 11:0.397642245829 12:-0.278906503378 13:-0.354910143237 
1.0 1:0.337417535292 2:-0.188038306179 3:0.201640606466 4:-0.0224257760871 5:0.032104957279 6:-0.032520739403 7:-0.0591583385372 8:0.390661410724 9:-0.465650653337 10:0.124726899954 11:0.324110461944 12:-0.430492098704 13:-0.338160804149 
1.0 1:0.345444711615 2:-0.196847602334 3:-0.0558408376278 4:0.232177632698 5:0.177276159884 6:-0.0738835843074 7:0.167147156742 8:0.452280267989 9:-0.468165770755 10:-0.0775596665195 11:0.0847846405661 12:0.166377199887 13:-0.0798499915879 
1.0 1:-0.423419509742 2:-0.209786986345 3:0.0830679103208 4:0.0778979563817 5:0.0663182872997 6:-0.0420182294709 7:0.039604520879 8:0.557754279308 9:-0.479453660186 10:-0.028769903538 11:0.288735025577 12:-0.334631224987 13:-0.283757926647 
1.0 1:-0.0814383363018 2:-0.728626972422 3:-0.0637050092096 4:-0.133076158476 5:-0.224242572657 6:-0.167990683539 7:-0.22058840542 8:-0.0655681018804 9:0.125178589612 10:-0.076439916477 11:-0.200308807437 12:0.0797027100845 13:-0.283013620055 
1.0 1:-0.132206053574 2:-0.189865394184 3:-0.335668356819 4:0.0246624787671 5:0.195402529981 6:0.197018950178 7:0.00465508797483 8:-0.026332600237 9:-0.451214811029 10:0.287782800069 11:0.465736100208 12:0.472072580329 13:0.477919883495 
1.0 1:-0.0557897471923 2:-0.051106482326 3:0.259141514215 4:0.00624952105865 5:0.03246042851 6:0.272594134924 7:0.00200972551869 8:-0.0759826366482 9:-0.280402145803 10:0.249367313196 11:0.241002540589 12:-0.440698590329 13:-0.156454259576 
1.0 1:0.0827723258934 2:0.0558331240947 3:0.121722504374 4:0.13997340269 5:-0.118215475844 6:-2.81123151312E-4 7:-0.0474865835879 8:-0.0438090164976 9:-0.0584115100998 10:0.00865664819157 11:-0.424279147819 12:-0.450471608669 13:0.386052731217 
1.0 1:-0.016673696339 2:-0.406716545136 3:0.384878427453 4:0.0359291472736 5:0.0784279712061 6:0.0568753320845 7:0.045897822039 8:-0.0757100888294 9:-0.467844470929 10:0.574091077148 11:-0.279587823885 12:0.213599964461 13:-0.0230479924547 
1.0 1:0.282421249681 2:-0.307121898875 3:0.295378089826 4:-0.0449621003767 5:0.0569557048132 6:-0.111277016651 7:-0.00208256812325 8:0.259001598647 9:-0.489706293879 10:0.322181455916 11:0.300736642344 12:-0.361025914689 13:-0.16903633893 
1.0 1:-0.36043513533 2:-0.267418492427 3:-0.321706737868 4:-0.0500698017398 5:0.0178709714344 6:-0.0465895401619 7:-0.0272531309564 8:0.37392439386 9:-0.482462919481 10:0.243454251732 11:0.108534791306 12:-0.377612935778 13:-0.14685227852 
1.0 1:0.158868822897 2:-0.337363713482 3:0.369520648721 4:0.00325505608861 5:0.065570826177 6:-0.0513060487554 7:-0.0464757930339 8:0.0329617715917 9:-0.508550209171 10:0.530614010031 11:0.380053863988 12:0.229497681046 13:0.0471053727094 
1.0 1:0.344300509809 2:-0.0187513692487 3:-0.0815107524106 4:-0.178920962372 5:-0.224247590215 6:-0.160281941852 7:-0.248515032772 8:0.408226354505 9:-0.227945621756 10:-0.070791724503 11:-0.296577431312 12:0.217104184109 13:0.127465536362 
1.0 1:-0.195798062337 2:-0.415762135507 3:0.157270356624 4:0.0108505018927 5:0.284021052664 6:0.131659318245 7:0.0141934809041 8:0.0444718243549 9:-0.464142536583 10:0.0675741046197 11:-0.4669814637 12:0.371246905327 13:-0.479093002361 
1.0 1:0.222084171191 2:-0.188713894774 3:0.342353508314 4:-0.0979740100218 5:0.0193483547465 6:-0.117331098849 7:-0.090202248633 8:0.131760461953 9:-0.461950896385 10:0.446504975933 11:-0.135214147935 12:-0.289498370619 13:0.230400817005 
1.0 1:0.0796844033234 2:-0.108418500486 3:0.262940721085 4:0.159456564735 5:0.0725060074585 6:0.239617311641 7:0.149577718959 8:-0.0209515331721 9:-0.369831447266 10:0.245786025646 11:0.032481188208 12:-0.350793591847 13:-0.266307716922 
1.0 1:-0.0312107386047 2:0.0290258334726 3:0.100330909653 4:0.0667970454876 5:0.0436444182435 6:0.18787160263 7:0.131753880637 8:-0.0798888800863 9:-0.110437479238 10:0.0354940614419 11:-0.201980646318 12:-0.342816246464 13:0.223014522756 
1.0 1:-0.184487526654 2:-0.274753472536 3:0.33968845134 4:0.0495951447041 5:0.163295210649 6:0.0774674477188 7:0.067319713224 8:0.0320886834644 9:-0.504641316991 10:0.459785713785 11:0.266149023933 12:-0.292809065355 13:-0.184560003485 
1.0 1:-0.362943849996 2:-0.00285669729502 3:0.0121406420806 4:-0.0445647464947 5:-0.110747670173 6:-0.0292677847909 7:-0.049402556756 8:0.382908439234 9:-0.193162088621 10:-0.0731339728356 11:0.178644540896 12:0.0569764713345 13:-0.031385821602 
1.0 1:-0.287881397267 2:-0.338358794642 3:0.210560321571 4:0.0818024867366 5:0.132142310509 6:0.0815030367977 7:0.0276458948123 8:0.20969271372 9:-0.476473752391 10:0.146492450487 11:-0.454850359981 12:0.249306614127 13:-0.334744851991 
1.0 1:-0.0701420121828 2:-0.0803432326319 3:0.2951310501 4:0.0571816823306 5:0.0655208188292 6:0.198819798843 7:0.0714612709523 8:-0.0607513895954 9:-0.337833453151 10:0.322095493687 11:0.235839869567 12:-0.457338916832 13:-0.306280651647 
1.0 1:-0.395837863231 2:-0.301770424546 3:-0.109879413182 4:0.0910401653223 5:0.131829239208 6:0.0452349576336 7:0.0872741676654 8:0.49176663075 9:-0.511214063791 10:-0.0454915311792 11:0.0515696701944 12:-0.159837861902 13:0.0692403616171 
1.0 1:0.27999426292 2:-0.0725756108794 3:0.156877335185 4:0.101962295631 5:0.0278100423667 6:-2.96999495869E-4 7:0.0319853257625 8:0.251238838036 9:-0.325300204134 10:0.0536436210429 11:-0.356222697988 12:-0.360884179698 13:0.279938881169 
1.0 1:0.33760231302 2:-0.307544558438 3:0.257176407058 4:-0.0422504560789 5:-0.119486059561 6:-0.154701332078 7:-0.179004552305 8:0.394437811359 9:-0.50609502012 10:0.233217975123 11:0.373104037926 12:-0.254530316407 13:-0.307133579809 
1.0 1:0.26318302897 2:-0.305011927387 3:0.325457328918 4:-0.0880367615166 5:-0.0737371427279 6:-0.0502293067572 7:-0.0348504245743 8:0.212132653526 9:-0.511785701994 10:0.401138425937 11:-0.48348506463 12:-0.463220468607 13:0.45663328201 
1.0 1:-0.355908077251 2:-0.274627007241 3:-0.345171989976 4:-0.0644028770955 5:0.0269152514886 6:-0.0641652968203 7:-0.0171136208011 8:0.36156279949 9:-0.50273959569 10:0.296304755025 11:-0.139923754673 12:-0.335374104552 13:0.0977225259882 
1.0 1:0.267042045964 2:-0.253953281196 3:0.297373142351 4:0.0508921719484 5:0.0856766589739 6:0.00901173174445 7:0.0572723907141 8:0.220252800283 9:-0.492475899783 10:0.335083319207 11:0.206364688337 12:0.303699993583 13:0.0782097096278 
1.0 1:0.0971850002032 2:0.0765700838384 3:-0.0357855151377 4:0.135336281527 5:-0.13865509493 6:0.0441045009489 7:-0.0367651975229 8:-0.0346124073659 9:-0.00441232279135 10:-0.0763371564811 11:-0.382670741009 12:-0.272137649898 13:0.365096193773 
1.0 1:-0.0867400389963 2:0.0506147733316 3:0.12397208503 4:0.116321983126 5:0.0708901594478 6:0.218695177149 7:0.217726490747 8:-0.056829382151 9:-0.0665951714658 10:0.0249477126486 11:0.308627450064 12:-0.33031510196 13:-0.269682245105 
1.0 1:0.0384327462722 2:-0.347720544943 3:0.43357565456 4:-0.121567743266 5:-0.132594610216 6:-0.125400642719 7:-0.154669152868 8:-0.0716397605806 9:-0.505650540662 10:0.735098271031 11:0.25033833958 12:0.169393572254 13:0.218641128734 
1.0 1:0.277261682595 2:-0.267661439121 3:0.316021073033 4:-0.0665042745359 5:-0.0535005606525 6:-0.0859404720769 7:-0.0760781393963 8:0.243337523232 9:-0.498180304264 10:0.376037007408 11:0.336912887361 12:-0.152735775569 13:-0.203648978553 
1.0 1:-0.0713786009327 2:-0.340941346567 3:0.421698919861 4:0.0720476114288 5:-0.112485370426 6:-0.12573233695 7:-0.0485592045695 8:-0.0611635383228 9:-0.504506612032 10:0.693883228921 11:0.353834525445 12:-0.130818823547 13:0.0703463649029 
1.0 1:0.0619919241991 2:-0.0324129360081 3:0.234721782938 4:0.0233841865275 5:0.0577941249011 6:0.219386202174 7:0.0882597479635 8:-0.0593452640386 9:-0.252434187367 10:0.191537785601 11:-0.343063272944 12:-0.39376358868 13:0.322471642343 
1.0 1:-0.220163865879 2:-0.140573931308 3:0.223960481504 4:0.096949694932 5:0.140925897676 6:0.173841663956 7:0.023129052875 8:0.0954241206363 9:-0.386886462005 10:0.1760088902 11:0.427041660284 12:-0.456482687102 13:-0.419203918186 
1.0 1:-0.411977498167 2:-0.199513356337 3:0.117971957149 4:0.0307784999255 5:0.120342997317 6:-0.030780302775 7:0.0814202749027 8:0.522515734952 9:-0.458541815271 10:0.00459549420273 11:0.234989510054 12:0.112083050261 13:0.11726871646 
1.0 1:0.349886487332 2:-0.36418098493 3:0.193933642953 4:-0.0317308240237 5:-0.0201532594971 6:-0.0408330860865 7:-0.0987723752561 8:0.425289903761 9:-0.496753929267 10:0.110553732339 11:0.248400848061 12:0.111498564848 13:-0.183072349077 
1.0 1:0.145014037165 2:-0.023533751226 3:0.174885203948 4:0.0858175702263 5:0.0556122825495 6:0.180098515301 7:0.0760733707498 8:0.0252886795929 9:-0.231712651254 10:0.0801625955013 11:-0.416681599013 12:-0.371007563937 13:0.265724805353 
1.0 1:0.359736570868 2:-0.214173329713 3:-0.272960850987 4:0.0506377911048 5:-0.00102369209747 6:0.0416789757553 7:-0.0345477439967 8:0.457740393786 9:-0.460070548284 10:0.150637395685 11:-0.18591586518 12:0.285968267788 13:0.112705841426 
1.0 1:-0.318579399513 2:-0.397660973069 3:0.306487492421 4:-0.0541018273251 5:-0.146448200158 6:-0.140795733802 7:-0.100712781376 8:0.269708016107 9:-0.480099911784 10:0.349805598737 11:-0.00720705935127 12:0.221735200456 13:-0.194289430741 
1.0 1:-0.137493541788 2:-0.714689176596 3:-0.0789242963676 4:-0.052391786456 5:-0.194865948704 6:-0.0799907163531 7:-0.116217472194 8:-0.0225033438035 9:0.0842791920202 10:-0.0706445803317 11:-0.256455311101 12:0.00210571474504 13:-0.270429607943 
1.0 1:0.224013678118 2:-0.179392081063 3:0.330895997981 4:-0.0662351275288 5:0.0282494476294 6:-0.10087819941 7:-0.0234335774246 8:0.134594234061 9:-0.455808877259 10:0.416135887104 11:-0.283608952254 12:-0.211117671444 13:0.346823919779 
1.0 1:0.0709429893644 2:0.0427373241213 3:0.204436672471 4:-0.0746274801307 5:-0.136493585422 6:0.0374089431826 7:-0.136942299925 8:-0.0525894652567 9:-0.0913789159385 10:0.132524960435 11:-0.0580235553916 12:-0.396157276231 13:-0.145726118125 
1.0 1:0.274351431156 2:0.0217707303202 3:-0.0194882262 4:0.0053985574839 5:-0.102834858928 6:0.0972682420142 7:0.00140871879506 8:0.238582688931 9:-0.13906635876 10:-0.0786480748285 11:-0.2372219149 12:-0.263045809138 13:0.251039084105 
1.0 1:0.247324116196 2:-0.0259332574429 3:0.0877242768634 4:0.0685663269791 5:0.00827734122135 6:0.202527508155 7:0.139093118604 8:0.180371938076 9:-0.240924089762 10:-0.016736697758 11:0.216275322351 12:-0.180948156108 13:-0.355493127029 
1.0 1:-0.276098256968 2:-0.562232088176 3:0.146531514111 4:0.0446291546582 5:-0.0142966904658 6:0.0537567776863 7:-0.0382460443531 8:0.179207627019 9:-0.274602478706 10:0.0382295871115 11:-0.456047706472 12:0.440504153278 13:-0.446163767796 
1.0 1:0.274934192795 2:-0.145526041928 3:0.209590867342 4:0.0316195035813 5:0.0819157745417 6:0.0993565971449 7:0.00328034802675 8:0.236975644108 9:-0.424212906031 10:0.148920547709 11:-0.350087179193 12:-0.394897191473 13:0.247931266817 
1.0 1:0.0401845836503 2:-0.293932912718 3:0.428679732326 4:0.0677472962792 5:-0.0576458059534 6:-0.083293287311 7:-0.0534987784143 8:-0.0661067420214 9:-0.512169609735 10:0.718623217894 11:0.310109328222 12:-0.182191958183 13:0.0174867166343 
1.0 1:0.213293010068 2:-0.391474164421 3:0.332816188005 4:-0.0910182909883 5:0.032809512017 6:-0.107235835366 7:-0.0718333679568 8:0.116715259343 9:-0.467571619021 10:0.419916192891 11:0.20386947903 12:0.283035791501 13:0.267070098834 
1.0 1:0.317433098169 2:-0.307750895843 3:0.230686761712 4:0.0684414062692 5:0.0659636952725 6:-0.0255936328468 7:0.013956566182 8:0.346734861988 9:-0.510485778665 10:0.181722093451 11:-0.398988871465 12:0.0991593123714 13:-0.0569253531744 
1.0 1:-0.192894919417 2:-0.584443366682 3:0.201940050502 4:0.0441049663127 5:0.0305118594434 6:0.179615263221 7:0.0553936607849 8:0.0446024776679 9:-0.231995710821 10:0.125783278379 11:0.103323768222 12:0.275111793617 13:-0.148997754496 
1.0 1:-0.142972915103 2:-0.598753911534 3:0.09524408977 4:-0.101874981224 5:0.127166828891 6:0.194526495532 7:-0.0478964350614 8:-0.0194392012074 9:-0.18823019571 10:-0.00129502518193 11:-0.416353323338 12:0.488356646547 13:-0.37641374066 
1.0 1:-0.121730570012 2:0.131059938717 3:-0.0742492132404 4:-0.110095938156 5:-0.136498229674 6:0.0748285755287 7:0.134800852352 8:-0.0389823966415 9:0.151640992453 10:-0.0700951182718 11:0.0454506339745 12:0.40688516459 13:0.13106273026 
1.0 1:0.0108866324985 2:-0.726613510779 3:-8.04533794141E-5 4:-0.0952979052933 5:-0.214689833848 6:-0.101607938156 7:-0.190687885994 8:-0.0784833314976 9:0.119257982886 10:-0.0752979773042 11:-0.198679097204 12:0.0603387901989 13:-0.0623330117732 
1.0 1:-0.216503842094 2:-0.157902982185 3:-0.205327475936 4:0.321243828894 5:0.168399890865 6:0.0626676595505 7:0.0536667908826 8:0.0963239030617 9:-0.435363093095 10:0.0514568487947 11:0.41173723838 12:0.306831844017 13:0.427381734766 
1.0 1:-0.0808342544931 2:0.0211384064708 3:-0.318259378929 4:-0.0814052155495 5:-0.0655397898192 6:0.0999846570717 7:-0.0388918032514 8:-0.0657303831783 9:-0.140913689407 10:0.233870015267 11:-0.142934203263 12:0.300815046144 13:0.0268646915949 
1.0 1:0.326469447646 2:-0.295540352017 3:0.271609651086 4:-0.117472276305 5:-0.0756558484077 6:-0.135841553033 7:-0.133240690987 8:0.360946731715 9:-0.504105168917 10:0.265748666455 11:0.24992313297 12:-0.034357154349 13:0.110359651233 
1.0 1:-0.451718949365 2:-0.290791252893 3:0.142953148497 4:-0.0441388647365 5:-0.0432797689285 6:-0.0486355800205 7:-0.0477205745166 8:0.647616362565 9:-0.508190814226 10:0.0357972232861 11:0.19067169845 12:0.344159779761 13:0.206551635968 
