svm_type c_svc
kernel_type rbf
gamma 0.07692307692307693
nr_class 13
total_sv 2966
rho 0.669151663229554 -0.8280357321379873 0.6923862504880584 -0.23275045377763762 0.4857420902440718 -0.17168089210437495 0.5977938198744887 0.8762542431491414 -0.6369188509316271 0.439435562854678 0.8573256890969896 -0.5034717639027332 -1.011086482953527 0.11272023738280017 -0.6010504916616122 -0.03334786558413693 -0.4942270873975105 0.5818661978421553 0.42637839892217716 -1.26648495067668 -0.5014222865911785 -0.3767058180753726 -0.8914314769343898 0.6615754352883698 -0.7808141719152234 0.6065106791154025 0.15326048250037708 0.6567106171833037 0.8361964736591362 0.33997636179742974 1.5654768087461006 1.1221190442284863 0.512697161567473 -0.3389278059259371 -0.29290063937959676 -0.47938584375861604 -0.02985769451190738 0.27988712472250704 -0.7489035880292676 -0.3327702515807683 0.2648116669362857 -0.6356904915092156 0.6326425719055208 0.9747606206203754 0.25815704781255655 0.8929905590646888 0.1767535656689063 1.1059140042845228 0.3408258728330124 0.11514097067795317 -0.7831923699164506 -0.04328268710700002 0.4934194360680985 -0.5698668683996725 0.2013428690919925 0.06326370051056704 -0.20480041137375485 0.18431026379696006 0.830092742298212 -0.0901960473115488 0.9072324313407347 0.025583551960576014 -0.10297695571864723 0.39029151563446973 -1.0689623429643602 -0.29674159652269416 -0.27074537895462975 -0.6051956205522042 -0.9003742286830085 -0.3650935725540496 -0.17665631320024652 -0.5481106552389595 1.3175853210098023 1.0376652358014422 0.2973935921283694 0.5271446741377456 -0.9128340535476862 -0.9291760481430753
label 0 9 1 11 2 7 3 10 6 4 8 12 5
nr_sv 197 115 664 123 356 130 321 118 120 266 159 130 267
SV
0.0 1.0 0.0 0.0 1.0 0.0 0.0 1.0 1.0 1.0 0.0 1.0 1:0.0186117682533 2:0.120586623451 3:0.0923095285803 4:-0.149861440684 5:-0.228462813139 6:-0.148739898962 7:-0.2466543778 8:-0.0786801411175 9:0.119688255945 10:-0.0229692269401 11:-0.0830594028302 12:-0.281905897464 13:0.253031094179 
1.0 0.0 1.0 0.0 0.18123894449606484 0.0 1.0 1.0 0.0 1.0 1.0 0.0 1:0.27015128648 2:0.0367335604987 3:-0.136578671726 4:-0.185113531402 5:-0.240047653786 6:-0.200863356743 7:-0.288408969144 8:0.226212080847 9:-0.10592586382 10:-0.0381049633543 11:-0.460146140627 12:-0.0306857571811 13:0.102622238045 
0.0 0.0 0.0 0.0 0.0 0.0 0.0 0.0 1.0 0.0 0.0 1.0 1:-0.0770996097247 2:0.132364520774 3:-0.0677138276214 4:-0.175423839353 5:-0.239390635342 6:-0.188005964479 7:-0.270516185756 8:-0.0679995861035 9:0.15529935904 10:-0.0754162090484 11:0.266188496915 12:0.226080928237 13:0.247606342018 
1.0 1.0 0.0 1.0 1.0 1.0 1.0 1.0 1.0 1.0 0.0 1.0 1:-0.0793204956091 2:0.120240503538 3:-0.0617062145989 4:0.023350356266 5:-0.225260377423 6:-0.171547763029 7:-0.213316945388 8:-0.064958199406 9:0.118626992515 10:-0.076923970175 11:0.428521859003 12:-0.349752012455 13:-0.452573346386 
0.0 0.0 0.3824273603343085 0.0 0.0 0.0 0.0 0.0 0.0 0.0 0.0 0.0 1:-0.226538699833 2:0.0898356140894 3:-0.0458768083844 4:-0.19303068444 5:-0.244486697873 6:-0.203940018645 7:-0.294607580941 8:0.0884866730473 9:0.031170555827 10:-0.0797524755751 11:0.176177382395 12:0.0257692542353 13:-0.140057189138 
1.0 0.0 1.0 0.0 1.0 0.0 1.0 1.0 1.0 1.0 1.0 1.0 1:0.181223390143 2:-0.693839062256 3:-0.0154082892975 4:-0.180956391471 5:-0.242077975539 6:-0.201212698073 7:-0.286852667457 8:0.0632609475816 9:0.0251171302691 10:-0.0797604153494 11:0.385414851585 12:-0.076955608959 13:-0.0729407831577 
1.0 0.0 1.0 0.0 1.0 0.0 1.0 0.6955967712596087 0.0 0.7792132560828247 1.0 0.0 1:-0.23249422925 2:0.0872397528783 3:-0.0365865301671 4:-0.191944593071 5:-0.243697497265 6:-0.203886889987 7:-0.292805017535 8:0.098253552072 9:0.0240066707454 10:-0.0805012140582 11:0.301790685374 12:-0.0543580880335 13:-0.127504295852 
0.0 0.0 0.0 0.0 0.0 0.0 0.0 0.0 0.0 1.0 0.0 0.0 1:-0.153515913485 2:0.115993952553 3:0.0114706336945 4:-0.187203447142 5:-0.243038639645 6:-0.198849846967 7:-0.289195867089 8:-0.00926973878451 9:0.106009962682 10:-0.073932692189 11:0.116349718899 12:0.203840216433 13:0.370481270498 
0.0 1.0 0.0 1.0 0.0 0.528526326280967 0.0 0.0 1.0 1.0 0.0 1.0 1:-9.64024672587E-4 2:0.134417913858 3:-0.0374287190445 4:-0.127830839246 5:-0.23252294779 6:-0.120156971108 7:-0.226931277206 8:-0.0820056156989 9:0.16161517493 10:-0.0800343057398 11:-0.00588525190297 12:0.0114712644801 13:0.269091287664 
0.0 1.0 0.0 0.0 0.0 0.0 0.0 0.0 1.0 0.0 0.0 1.0 1:-0.00314582470135 2:0.134644219991 3:-0.092601442924 4:-0.169604716041 5:-0.23803751934 6:-0.185762516339 7:-0.265440150139 8:-0.0824175267919 9:0.162317026989 10:-0.0660461887575 11:-0.0406925160986 12:0.138058893106 13:-0.0616782516999 
0.0 1.0 0.0 0.0 0.0 0.0 0.0 0.0 1.0 1.0 0.0 1.0 1:0.0230748641721 2:0.131495905317 3:0.0327985970092 4:-0.164205978484 5:-0.239034170843 6:-0.163626795236 7:-0.267130205827 8:-0.0774525167103 9:0.152639113513 10:-0.0653888024792 11:-0.180834534079 12:-0.408292735365 13:0.168588993725 
0.0 1.0 0.0 0.0 1.0 0.0 0.0 0.0 1.0 1.0 0.0 1.0 1:-0.0478336392014 2:0.116077140924 3:0.09990420026 4:-0.180644363919 5:-0.228493930899 6:-0.183939198928 7:-0.273276962596 8:-0.0787116405029 9:0.106263195405 10:-0.0161541828419 11:-0.088887981809 12:-0.238218683999 13:-0.271971938892 
0.0 1.0 0.0 0.0 0.0 0.0 0.0 0.0 1.0 1.0 0.0 1.0 1:-0.0662332503571 2:0.133006830099 3:-0.0651872615595 4:-0.155897897152 5:-0.23342852124 6:-0.183105456149 7:-0.254186032154 8:-0.0726582305179 9:0.157272997498 10:-0.0760592650328 11:-0.163133029194 12:-0.156709499052 13:0.0198145142708 
1.0 1.0 0.0 1.0 1.0 0.0 1.0 1.0 1.0 1.0 0.0 1.0 1:-0.0649398049066 2:0.119624822297 3:0.0658797733214 4:-0.146471367171 5:-0.214783780599 6:-0.11962871932 7:-0.236197251729 8:-0.0730187631071 9:0.116916627621 10:-0.0442524816573 11:0.0697971314344 12:-0.268833365005 13:0.0402410302832 
0.0 0.0 1.0 0.0 0.0 0.0 0.0 0.0 0.0 1.0 0.0 0.0 1:0.175143485536 2:-0.69578928535 3:-0.0159996929115 4:-0.19223875323 5:-0.244433996974 6:-0.203500645359 7:-0.2942073029 8:0.0543015037195 9:0.0304979798393 10:-0.0798313669852 11:0.114015627857 12:-0.0827485017131 13:-0.0358973462902 
0.0 0.0 0.0 0.0 1.0 0.0 0.0 0.0 1.0 1.0 0.0 1.0 1:0.250991244449 2:0.0503052624038 3:-0.137379686549 4:-0.169715314513 5:-0.230303893445 6:-0.201350363198 7:-0.267199113505 8:0.186021257303 9:-0.0727697931921 10:-0.037459879156 11:-0.513489293544 12:0.00987375398918 13:-0.0216863553588 
0.0 0.8226014946799203 0.0 0.0 0.0 0.0 0.0 0.0 1.0 1.0 0.0 0.0 1:0.0425014139846 2:0.132464362666 3:0.00996966636449 4:-0.17565624632 5:-0.240314145929 6:-0.168741572607 7:-0.2716137622 8:-0.0705235269091 9:0.155607389645 10:-0.0742446492908 11:-0.334625520613 12:-0.370822499145 13:0.347745552669 
0.7071946270042135 0.0 1.0 0.0 0.0 0.0 0.0 0.0 0.0 1.0 0.0 0.0 1:0.167411246789 2:-0.699303683312 3:-0.0128667507141 4:-0.190557480292 5:-0.243569996145 6:-0.201900022423 7:-0.292089429368 8:0.0433407347751 9:0.0402664044899 10:-0.0794473270049 11:0.11469517938 12:-0.129365078505 13:-0.169363215971 
0.0 0.0 0.0 0.0 0.0 0.0 0.0 0.0 0.0 0.0 0.0 1.0 1:0.119134477027 2:0.115664468611 3:-0.0971829501111 4:-0.163771264366 5:-0.236147738239 6:-0.186521686931 7:-0.268900783701 8:-0.0144308411066 9:0.105058914827 10:-0.0637801250807 11:-0.397937309825 12:0.303867475909 13:-0.338273175604 
1.0 1.0 1.0 1.0 1.0 1.0 1.0 1.0 1.0 1.0 1.0 1.0 1:0.25694322427 2:0.0411931171449 3:-0.144895752649 4:-0.162967735574 5:-0.22522066019 6:-0.129776103813 7:-0.241372201773 8:0.198309726849 9:-0.0951535672681 10:-0.0302131014333 11:-0.21706880117 12:0.214059302731 13:0.160418523437 
0.0 0.5462378320566017 0.0 0.0 0.0 0.0 0.0 0.0 1.0 0.0 0.0 0.0 1:0.00256452187395 2:0.136241673405 3:-0.0221720010671 4:-0.171397632794 5:-0.23854323288 6:-0.183247678377 7:-0.270366684966 8:-0.081811735212 9:0.16724984603 10:-0.0803657206124 11:0.00483304104808 12:-0.333474690679 13:-0.136879630324 
0.0 1.0 0.0 0.0 0.0 0.0 0.0 0.0 0.0 0.0 0.0 0.0 1:-0.117619262136 2:0.123651742283 3:-0.068503613874 4:-0.182711618949 5:-0.231760654587 6:-0.18353446965 7:-0.274839376447 8:-0.042384861142 9:0.128831934314 10:-0.0751166804208 11:-0.0794542478551 12:0.285739323139 13:-0.226492492903 
1.0 0.0 1.0 0.0 0.0 0.0 0.5014548648358391 0.0 0.0 0.0 1.0 0.0 1:-0.230525635023 2:0.0884112163753 3:-0.0382110187842 4:-0.191118643966 5:-0.244198534412 6:-0.20479803428 7:-0.29426211925 8:0.0949973048795 9:0.0272341798415 10:-0.0804175703508 11:0.294650660916 12:-0.0313053797908 13:-0.133323564138 
0.0 1.0 0.0 0.0 0.0 0.0 0.0 0.0 1.0 0.0 0.0 1.0 1:-0.0278918441309 2:0.134587645282 3:-0.0350481320696 4:-0.149344251644 5:-0.238152289097 6:-0.158394268185 7:-0.252879265303 8:-0.0820826367898 9:0.162138606379 10:-0.0804472996578 11:-0.0493710717296 12:-0.0292044732263 13:-0.422245190931 
0.0 1.0 0.0 1.0 0.0 1.0 0.0 0.0 1.0 1.0 0.0 1.0 1:0.00109340590125 2:0.131455970054 3:0.00779120469604 4:-0.12675713172 5:-0.221362713912 6:-0.131473765122 7:-0.224133972564 8:-0.0806435793553 9:0.152523449688 10:-0.0740909743267 11:-0.0671693454859 12:0.259699427105 13:-0.318904899189 
0.0 1.0 0.0 1.0 1.0 1.0 1.0 0.5885412577224418 1.0 1.0 0.0 1.0 1:0.00364476163425 2:0.130737111665 3:-0.072332765565 4:-0.110642036115 5:-0.169546989509 6:-0.0748119103768 7:-0.158378164606 8:-0.0815702405308 9:0.150399322948 10:-0.0726868421539 11:0.138400185159 12:-0.0437300075085 13:0.0286061952176 
0.0 1.0 0.0 0.0 0.0 0.0 0.0 0.0 1.0 0.0 0.0 1.0 1:0.00979217878154 2:0.136025351913 3:-0.0257840552332 4:-0.16593132295 5:-0.234013091089 6:-0.184107550689 7:-0.267268902536 8:-0.0806758675313 9:0.166581219709 10:-0.0805467746706 11:0.084678421386 12:-0.244134945102 13:0.0172015343653 
0.0 0.0 0.0 0.0 0.0 0.0 0.0 0.0 1.0 0.0 0.0 1.0 1:-0.0771280369524 2:0.131905254397 3:-0.0776254544428 4:-0.179734804991 5:-0.236642893894 6:-0.18431960871 7:-0.272208517014 8:-0.0679979105844 9:0.153891370397 10:-0.0722597283594 11:0.159402004199 12:0.225315994732 13:0.0266653415533 
0.0 1.0 0.0 0.0 0.0 0.0 0.0 0.0 1.0 1.0 0.0 1.0 1:0.0164583954648 2:0.130564056522 3:0.0103252576593 4:-0.151426296473 5:-0.231380966009 6:-0.168112825207 7:-0.261615774538 8:-0.0790753672327 9:0.149795965218 10:-0.0740437497334 11:-0.0211518157206 12:0.0210986207219 13:0.470723883157 
0.0 1.0 0.0 0.0 0.0 0.0 0.0 0.0 1.0 0.0 0.0 1.0 1:-0.0407658862147 2:0.135246593358 3:-0.0826486432615 4:-0.162365123398 5:-0.236563784161 6:-0.191093434347 7:-0.263469614522 8:-0.0802660534632 9:0.164176864546 10:-0.0703749330996 11:0.205102805179 12:0.255716459127 13:0.0905921223783 
0.0 1.0 0.0 0.0 0.0 0.0 0.0 0.0 1.0 0.0 0.0 1.0 1:0.00746824193555 2:0.133020144575 3:0.0224490333229 4:-0.173371075099 5:-0.240284368464 6:-0.17944776956 7:-0.266328800979 8:-0.0810708455536 9:0.157315242654 10:-0.0698688403083 11:-0.102809829109 12:-0.0995366831546 13:0.0892235633463 
0.0 1.0 0.0 0.0 0.0 0.0 0.0 0.0 0.0 0.0 0.0 0.6147762674320195 1:0.0223108786065 2:0.134401274411 3:-0.0486841042724 4:-0.174119066464 5:-0.242975373389 6:-0.189174794463 7:-0.25777314824 8:-0.0777521877163 9:0.161563828347 10:-0.0793913319912 11:-0.143186325823 12:0.174548287218 13:-0.299448657219 
1.0 0.0 1.0 0.0 1.0 0.0 1.0 1.0 1.0 1.0 1.0 1.0 1:0.267038492079 2:0.0389034351984 3:-0.136900574613 4:-0.175054905139 5:-0.235593824854 6:-0.193199146462 7:-0.271657850428 8:0.219493217359 9:-0.100711713886 10:-0.0378464569911 11:-0.490487381083 12:-0.25340243865 13:0.290922737146 
0.0 1.0 0.0 1.0 0.5847287478431409 1.0 0.0 0.0 1.0 1.0 0.0 1.0 1:-0.0290218317094 2:0.13122300842 3:0.0191588816638 4:-0.150010210739 5:-0.203223390632 6:-0.12638466149 7:-0.215488189421 8:-0.0818371238374 9:0.151884040674 10:-0.0704769434157 11:0.229679171125 12:-0.0700781751725 13:-0.265146261471 
0.0 1.0 0.0 0.0 0.0 0.0 0.0 0.0 1.0 0.0 0.0 1.0 1:0.00508389665045 2:0.136228361883 3:-0.0693869766056 4:-0.147150289052 5:-0.230325602001 6:-0.187011299989 7:-0.255109007443 8:-0.0813998398418 9:0.167209951954 10:-0.0749166621034 11:-0.153796456197 12:0.193550696147 13:0.0716501338651 
0.0 1.0 0.0 0.0 0.0 0.0 0.0 0.0 1.0 0.0 0.0 1.0 1:0.0413501053532 2:0.133609205898 3:-0.0230965372328 4:-0.163286350662 5:-0.237937255636 6:-0.177581847879 7:-0.262339125812 8:-0.0709874187999 9:0.159128939291 10:-0.0802840189226 11:-0.0565249732624 12:-0.0119530706608 13:-0.245020791945 
0.0 1.0 0.0 0.0 0.0 0.0 0.0 0.0 1.0 0.0 0.0 1.0 1:0.118953251753 2:0.11665622056 3:-0.0675528766546 4:-0.156794955105 5:-0.234531390341 6:-0.169381900329 7:-0.262825726726 8:-0.0149151893224 9:0.107971959013 10:-0.0753269981025 11:-0.417122610154 12:0.165568821654 13:-0.269756432774 
1.0 0.0 1.0 0.0 1.0 0.0 1.0 0.0 0.0 1.0 1.0 0.0 1:0.261292613275 2:0.0414726778474 3:-0.147830312504 4:-0.184463241076 5:-0.239620914729 6:-0.19111789561 7:-0.2819685796 8:0.207276133636 9:-0.0944979899191 10:-0.0285900911924 11:-0.434533900628 12:0.162493220807 13:-0.0827859592203 
0.0 1.0 0.0 1.0 1.0 1.0 0.0 0.0 1.0 1.0 0.0 1.0 1:0.0206834119879 2:0.131572448612 3:-0.0298228181806 4:-0.109077232336 5:-0.197010784582 6:-0.0909940541764 7:-0.17558458066 8:-0.0774013812387 9:0.152901502352 10:-0.0798413185058 11:-0.0803761674829 12:0.0305702227696 13:0.0370503816125 
0.0 0.0 0.0 0.0 0.0 0.0 1.0 1.0 0.0 0.0 1.0 0.0 1:0.254498474353 2:0.0469938759407 3:-0.144749772033 4:-0.190831777901 5:-0.243879713186 6:-0.199432955205 7:-0.290782822132 8:0.193152696643 9:-0.0809850226904 10:-0.0312942205745 11:-0.288249206945 12:-0.0149895671026 13:0.244934192975 
0.0 1.0 0.0 0.0 0.0 0.0 0.0 0.0 1.0 1.0 0.0 1.0 1:-0.0143142251629 2:0.134071800547 3:-0.062713098009 4:-0.130535517382 5:-0.229996888091 6:-0.135797113589 7:-0.244332448935 8:-0.0828893697371 9:0.160559154626 10:-0.076648814875 11:0.015350223893 12:-0.107924296905 13:-0.470665465323 
0.0 1.0 0.0 0.0 0.0 0.0 0.0 0.0 1.0 1.0 0.0 1.0 1:0.00789820561398 2:0.129805268639 3:0.0486130305803 4:-0.140122479265 5:-0.236498208977 6:-0.186290473301 7:-0.247249577937 8:-0.0808113751209 9:0.147469645829 10:-0.0568823416058 11:-0.119972449413 12:-0.227880450189 13:0.257278126278 
1.0 0.0 1.0 0.0 1.0 0.0 0.0 1.0 0.0 1.0 1.0 0.0 1:0.180441629239 2:-0.693872345146 3:-0.011886068743 4:-0.192836783332 5:-0.244287204431 6:-0.203675728809 7:-0.29388152426 8:0.0620752827289 9:0.025206623768 10:-0.0793126873319 11:0.133203612463 12:-0.124529243982 13:-0.0383880954171 
0.0 0.0 1.0 0.0 0.0 0.0 0.0 0.0 0.0 0.0 0.0 0.0 1:0.168651392288 2:-0.698291961386 3:-0.00973380862229 4:-0.192457123608 5:-0.244245097462 6:-0.203558325684 7:-0.294067083072 8:0.0450681660143 9:0.0374454056683 10:-0.0789904793387 11:0.150872285587 12:-0.0470479115906 13:-0.111408059495 
0.0 1.0 0.0 0.0 0.0 0.0 0.0 0.0 1.0 1.0 0.0 1.0 1:-0.0958581152017 2:0.127146170963 3:-0.0305976320204 4:-0.169586514519 5:-0.22326706522 6:-0.182123625955 7:-0.251968056224 8:-0.0576945366733 9:0.139396738187 10:-0.0805383473153 11:-0.0566697153046 12:0.344612719913 13:-0.0735203840836 
0.11938806133289345 0.0 1.0 0.0 1.0 0.0 1.0 0.0 0.0 1.0 1.0 0.0 1:-0.231556127571 2:0.0876757227448 3:-0.0368335722093 4:-0.189924633087 5:-0.24297304219 6:-0.199745859548 7:-0.290368411038 8:0.0967032581002 9:0.0252072732439 10:-0.0804828407557 11:0.257528238225 12:0.112637021131 13:-0.136719559925 
0.0 1.0 0.0 1.0 0.0 1.0 0.45222277554939416 0.0 1.0 1.0 0.0 1.0 1:-0.0693495991483 2:0.13045423329 3:-0.0488562852594 4:-0.125241098709 5:-0.238227005359 6:-0.124420487529 7:-0.250100892279 8:-0.0713066303367 9:0.149455257593 10:-0.0789435054641 11:0.429310167309 12:0.439594223915 13:0.464758771048 
0.0 0.0 1.0 0.0 1.0 0.0 0.5109363274478315 0.0 0.0 0.0 1.0 0.0 1:0.265787688478 2:0.0395357641561 3:-0.138551264179 4:-0.188638878118 5:-0.241142886095 6:-0.199280390068 7:-0.289413035957 8:0.216807611239 9:-0.0991879853824 10:-0.036507189333 11:-0.389225183552 12:0.289012010658 13:-0.266305241615 
0.0 0.0 0.0 0.0 0.0 0.0 0.0 0.0 0.0 0.0 1.0 0.0 1:0.26609683546 2:0.0415924867622 3:-0.125439319228 4:-0.188043960659 5:-0.241198081398 6:-0.199689745516 7:-0.287510305287 8:0.217471071523 9:-0.0942067654856 10:-0.046575504805 11:-0.384728843288 12:0.150059891097 13:-0.103396145655 
0.0 1.0 0.0 0.0 0.0 0.0 0.0 0.0 1.0 0.0 0.0 1.0 1:0.0502549763292 2:0.133426163299 3:-0.0521389498541 4:-0.157463478421 5:-0.231795000598 6:-0.164217933186 7:-0.25332487344 8:-0.0668346598019 9:0.158560957411 10:-0.07875701944 11:-0.0932490488278 12:-0.111260166147 13:-0.0344271324681 
0.0 1.0 0.0 0.0 0.0 0.0 0.0 0.0 1.0 0.8385146526500549 0.0 1.0 1:-0.0234180879024 2:0.128038083801 3:0.0617549194533 4:-0.166767879055 5:-0.23123921437 6:-0.185904197537 7:-0.267914090771 8:-0.082508505784 9:0.142094662571 10:-0.0482533016065 11:-0.0841740097857 12:-0.121887307472 13:-0.31348003293 
0.0 0.0 0.0 0.0 0.0 0.0 0.0 1.0 0.0 0.0 0.0 0.0 1:0.0224494616263 2:0.108589053602 3:0.12703765314 4:-0.193071792579 5:-0.244200526871 6:-0.202937489518 7:-0.293702297999 8:-0.0777200483853 9:0.0843350419109 10:0.0134360973022 11:0.00242147356634 12:-0.176765421316 13:0.00546386798327 
0.0 0.0 0.0 0.0 0.0 0.0 0.0 0.0 1.0 1.0 0.0 1.0 1:-0.17756901593 2:0.108279550931 3:-0.0274085438429 4:-0.177255399697 5:-0.241310773084 6:-0.198539295221 7:-0.280828666968 8:0.0184958074274 9:0.0834396038616 10:-0.0805825659788 11:0.318204752414 12:0.0965933977367 13:0.230032626953 
0.0 1.0 0.0 0.0 0.0 0.0 0.0 0.0 1.0 1.0 0.0 1.0 1:0.0599913482603 2:0.12709958298 3:-0.0975759716325 4:-0.101364846384 5:-0.237749851396 6:-0.190078331114 7:-0.264027922292 8:-0.0612242324953 9:0.139246316186 10:-0.0636300317302 11:-0.508791493247 12:-0.48122964791 13:0.476444407517 
0.0 1.0 0.0 1.0 0.0 1.0 0.0 0.0 1.0 1.0 0.0 1.0 1:0.00105076475579 2:0.133798901218 3:-0.0403408205723 4:-0.103093070239 5:-0.208242811754 6:-0.11536690457 7:-0.211479645425 8:-0.0815708523463 9:0.159755511166 10:-0.0779983524781 11:-0.0883223978523 12:-0.219640379891 13:-0.287427456389 
0.0 1.0 0.0 0.0 0.0 0.0 0.0 0.0 1.0 0.0 0.0 1.0 1:-0.0292137165683 2:0.138727714686 3:-0.0617885620743 4:-0.173319144159 5:-0.225985515967 6:-0.181846394926 7:-0.265853297722 8:-0.0821174508154 9:0.175029559144 10:-0.0769200490428 11:-0.185188343702 12:0.168746054478 13:-0.157952969112 
0.0 0.0 0.0 0.0 0.0 0.0 1.0 0.8555853694309946 0.0 0.0 1.0 0.0 1:0.264359214246 2:0.0400150014139 3:-0.138839479187 4:-0.189071291906 5:-0.242246811697 6:-0.196162091608 7:-0.287179883567 8:0.213760447151 9:-0.0980300537932 10:-0.0362706149553 11:-0.374110719964 12:0.0564128170663 13:0.0635518523629 
0.0 0.0 0.0 0.0 0.0 0.0 0.0 0.0 1.0 0.0 0.0 0.0 1:-0.115028819601 2:0.123105944841 3:0.0223255118822 4:-0.181205762146 5:-0.242282625047 6:-0.190453348923 7:-0.281238982975 8:-0.0444073441855 9:0.127191547911 10:-0.0700110553409 11:0.297345397883 12:0.0287509043832 13:0.237503562724 
1.0 0.0 1.0 0.0 0.0 0.0 0.0 0.0 1.0 1.0 1.0 0.0 1:0.170403227061 2:-0.697879286641 3:-0.0139260370223 4:-0.190982909227 5:-0.243662130412 6:-0.203314700822 7:-0.292233358202 8:0.0475285591085 9:0.0362970401454 10:-0.0795860060119 11:0.205280034215 12:-0.110750986734 13:-0.0388625343051 
0.0 0.0 1.0 0.0 0.0 0.0 1.0 0.0 0.0 0.0 1.0 0.0 1:-0.234203425533 2:0.0853993540583 3:-0.0587641686715 4:-0.192807763369 5:-0.24403335687 6:-0.204279678445 7:-0.294876184544 8:0.101107338897 9:0.0189564465663 10:-0.0776314111566 11:0.252480779096 12:0.0837005391201 13:-0.0915281900077 
0.0 0.0 1.0 0.0 0.0 0.0 0.0 0.0 0.0 1.0 0.0 0.0 1:0.174471889823 2:-0.696248552944 3:-0.0156291298397 4:-0.193154907307 5:-0.244184918248 6:-0.204182671838 7:-0.293991605648 8:0.0533317220809 9:0.0317696601738 10:-0.079789997327 11:-0.0209317026352 12:0.0823814043793 13:0.0414886826194 
0.0 1.0 0.0 1.0 0.0 1.0 0.0 0.0 1.0 1.0 0.0 1.0 1:-0.0149822679933 2:0.13504691166 3:-0.0118561239542 4:-0.113438372184 5:-0.211094144723 6:-0.159711722584 7:-0.224639114841 8:-0.0821749880863 9:0.163556593715 10:-0.0791708991836 11:0.15258464772 12:0.218461128612 13:-0.107739113948 
0.0 1.0 0.0 0.0 0.0 0.0 0.0 0.0 1.0 0.0 0.0 1.0 1:-0.023364786548 2:0.135313153577 3:-0.0363582032887 4:-0.16380456544 5:-0.238161002378 6:-0.171235051504 7:-0.26799447954 8:-0.0824252629136 9:0.164379644184 10:-0.0803055233685 11:0.106888098506 12:-0.120813861191 13:-0.469327612292 
1.0 0.0 1.0 0.0 0.02029734041085726 0.0 0.0 0.0 0.0 0.0 1.0 0.0 1:-0.229374327457 2:0.0887939394569 3:-0.0376720179773 4:-0.191281985448 5:-0.24398098248 6:-0.204262155063 7:-0.293013155187 8:0.093104151569 9:0.0282904357193 10:-0.0804471075528 11:0.290262400318 12:-0.0964236892952 13:-0.20742540021 
1.0 1.0 1.0 1.0 1.0 1.0 1.0 1.0 1.0 1.0 0.43534913700094763 1.0 1:0.194797458101 2:0.0723701107938 3:-0.11056065132 4:-0.00236565933625 5:-0.173024946985 6:-0.102311350173 7:-0.203755581929 8:0.0879895316411 9:-0.0154738137803 10:-0.0552241669589 11:-0.521400704 12:0.486936757593 13:-0.504853167035 
0.0 0.0 0.0 0.0 0.0 0.0 0.7918393215419135 1.0 0.0 0.0 1.0 0.0 1:0.257693001557 2:0.0439221072724 3:-0.141096545309 4:-0.187572686731 5:-0.242164891327 6:-0.197082307106 7:-0.288507300115 8:0.199751521657 9:-0.0885286967014 10:-0.034401332887 11:-0.39885159355 12:-0.0634439240242 13:0.215320038882 
0.0 1.0 0.0 0.0 0.0 1.0 0.0 0.0 1.0 1.0 0.0 1.0 1:-0.0250348941733 2:0.130074837785 3:-0.127453086768 4:-0.149698997699 5:-0.237132651398 6:-0.149881548088 7:-0.249808695767 8:-0.0823496900208 9:0.148298742301 10:-0.0444247865709 11:0.335855304333 12:0.320118579296 13:0.412207611835 
1.0 1.0 0.0 0.0 1.0 0.0 1.0 1.0 1.0 1.0 0.0 1.0 1:0.0241444435735 2:0.109291276853 3:0.128284092177 4:-0.178199402818 5:-0.222753423196 6:-0.19091230767 7:-0.25963247422 8:-0.0771965960204 9:0.0863843495115 10:0.01494672134 11:-0.0117005976068 12:0.145428986932 13:-0.0180178302734 
0.0 1.0 0.0 1.0 1.0 0.0 0.0 0.0 1.0 1.0 0.0 1.0 1:0.00148783556452 2:0.129073097894 3:0.0165462254875 4:-0.150561932067 5:-0.228230243701 6:-0.0925869275599 7:-0.234864449957 8:-0.0818589074109 9:0.145241074206 10:-0.0719924054951 11:0.178307934973 12:-0.308971623668 13:-0.393299225059 
1.0 1.0 1.0 1.0 1.0 1.0 1.0 1.0 1.0 1.0 1.0 1.0 1:-0.241185901797 2:0.0786467786106 3:-0.0537110357761 4:-0.166305098511 5:-0.224562099607 6:-0.0809357898956 7:-0.234574250877 8:0.113092541017 9:6.61102670858E-4 10:-0.0785762168452 11:0.410497102404 12:0.255551217569 13:0.181233064108 
1.0 1.0 0.0 0.0 1.0 0.0 1.0 1.0 1.0 1.0 0.0 1.0 1:-0.0394369070644 2:0.11764464389 3:0.105264264775 4:-0.161845121489 5:-0.218655118294 6:-0.174833449992 7:-0.251082621911 8:-0.0805676202239 9:0.111015606951 10:-0.0106431166635 11:-0.277196437889 12:-0.205403165598 13:0.309486875441 
0.0 0.0 0.0 0.0 0.0 0.0 0.0 1.0 0.0 0.0 0.0 0.0 1:0.254015207968 2:0.04851811228 3:-0.141085316055 4:-0.190307137076 5:-0.24379579204 6:-0.197777635668 7:-0.290320628089 8:0.192160515124 9:-0.0772164851341 10:-0.0344112371193 11:-0.387647296721 12:-0.130649262088 13:0.240612896991 
0.0 1.0 0.0 1.0 0.0 0.0 0.0 0.0 1.0 1.0 0.0 1.0 1:-0.00832671158658 2:0.132863722414 3:-0.0659171581272 4:-0.151620010938 5:-0.231832017375 6:-0.0726465960054 7:-0.225600353973 8:-0.0827694324827 9:0.156846941725 10:-0.0742136982197 11:-0.0312011922456 12:-0.144406931005 13:0.277236921373 
0.0 1.0 0.0 0.0 0.0 0.0 0.0 0.0 1.0 0.0 0.0 1.0 1:-0.115622239305 2:0.125165994815 3:-0.0150526984979 4:-0.169505507692 5:-0.235643381967 6:-0.184879093221 7:-0.264865276134 8:-0.0438277424061 9:0.133396246332 10:-0.0796802001175 11:0.163846570445 12:0.0143309513451 13:-0.0338413645629 
1.0 0.0 1.0 0.0 0.0 0.0 0.0 0.0 0.6331356138261829 0.7516445271246938 1.0 0.0 1:0.175648070721 2:-0.695895782569 3:-0.0151949347827 4:-0.192322516752 5:-0.243857574063 6:-0.203239233743 7:-0.293120897708 8:0.0550329706485 9:0.0307927982375 10:-0.0797396541352 11:0.204212401951 12:-0.0990847571943 13:-0.0427143336814 
0.0 1.0 0.0 1.0 0.0 0.0 0.0 0.0 1.0 1.0 0.0 1.0 1:-0.0302406551875 2:0.130653913077 3:0.0314286375014 4:-0.135708747652 5:-0.217775975574 6:-0.132292006168 7:-0.229376108859 8:-0.0816690126241 9:0.150179773743 10:-0.0651855399603 11:0.00437410609709 12:-0.00908373369778 13:-0.173654406201 
1.0 1.0 0.0 0.0 1.0 0.0 1.0 1.0 1.0 1.0 0.0 1.0 1:-0.0605477772207 2:0.115135306272 3:0.0929683071951 4:-0.129901939007 5:-0.218765271513 6:-0.164037406347 7:-0.249823110397 8:-0.0745729235057 9:0.103740891986 10:-0.0222329979922 11:0.182352160964 12:-0.282322141298 13:-0.17097509225 
0.960910964379904 0.0 0.7346091286214179 0.0 1.0 0.0 0.0 1.0 0.0 1.0 1.0 0.0 1:0.268235994151 2:0.0388967813311 3:-0.135137592466 4:-0.181545241057 5:-0.238505514767 6:-0.198660783986 7:-0.283194224909 8:0.222069853201 9:-0.100727704481 10:-0.0392534481909 11:-0.480756703592 12:0.0395178753226 13:0.00822164340306 
0.0 0.0 1.0 0.0 0.0 0.0 1.0 0.38467301815663685 0.13766449943686915 1.0 1.0 0.0 1:0.175484613018 2:-0.695945704036 3:-0.0157189633371 4:-0.19182130008 5:-0.243887129402 6:-0.204122211199 7:-0.293932902371 8:0.0547960779989 9:0.0309313692432 10:-0.0797997565918 11:0.227797815386 12:0.0313490267381 13:0.0918981006671 
0.611621651952433 0.0 0.0 0.0 0.0 0.0 0.0 0.0 0.0 0.0 0.011309191082835063 0.0 1:-0.223998006187 2:0.0909371887486 3:-0.0417931282826 4:-0.19211760112 5:-0.244171003291 6:-0.204263966301 7:-0.293877077724 8:0.0844038060232 9:0.034224918336 10:-0.0801620848616 11:0.233641851913 12:-0.140429196567 13:-0.220606732898 
1.0 0.0 1.0 0.0 1.0 0.0 1.0 0.9915069217802165 1.0 1.0 1.0 0.0 1:0.258677294626 2:0.0426774228436 3:-0.146662477581 4:-0.181684868003 5:-0.237564109914 6:-0.187020717514 7:-0.279120606798 8:0.201800036268 9:-0.0915665191304 10:-0.0296223645685 11:-0.411534526641 12:0.160520616 13:0.022160389145 
0.0 1.0 0.0 0.014443570876451161 0.0 0.0 0.0 0.0 1.0 1.0 0.0 1.0 1:-0.0402257664718 2:0.135982086467 3:-0.0503535097246 4:-0.138860864187 5:-0.228483294851 6:-0.172648364309 7:-0.236831130855 8:-0.0804162965984 9:0.166446744247 10:-0.0791529329279 11:0.216145009908 12:0.145738846195 13:0.390738000625 
0.0 1.0 0.0 0.0 0.0 0.0 0.0 0.0 1.0 1.0 0.0 1.0 1:0.00360922738532 2:0.13213821412 3:0.0237104446561 4:-0.167550205724 5:-0.237066963453 6:-0.146356475729 7:-0.25952287193 8:-0.0816364717797 9:0.154613505198 10:-0.0694719308158 11:-0.157905687548 12:-0.197486570745 13:0.153808956755 
0.0 0.0 0.0 0.0 0.0 0.0 0.0 0.0 0.0 0.0 0.0 0.572876056860987 1:0.0335467942349 2:0.12187124766 3:0.0872114799488 4:-0.164772139063 5:-0.242921934249 6:-0.193010976663 7:-0.275788295738 8:-0.0740495452541 9:0.123488443605 10:-0.0280702897432 11:0.07084320136 12:0.0147270797709 13:-0.42244618538 
0.0 0.0 0.0 0.0 0.0 0.0 0.0 0.0 0.0 0.0 1.0 0.0 1:0.260791582398 2:0.0420683936286 3:-0.140651121213 4:-0.184841478171 5:-0.239718737906 6:-0.19796120603 7:-0.286012546527 8:0.206222535544 9:-0.0930494808172 10:-0.0347736809938 11:-0.460341713879 12:0.12953948526 13:-0.0494435510464 
0.0 0.0 1.0 0.0 0.0 0.0 0.0 0.0 0.0 0.0 0.0 0.0 1:-0.225024943238 2:0.0905378267417 3:-0.0393563954976 4:-0.192813384636 5:-0.244459784967 6:-0.204217173132 7:-0.294612745122 8:0.0860475457526 9:0.0331165943715 10:-0.0803460906013 11:0.23748103561 12:-0.0105927539525 13:0.0219420061322 
0.0 0.0 0.0 0.0 0.0 0.0 0.0 0.0 0.0 0.0 1.0 0.0 1:0.267269462569 2:0.0387436921679 3:-0.136350345422 4:-0.186327501536 5:-0.240924564305 6:-0.20176631503 7:-0.287709678464 8:0.21998584749 9:-0.101098089749 10:-0.0382875528749 11:-0.449450092356 12:0.0442915372589 13:-0.00481301981549 
1.0 0.0 1.0 0.0 1.0 0.0 1.0 1.0 0.0 1.0 1.0 0.0 1:-0.237355317771 2:0.084667188352 3:-0.0442747781231 4:-0.191471636382 5:-0.244082886073 6:-0.20450458873 7:-0.293713063447 8:0.10642764705 9:0.0169544438346 10:-0.07992737204 11:0.314300911277 12:0.0161058841381 13:-0.0913726471697 
1.0 0.0 1.0 0.0 1.0 0.0 0.4895625099005096 1.0 1.0 1.0 1.0 0.0 1:0.18244576436 2:-0.693120209462 3:-0.0166584717178 4:-0.19099571199 5:-0.243898373663 6:-0.203130802094 7:-0.292651960512 8:0.0650772733322 9:0.0231382088578 10:-0.0799020538852 11:0.141593907508 12:-0.210293417515 13:-0.0105537954565 
1.0 0.0 0.0 0.0 1.0 0.0 1.0 0.0 0.0 1.0 0.0 0.0 1:0.0598669777898 2:0.105467363189 3:0.125806184031 4:-0.18369685216 5:-0.240477862775 6:-0.19650748958 7:-0.284865592801 8:-0.0618149935926 9:0.0753136949595 10:0.0119751256858 11:-0.00457239664238 12:0.00633121552848 13:-0.376357559954 
0.0 1.0 0.0 0.2988811895510911 0.0 0.0 0.0 0.0 1.0 1.0 0.0 1.0 1:0.071433362073 2:0.130331096104 3:-0.0318590437393 4:-0.142167235239 5:-0.232422046582 6:-0.161030642611 7:-0.227244265693 8:-0.0547168018737 9:0.149074781491 10:-0.0806068719739 11:-0.172975179675 12:-0.161414961018 13:-0.129195210152 
0.0 0.0 0.0 0.0 0.0 0.0 0.0 0.0 1.0 1.0 0.0 0.0 1:0.255706634341 2:0.0487910101842 3:-0.129055116929 4:-0.174842739165 5:-0.233842122506 6:-0.191600940651 7:-0.277663232752 8:0.195645895365 9:-0.0765326454214 10:-0.0439282382958 11:-0.494954900507 12:0.048873095131 13:-0.0171219878681 
0.0 1.0 0.0 0.0 0.0 0.0 0.0 0.0 1.0 1.0 0.0 1.0 1:-0.0323229594524 2:0.122733204316 3:0.0834422175862 4:-0.166376373262 5:-0.23015336516 6:-0.188969166554 7:-0.260791955026 8:-0.0817322062434 9:0.126072656533 10:-0.0313839788204 11:-0.226582699844 12:-0.0169635204895 13:0.00129712919598 
0.0 1.0 0.0 0.0 0.0 0.0 0.0 0.0 1.0 1.0 0.0 1.0 1:-0.0155863494837 2:0.129994965523 3:-0.124967694155 4:-0.145921791686 5:-0.239369722871 6:-0.157102085476 7:-0.237384842667 8:-0.0825932310733 9:0.14804811586 10:-0.0467529809007 11:-0.0667579046438 12:0.235611410862 13:0.196392825375 
0.0 0.0 0.0 0.0 1.0 0.0 0.0 1.0 0.0 1.0 1.0 0.0 1:0.261136262408 2:0.0417821823254 3:-0.138959258471 4:-0.179379895459 5:-0.236652439563 6:-0.198361350656 7:-0.282205221428 8:0.206952942692 9:-0.0937434212197 10:-0.036173068678 11:-0.487585088251 12:0.0123993400312 13:0.03110287713 
0.0 0.0 0.3655051938496177 0.0 0.19838929077414208 0.0 0.0 0.0 0.40894720958387926 1.0 0.0 0.0 1:0.166242171577 2:-0.699050752049 3:-0.00895150861874 4:-0.192357953432 5:-0.243475648094 6:-0.201390633085 7:-0.291517937503 8:0.0417235490514 9:0.0395607260624 10:-0.078863958275 11:0.0448997847992 12:-0.133293598807 13:-0.106027045547 
0.0 1.0 0.0 0.0 0.0 0.0 0.0 0.0 1.0 0.0 0.0 1.0 1:-0.0512946704063 2:0.135200003464 3:-0.00215785214197 4:-0.166489872744 5:-0.235866884976 6:-0.197919661565 7:-0.263065025432 8:-0.0777788904502 9:0.164028538015 10:-0.0775767326497 11:0.0398935748182 12:0.0737734967169 13:0.263918113409 
0.0 0.0 0.0 0.0 0.0 0.0 0.0 0.0 0.0 0.0 1.0 0.0 1:0.253940586119 2:0.048348382871 3:-0.140898163201 4:-0.191496470198 5:-0.244142394877 6:-0.198878166325 7:-0.290603137428 8:0.192007436765 9:-0.0776371261223 10:-0.0345672440315 11:-0.310847299624 12:-0.0144061616741 13:0.219009912452 
1.0 0.0 0.0 0.0 0.0 0.0 0.0 1.0 0.0 0.0 1.0 0.0 1:0.267329870412 2:0.0382178638344 3:-0.13896300235 4:-0.186115925629 5:-0.241070263144 6:-0.20221935579 7:-0.289559336129 8:0.220115109894 9:-0.102363871115 10:-0.0361695689524 11:-0.445847582419 12:1.20390972657E-4 13:0.0647453579777 
1.0 1.0 1.0 0.0 1.0 0.20361870795497494 1.0 1.0 1.0 1.0 1.0 1.0 1:0.181603606075 2:-0.694458077329 3:-0.0241146498591 4:-0.174930559038 5:-0.236263256439 6:-0.193760377796 7:-0.266860369197 8:0.0638222044033 9:0.026821031465 10:-0.0804732514436 11:0.120943083287 12:0.00168898610252 13:-0.229000490824 
0.0 0.0 0.1336087806664636 0.0 0.0 0.0 0.0 0.0 0.0 1.0 0.0 0.0 1:-0.216041905901 2:0.094854277858 3:-0.0435486241946 4:-0.191409616732 5:-0.244137317369 6:-0.202956609604 7:-0.293324281778 8:0.071931650866 9:0.0451554709987 10:-0.0800011108022 11:0.245553508501 12:0.141318040098 13:0.214887910402 
0.0 1.0 0.0 0.0 0.0 0.0 0.0 0.0 1.0 1.0 0.0 1.0 1:0.0493737282441 2:0.12869370569 3:0.018829493695 4:-0.173723343238 5:-0.240971135884 6:-0.158851024851 7:-0.268001589131 8:-0.067328791148 9:0.144082724434 10:-0.0711172302516 11:-0.163776490767 12:-0.231557494706 13:0.301065125242 
0.0 1.0 0.0 1.0 0.0 0.0 0.0 0.0 1.0 1.0 0.0 1.0 1:-0.0296223599883 2:0.131941861909 3:-0.0273523979772 4:-0.162683186894 5:-0.233172348183 6:-0.112593912266 7:-0.244489410318 8:-0.0819019558328 9:0.154032614073 10:-0.0790118348156 11:0.464418129365 12:-0.493408117234 13:-0.504437978514 
1.0 1.0 1.0 1.0 1.0 1.0 1.0 1.0 1.0 1.0 1.0 1.0 1:0.17601407543 2:-0.695646183747 3:-0.0196716361077 4:-0.158305506805 5:-0.234352309301 6:-0.187514268216 7:-0.258168983767 8:0.0555716585456 9:0.0301024736989 10:-0.0801456675938 11:0.22152227725 12:-0.0478735602962 13:-0.151451522195 
0.0 0.0 0.0 0.0 0.0 0.0 0.32194605330144577 1.0 0.0 0.0 0.0 0.0 1:0.0387809830508 2:0.111268135329 3:0.122819221238 4:-0.187835873048 5:-0.244494036468 6:-0.202396026447 7:-0.291072857708 8:-0.0720783091517 9:0.0921324574926 10:0.00846918358051 11:0.172336027286 12:-0.0441424173278 13:0.0823715807604 
0.0 1.0 0.0 0.0 0.0 0.0 0.0 0.0 1.0 0.0 0.0 0.42658134955676996 1:-0.0310899224934 2:0.135233282009 3:-0.0436609160228 4:-0.157450833728 5:-0.242191132013 6:-0.181467126663 7:-0.27152622376 8:-0.0813553168078 9:0.164136769036 10:-0.0798097641154 11:0.347759041047 12:-0.348681514754 13:-0.479198112954 
0.0 1.0 0.0 0.0 0.0 0.0 0.0 0.0 1.0 0.0 0.0 1.0 1:-0.0689338497861 2:0.132793838268 3:-0.073317190839 4:-0.159628109227 5:-0.236287513873 6:-0.179251492835 7:-0.255227500565 8:-0.0716260030409 9:0.156617366544 10:-0.0737197509077 11:0.132806696383 12:0.206985053379 13:-0.23658751998 
0.0 0.0 0.0 0.0 0.0 0.0 0.0 0.0 1.0 0.0 0.0 1.0 1:-0.0763818183743 2:0.131978470464 3:-0.076390244261 4:-0.173848211637 5:-0.238928556855 6:-0.185577906709 7:-0.275547365697 8:-0.0683210744724 9:0.154115773451 10:-0.0726941340332 11:0.260698735443 12:0.241027561616 13:0.211151362018 
0.0 1.0 0.0 0.0 0.0 0.0 0.0 0.0 1.0 1.0 0.0 1.0 1:-0.0185854362344 2:0.12701637845 3:-0.132023363608 4:-0.157300435539 5:-0.227669998214 6:-0.172563957163 7:-0.260345579566 8:-0.0828209732332 9:0.139020910026 10:-0.0414638827083 11:-0.0881634006467 12:0.167001784337 13:0.155385435401 
0.0 0.0 1.0 0.0 0.0 0.0 0.0 0.0 1.0 1.0 0.15826981027792125 0.0 1:0.175022669552 2:-0.696451563609 3:-0.016261707259 4:-0.191191714548 5:-0.243503482113 6:-0.202370286781 7:-0.292301351048 8:0.0541268144228 9:0.032332208567 10:-0.0798591850264 11:0.167003421866 12:-0.00885610488639 13:0.0620724834125 
1.0 0.0 0.0 0.0 1.0 0.0 0.0 1.0 0.7481943059534276 1.0 1.0 0.0 1:0.253833981691 2:0.0493168387262 3:-0.13440020878 4:-0.179553945698 5:-0.236733476233 6:-0.194348621169 7:-0.281327818306 8:0.191791694433 9:-0.0752350528766 10:-0.039829460914 11:-0.446449401977 12:-0.228499227192 13:0.290480807194 
0.0 0.0 0.0 0.0 0.0 0.0 0.0 0.0 0.0 1.0 0.0 0.0 1:0.166192423282 2:-0.699446787348 3:-0.0101343161124 4:-0.191732986906 5:-0.244509570903 6:-0.204325727509 7:-0.294250155889 8:0.0416554796177 9:0.0406659773664 10:-0.0790531192349 11:0.0954940866377 12:-0.143709524384 13:-0.0292369522634 
1.0 1.0 0.0 1.0 1.0 1.0 1.0 1.0 1.0 1.0 0.0 1.0 1:-0.00780080559523 2:0.129156296343 3:-0.0245001853878 4:-0.0977274505762 5:-0.172600782018 6:-0.012306548739 7:-0.14590668214 8:-0.0823988675488 9:0.146296452453 10:-0.0783898200442 11:0.126335008519 12:-0.0283867365243 13:-0.0995043939166 
0.0 0.0 0.0 0.0 0.0 0.0 0.0 0.0 1.0 0.0 0.0 0.0 1:0.0186473024914 2:0.135156738714 3:-0.0220971398618 4:-0.16482277932 5:-0.242799147628 6:-0.191127343855 7:-0.268975285475 8:-0.0787236507767 9:0.163894766477 10:-0.0803603242609 11:-0.0969412297226 12:-0.239928121041 13:0.264275834491 
0.0 0.0 0.0 0.0 0.0 0.0 0.0 0.0 0.6944786278213546 0.0 0.0 0.0 1:0.001612205084 2:0.134930431711 3:-0.0813348285354 4:-0.159591137157 5:-0.24098265041 6:-0.191958907566 7:-0.27344022143 8:-0.0819192530471 9:0.163196086245 10:-0.0708658595772 11:-0.258141028215 12:-0.141068150702 13:0.284247898464 
0.3186066974565156 0.0 1.0 0.0 0.0 0.0 1.0 0.0 0.0 0.0 1.0 0.0 1:0.263765795284 2:0.0384475004286 3:-0.152834785314 4:-0.191777823464 5:-0.243594113676 6:-0.200926083672 7:-0.291748165593 8:0.21249928717 9:-0.101811330131 10:-0.0240576327734 11:-0.277525986443 12:0.230734405163 13:-0.0680770609357 
0.0 0.7593093502293131 0.0 0.0 0.0 0.0 0.0 0.0 0.0 0.0 0.0 0.0 1:-0.0731588666323 2:0.13259082517 3:-0.0777302603663 4:-0.17456877371 5:-0.234889418053 6:-0.186380830311 7:-0.2755434173 8:-0.0698066976491 9:0.1559948634 10:-0.0721922891112 11:0.00747374624577 12:0.139205793278 13:-0.0344605290274 
0.0 1.0 0.0 1.0 0.0 1.0 0.0 0.0 1.0 1.0 0.0 1.0 1:0.0147349864817 2:0.129811923271 3:-0.122287661837 4:-0.135837283902 5:-0.229078057363 6:-0.134814786461 7:-0.238059843733 8:-0.0790401584239 9:0.147502376277 10:-0.0467851306775 11:0.0776431358785 12:0.199466623255 13:0.31324899703 
0.0 1.0 0.0 0.2728219191510033 0.0 0.0 0.0 0.0 1.0 1.0 0.0 1.0 1:9.3350185753E-4 2:0.132670699518 3:0.015161292533 4:-0.093599642262 5:-0.225867025463 6:-0.176053317917 7:-0.243296578803 8:-0.0791152802374 9:0.156251519429 10:-0.0726672940199 11:-0.0467171705341 12:0.0190472099692 13:-0.339829744033 
1.0 1.0 0.0 1.0 1.0 1.0 1.0 1.0 1.0 1.0 0.0 1.0 1:0.0238957048403 2:0.110046747237 3:0.120184106427 4:-0.151886859506 5:-0.18751801208 6:-0.162674425021 7:-0.217115515378 8:-0.0772290668056 9:0.0886328331193 10:0.00550526728001 11:0.0476605052335 12:0.056602297325 13:0.172000634589 
1.0 1.0 0.0 1.0 1.0 1.0 1.0 1.0 1.0 1.0 0.0 1.0 1:-0.172530266498 2:0.109956888735 3:-0.0653931298405 4:-0.126809668009 5:-0.203289297761 6:-0.143429373704 7:-0.223883452298 8:0.0122854572558 9:0.0883104058159 10:-0.0760308839624 11:0.317680857195 12:-0.11287912683 13:-0.0187933334466 
1.0 0.0 1.0 0.0 1.0 0.0 1.0 1.0 1.0 1.0 1.0 1.0 1:0.262767283015 2:0.0402080236154 3:-0.140886934142 4:-0.17423059094 5:-0.23510593263 6:-0.189943460112 7:-0.275171776253 8:0.210392181246 9:-0.0975607741984 10:-0.0345716481086 11:-0.498715828622 12:-0.352622114612 13:0.368240315916 
0.0 1.0 0.0 0.0 0.0 0.0 0.0 0.0 1.0 1.0 0.0 1.0 1:0.0297233138423 2:0.124367265242 3:0.0734969025166 4:-0.168804743807 5:-0.230840329629 6:-0.156006866027 7:-0.266185571765 8:-0.075420574774 9:0.130993425481 10:-0.0396019974234 11:0.0549339239989 12:-0.270966276586 13:-0.270812672946 
0.0 1.0 0.0 0.0 0.0 0.0 0.0 0.0 1.0 1.0 0.0 1.0 1:0.0357072736308 2:0.130587353206 3:-0.108666661897 4:-0.142448162833 5:-0.224602582087 6:-0.156227214476 7:-0.237163287151 8:-0.0732457492906 9:0.149867091905 10:-0.0574233914138 11:-0.145646369177 12:0.0712935491954 13:0.118226746439 
0.0 1.0 0.0 0.0 0.0 0.0 0.0 0.0 0.0 0.0 0.0 0.0 1:0.001029444107 2:0.131176415746 3:-0.105619808872 4:-0.18239205584 5:-0.242468107829 6:-0.172128076963 7:-0.269127174286 8:-0.0820027679963 9:0.151659091471 10:-0.0591219901101 11:-0.220017165401 12:0.0938878211123 13:-0.366076780979 
0.0 1.0 0.0 0.0 0.0 0.0 0.0 0.0 1.0 0.0 0.0 1.0 1:-0.111553573426 2:0.127452350054 3:-0.0254509227924 4:-0.168453713258 5:-0.235593951876 6:-0.1806143877 7:-0.250694181729 8:-0.047031099974 9:0.140313083136 10:-0.0805255031586 11:0.444873845595 12:-0.293408974218 13:-0.348519104489 
0.0 1.0 0.0 1.0 0.0 1.0 0.0 0.0 1.0 1.0 0.0 1.0 1:-0.0354926105138 2:0.13688731187 3:-0.0899101817044 4:-0.131968088777 5:-0.222318560552 6:-0.088981947453 7:-0.193713036608 8:-0.081143358992 9:0.169302176519 10:-0.0647540162408 11:-0.00227286817781 12:0.298052837329 13:0.210841885217 
0.0 0.0 0.0 0.0 0.0 0.0 0.0 0.0 1.0 0.0 0.0 1.0 1:-0.0296330201754 2:0.129955029392 3:0.0394537608359 4:-0.16981279501 5:-0.235978062487 6:-0.188776276493 7:-0.274056462613 8:-0.0818558382656 9:0.147932178585 10:-0.0620538194253 11:0.129331004096 12:-0.02248579263 13:-0.0837423369536 
0.0 1.0 0.0 0.0 0.0 0.0 0.0 0.0 1.0 0.0 0.0 1.0 1:0.00703117124965 2:0.136524554769 3:-0.0700158107122 4:-0.155654973354 5:-0.240403953472 6:-0.184384134226 7:-0.266520152753 8:-0.0811628853031 9:0.168126605145 10:-0.0747428181701 11:-0.151671925931 12:0.0389465187268 13:-0.235045913058 
0.0 0.0 0.0 0.0 0.0 0.0 0.0 0.0 0.0 0.0 0.0 0.43405062574914444 1:-0.167086426467 2:0.111760684943 3:-0.0475349844668 4:-0.175607435672 5:-0.241634728293 6:-0.20027849748 7:-0.280746690086 8:0.00583366668074 9:0.0935728178566 10:-0.0795476676466 11:0.394897826256 12:0.140266766632 13:0.208747399915 
1.0 0.0 1.0 0.0 1.0 0.0 1.0 1.0 0.0 1.0 1.0 0.0 1:-0.232632813622 2:0.0873695452178 3:-0.0336594562117 4:-0.190784382804 5:-0.244105634988 6:-0.204139184566 7:-0.293587448699 8:0.0984849197837 9:0.0243644308809 10:-0.0806011741367 11:0.29414596554 12:-0.103476436328 13:-0.123286373455 
1.0 0.0 1.0 0.0 0.0 0.0 1.0 1.0 0.0 0.0 1.0 0.0 1:0.271729002258 2:0.0359880806287 3:-0.134942953534 4:-0.188374863902 5:-0.242385491524 6:-0.201760302591 7:-0.290969312965 8:0.22964902603 9:-0.107708389654 10:-0.03940786914 11:-0.423023170794 12:-0.0814312123197 13:0.14610229194 
0.0 1.0 0.0 1.0 0.0 0.0 0.0 0.0 1.0 1.0 0.0 1.0 1:0.0219768572878 2:0.132753898488 3:-0.00146912901535 4:-0.12448078172 5:-0.223587495502 6:-0.152741521555 7:-0.233865476265 8:-0.0778083037328 9:0.156512443358 10:-0.0771409686051 11:-0.0106534169441 12:-0.06003900311 13:-0.291285068582 
0.0 1.0 0.0 0.0 0.0 0.0 0.0 0.0 1.0 1.0 0.0 1.0 1:-0.117366969914 2:0.126939834807 3:-0.0361261336378 4:-0.157956886111 5:-0.22594763987 6:-0.192631073101 7:-0.244909895049 8:-0.0424562389205 9:0.138758514909 10:-0.0805188810986 11:0.138132788405 12:0.00514586017647 13:-0.150854475754 
0.0 0.0 0.0 0.0 0.0 0.0 0.0 0.0 1.0 0.0 0.0 0.0 1:-8.43208347576E-4 2:0.127938243994 3:-0.134411437721 4:-0.171178930032 5:-0.23765100576 6:-0.191386255665 7:-0.262350533583 8:-0.0822189423392 9:0.141786141006 10:-0.039820950468 11:0.126914479592 12:0.0710843979478 13:-0.14096229594 
0.9368979056042759 1.0 0.0 0.0 1.0 0.0 0.0 1.0 1.0 1.0 0.0 1.0 1:-0.0155614755028 2:0.113351483899 3:0.11560634242 4:-0.175156780891 5:-0.235453570169 6:-0.185924240004 7:-0.272313926212 8:-0.0829349854623 9:0.0982312909527 10:2.95644652472E-4 11:-0.126459705581 12:-0.209955432614 13:-0.0730485247659 
1.0 0.0 1.0 0.0 1.0 0.0 0.4054548965559588 1.0 0.0 0.0626796420168683 1.0 0.0 1:0.271466052751 2:0.0358915687114 3:-0.136122018141 4:-0.184944467164 5:-0.240407265517 6:-0.200828328235 7:-0.288216042761 8:0.229074661128 9:-0.107939845956 10:-0.0384706592101 11:-0.452656030996 12:0.0321669673498 13:0.00553669782455 
0.0 1.0 0.0 1.0 1.0 1.0 0.0 0.0 1.0 1.0 0.0 1.0 1:0.00492754646425 2:0.132770538629 3:-0.0396558402424 4:-0.0950649156049 5:-0.213563426904 6:-0.073219917937 7:-0.182977256173 8:-0.0814063084634 9:0.156586945494 10:-0.0800375765152 11:0.0527334404929 12:0.0315738407779 13:0.132541678322 
1.0 0.0 0.0 0.0 0.31506689963500634 0.0 1.0 1.0 0.0 1.0 1.0 0.0 1:0.263947018222 2:0.0398253028969 3:-0.14015703841 4:-0.185194590522 5:-0.240246690392 6:-0.203391134191 7:-0.288431830208 8:0.212884725765 9:-0.0984880554132 10:-0.0351846765848 11:-0.468239206869 12:-0.134644972498 13:0.147067432493 
0.0 1.0 0.0 1.0 1.0 1.0 0.0 0.0 1.0 1.0 0.0 1.0 1:-0.00325242751083 2:0.134071797246 3:-0.0151612469188 4:-0.0895544648111 5:-0.210053450051 6:-0.0904286144304 7:-0.188017731245 8:-0.0823175413544 9:0.160607150776 10:-0.0767330617502 11:-0.00825588694999 12:-0.120867057333 13:0.0547869254411 
1.0 0.0 1.0 0.0 1.0 0.0 1.0 1.0 1.0 1.0 1.0 0.0 1:0.273388451693 2:0.0323438823344 3:-0.148369313496 4:-0.185088182426 5:-0.240638550928 6:-0.188940403316 7:-0.282697250216 8:0.23328240826 9:-0.116369841551 10:-0.0281135612521 11:-0.319585710815 12:-0.0123115755099 13:0.167192430598 
0.0 0.0 0.0 0.0 0.0 0.0 0.0 0.0 1.0 0.0 0.0 0.0 1:0.0707155708674 2:0.131006687449 3:-0.025327401734 4:-0.176094907005 5:-0.24287509806 6:-0.187456285545 7:-0.271243517406 8:-0.055198144466 9:0.151139235864 10:-0.0804863807968 11:-0.273967770297 12:-0.197512500798 13:0.35924134895 
0.0 1.0 0.0 0.0 0.0 0.0 0.0 0.0 1.0 0.0 0.0 1.0 1:-0.0509748631415 2:0.133339633972 3:-0.0670812507481 4:-0.157933111878 5:-0.237711763127 6:-0.189943408089 7:-0.266515508227 8:-0.0775915207499 9:0.158297198271 10:-0.0755850009943 11:0.0859891247467 12:-0.147500647934 13:-0.068963688979 
1.0 0.0 0.0 0.0 1.0 0.0 1.0 1.0 1.0 1.0 0.6096987058662109 1.0 1:0.252359312136 2:0.0502852943034 3:-0.134022159661 4:-0.176487049256 5:-0.235810930792 6:-0.184965228386 7:-0.270397089669 8:0.188790799186 9:-0.0728249246717 10:-0.0401024187506 11:-0.497749920612 12:-0.243058995831 13:0.30638807925 
1.0 0.0 0.0 0.0 1.0 0.0 1.0 1.0 1.0 1.0 0.0 0.0 1:0.0197097750523 2:0.107816955066 3:0.12840012551 4:-0.17702413453 5:-0.239415925362 6:-0.200979303161 7:-0.280826758316 8:-0.0784268222624 9:0.0820984689903 10:0.0150721424595 11:-0.0984868645353 12:-0.0725040489752 13:0.177348003525 
0.0 1.0 0.0 0.0 0.0 0.0 0.0 0.0 1.0 0.0 0.0 1.0 1:-0.014957394035 2:0.131069919222 3:0.0358604214949 4:-0.158124008655 5:-0.235187378001 6:-0.185970734312 7:-0.264247401513 8:-0.0828662091964 9:0.151332830031 10:-0.0639154315445 11:0.109223061803 12:-0.0662908914533 13:-0.273026653405 
1.0 1.0 1.0 0.34796452968323577 1.0 0.9742524772493388 1.0 1.0 1.0 1.0 1.0 1.0 1:0.179805573122 2:-0.695829223914 3:-0.0243841503498 4:-0.171611189039 5:-0.232737633976 6:-0.191799226389 7:-0.261754892326 8:0.0611827773345 9:0.0306112702269 10:-0.0804795113001 11:0.10939822516 12:-0.149993279857 13:-0.151222598067 
0.0 1.0 0.0 0.0 0.0 0.0 0.0 0.0 1.0 1.0 0.0 1.0 1:-0.0783646270035 2:0.132045030335 3:-0.0756865485688 4:-0.153459753836 5:-0.229401192602 6:-0.163738429569 7:-0.248907487299 8:-0.0673990393461 9:0.154319566628 10:-0.0729359672963 11:0.163927710205 12:0.0029908454464 13:-0.0395102050992 
0.0 1.0 0.0 0.0 0.0 0.0 0.0 0.0 1.0 1.0 0.0 1.0 1:-0.114154677216 2:0.125495470243 3:-0.00542180172807 4:-0.157862125413 5:-0.229179250841 6:-0.189566616305 7:-0.255765397766 8:-0.0448714714384 9:0.134394176082 10:-0.0782130368822 11:0.131496022345 12:-0.105143243215 13:-0.126981818948 
0.0 0.0 0.0 0.0 0.20642026743903533 0.0 0.0040681755865023955 1.0 0.0 0.0 0.0 0.0 1:0.026909004514 2:0.107926773258 3:0.12829157802 4:-0.1896391432 5:-0.244232049742 6:-0.202578983617 7:-0.291452334096 8:-0.076380694276 9:0.0824154949408 10:0.0149389942304 11:0.00690009110416 12:-0.0673775990861 13:0.00467843449329 
0.0 1.0 0.0 0.0 0.0 0.0 0.0 0.0 1.0 1.0 0.0 1.0 1:-0.0358053112257 2:0.127994817487 3:0.0421674799408 4:-0.158541155432 5:-0.230662355932 6:-0.126539736779 7:-0.241694506139 8:-0.0809806416338 9:0.141990343033 10:-0.0595331502831 11:0.0856920244331 12:-0.18274234003 13:-0.373684193566 
0.0 1.0 0.0 1.0 0.0 1.0 0.0 0.0 1.0 1.0 0.0 1.0 1:0.057845082256 2:0.130504151456 3:-0.0388211379216 4:-0.125253371208 5:-0.211356339407 6:-0.129671218292 7:-0.200793651362 8:-0.0626530973856 9:0.149614558969 10:-0.0795099047598 11:-0.0357314946031 12:-0.0311113184419 13:-0.159210342601 
0.0 1.0 0.0 0.0 0.0 0.0 0.0 0.0 1.0 1.0 0.0 1.0 1:-0.0340819024596 2:0.132517608756 3:-1.85258878846E-4 4:-0.17444151128 5:-0.229379538084 6:-0.147090668062 7:-0.250455615572 8:-0.0814512239005 9:0.155790910088 10:-0.0761306038927 11:-0.102339309811 12:-0.130928963482 13:-0.263695566599 
1.0 0.0 1.0 0.0 1.0 0.0 1.0 1.0 0.48739737837688407 0.0 1.0 0.0 1:0.182079760022 2:-0.693413075988 3:-0.0151649902549 4:-0.191706362069 5:-0.24433229421 6:-0.203598353724 7:-0.293224675656 8:0.0645223646196 9:0.0239426738555 10:-0.0797364227866 11:0.221524692992 12:-0.215536910438 13:-0.13005744174 
0.0 0.0 0.0 0.0 1.0 0.0 0.0 0.0 0.0 0.0 0.0 0.0 1:0.0262409614401 2:0.107424240914 3:0.129335891266 4:-0.191935737727 5:-0.244546053652 6:-0.204101116292 7:-0.294300629613 8:-0.0765954450291 9:0.0809607190579 10:0.0161996164214 11:-0.0022590188429 12:-0.0790175412098 13:-0.115148336747 
0.0 1.0 0.0 1.0 1.0 1.0 0.0 0.0 1.0 1.0 0.0 1.0 1:-0.00364330371358 2:0.127335865241 3:-0.00952793964243 4:-0.125966381518 5:-0.181542240169 6:-0.0422407703689 7:-0.190332256075 8:-0.0812008761249 9:0.139999827844 10:-0.0783669819299 11:-0.0862802136633 12:-0.0314329005606 13:-0.0626676167499 
0.0 1.0 0.0 0.0 0.0 0.0 0.0 0.0 1.0 1.0 0.0 1.0 1:0.0244997857845 2:0.129911760298 3:0.020416550978 4:-0.179800467322 5:-0.220769060956 6:-0.16176806376 7:-0.261875129749 8:-0.077119304215 9:0.147938878648 10:-0.0703526023067 11:0.0508027134914 12:-0.236443592561 13:0.189645169189 
0.0 0.0 0.0 0.0 0.0 0.0 0.0 0.0 1.0 0.0 0.0 1.0 1:0.020651431441 2:0.120270466322 3:0.0988673722724 4:-0.178785954577 5:-0.23667618634 6:-0.19090842089 7:-0.278486394088 8:-0.0781745260367 9:0.118712073186 10:-0.0171673709764 11:0.158543347167 12:-0.0548160277292 13:-0.233710782843 
0.0 1.0 0.0 0.0 0.0 0.0 0.0 0.0 1.0 0.0 0.0 1.0 1:0.0114374124163 2:0.135050239931 3:-0.0543997591501 4:-0.165689862593 5:-0.238117243534 6:-0.172746400897 7:-0.266866518021 8:-0.0802978693431 9:0.163566220578 10:-0.0783834311479 11:-0.107886788949 12:-0.117609012062 13:0.135408900816 
0.0 1.0 0.0 0.0 0.0 0.0 0.0 0.0 1.0 0.0 0.0 1.0 1:-0.0302477619207 2:0.13283377353 3:-0.0979315620866 4:-0.140410158088 5:-0.237818491399 6:-0.18283702774 7:-0.252502099688 8:-0.0818775728781 9:0.156740412541 10:-0.063442941782 11:-0.00289083602887 12:-0.00896761922319 13:0.203731918007 
0.0 0.0 1.0 0.0 0.0 0.0 0.0 0.0 0.0 1.0 0.0 0.0 1:0.168829061992 2:-0.698371833996 3:-0.0117962352652 4:-0.191264766926 5:-0.243426000368 6:-0.202723731934 7:-0.292509490224 8:0.0453176660728 9:0.0376682122012 10:-0.0792981703872 11:0.14485902166 12:-0.0940189467468 13:-0.0867018093786 
0.0 0.0 1.0 0.0 0.0 0.0 0.8496820605075539 0.0 0.0 0.0 1.0 0.0 1:0.175463293476 2:-0.696078824647 3:-0.0172124449251 4:-0.192731298118 5:-0.243841047455 6:-0.204153804214 7:-0.294167178448 8:0.0547647285482 9:0.0312994782312 10:-0.0799597909297 11:0.244424535605 12:-0.0302939063609 13:0.00620924401606 
1.0 0.0 1.0 0.0 1.0 0.0 1.0 1.0 1.0 1.0 1.0 1.0 1:0.270559932129 2:0.0357451318865 3:-0.136065871519 4:-0.173303776161 5:-0.234541248425 6:-0.192141703096 7:-0.27564542703 8:0.227124803161 9:-0.108280621189 10:-0.0385074730608 11:-0.504159490688 12:-0.269632007246 13:0.287376696481 
0.0 1.0 0.0 1.0 1.0 1.0 1.0 0.21977138547991787 1.0 1.0 0.0 1.0 1:-0.00920440624006 2:0.130737116739 3:-0.0282657045167 4:-0.0587279263607 5:-0.202266324253 6:-0.0472974498245 7:-0.155667808813 8:-0.0788552895582 9:0.150359573339 10:-0.0744044380628 11:-0.0384301720558 12:0.0671140209066 13:-0.209255503176 
0.0 1.0 0.0 1.0 1.0 1.0 0.0 0.0 1.0 1.0 0.0 1.0 1:-0.00177420441637 2:0.130058189999 3:0.0225613246953 4:-0.144169945738 5:-0.219473653923 6:-0.0934649307676 7:-0.218283809469 8:-0.0822609984164 9:0.148265350152 10:-0.0694139043822 11:-0.079186864774 12:-0.279243587055 13:0.120280137253 
0.0 0.0 0.0 0.0 0.0 0.0 0.0 0.0 0.42229856403909904 0.0 0.0 0.0 1:0.0121694170399 2:0.136218377763 3:-0.0366239607755 4:-0.167109588896 5:-0.239434123992 6:-0.19133403189 7:-0.272049239698 8:-0.0802176628056 9:0.167177354602 10:-0.0804943282411 11:-0.012256764272 12:-0.342768650272 13:-0.124476944437 
0.0 1.0 0.0 0.0 0.0 0.0 0.0 0.0 1.0 1.0 0.0 1.0 1:-0.0231053869638 2:0.129505743659 3:0.029261404224 4:-0.144420084336 5:-0.234927332456 6:-0.156771470557 7:-0.246778443984 8:-0.0819575439449 9:0.146565013961 10:-0.0667343787857 11:0.111304606197 12:-0.12796423219 13:-0.427093864612 
0.0 0.0 0.0 0.0 0.0 0.0 0.0 0.0 1.0 0.0 0.0 0.0 1:0.0174391393986 2:0.133738998064 3:0.0136079218152 4:-0.162292827136 5:-0.242656719221 6:-0.188248411233 7:-0.274444812728 8:-0.0790214004261 9:0.159523627445 10:-0.0732361118816 11:0.238641819468 12:-0.304825714345 13:-0.400322520393 
0.0 1.0 0.0 0.0 0.0 0.0 0.0 0.0 0.44560146358808034 0.0 0.0 0.5857699417757837 1:0.108097553602 2:0.121238923672 3:-0.0834421719094 4:-0.160699625519 5:-0.235361671385 6:-0.181335176039 7:-0.271379257238 8:-0.0255629226808 9:0.121598658527 10:-0.0700600956176 11:-0.458057626807 12:0.255834690333 13:-0.339161666229 
0.0 0.0 0.0 0.0 0.0 0.0 0.0 0.0 1.0 0.0 0.0 1.0 1:-0.114939984303 2:0.122493588745 3:0.0258290178744 4:-0.18072209743 5:-0.240131947281 6:-0.195901972293 7:-0.276139472609 8:-0.0444838978729 9:0.12535365928 10:-0.0685826377274 11:0.217906237115 12:0.146948641746 13:0.23690823703 
0.0 1.0 0.0 0.0 0.0 0.0 0.0 0.0 1.0 0.0 0.0 1.0 1:0.00555294836817 2:0.13682740524 3:-0.0574278953993 4:-0.149111637437 5:-0.229876751694 6:-0.174806513913 7:-0.253039037786 8:-0.0813846640397 9:0.169064282195 10:-0.0778785120177 11:-0.0362117722522 12:0.0870319669071 13:-0.0291013864255 
0.0 1.0 0.0 0.0 0.0 0.0 0.0 0.0 1.0 0.0 0.0 1.0 1:-0.0216804653671 2:0.13368242127 3:0.00346422580916 4:-0.163061781438 5:-0.237389326104 6:-0.182628716674 7:-0.260571596411 8:-0.0824802035443 9:0.159352798075 10:-0.07623568311 11:-0.119665630417 12:0.202517514961 13:-0.139795003844 
0.0 1.0 0.0 0.0 0.0 0.0 0.0 0.0 1.0 0.0 0.0 0.0 1:0.0191767619269 2:0.136111880892 3:-0.0792836303376 4:-0.174390350915 5:-0.240077614951 6:-0.169772948044 7:-0.270766145129 8:-0.0785234133016 9:0.166851654986 10:-0.0715430935735 11:0.0663502156965 12:-0.00877536399172 13:-0.238969996013 
0.0 1.0 0.0 0.0 0.0 0.0 0.0 0.0 1.0 1.0 0.0 1.0 1:-0.0974820285694 2:0.128004805429 3:-0.0498369671781 4:-0.151269393405 5:-0.233936078447 6:-0.189481035951 7:-0.263338476059 8:-0.0566776426192 9:0.141989081325 10:-0.0792108286264 11:0.299126070726 12:0.132755590739 13:0.25016068343 
1.0 0.0 1.0 0.0 0.0 0.0 1.0 1.0 0.0 0.0 1.0 0.0 1:0.272553395346 2:0.0353890358114 3:-0.134965411495 4:-0.189465201459 5:-0.242160147872 6:-0.201959713873 7:-0.291032434607 8:0.231450672573 9:-0.10913931092 10:-0.0393900076109 11:-0.388174676391 12:-0.0626378249119 13:0.0844297712571 
0.0 1.0 0.0 0.0 0.0 0.0 0.0 0.0 1.0 0.0 0.0 1.0 1:-0.0401227171956 2:0.136304905352 3:-0.0542013765521 4:-0.164905656516 5:-0.233898269431 6:-0.180341892415 7:-0.259998568046 8:-0.0804368242698 9:0.167445187154 10:-0.0785173675581 11:0.276228427861 12:0.394394612297 13:0.244708858909 
0.0 0.0 0.0 0.0 0.0 0.0 0.0 0.0 0.0 0.0 1.0 0.0 1:0.264583079644 2:0.0394558914073 3:-0.139112723992 4:-0.186058732218 5:-0.240737689956 6:-0.20070969119 7:-0.287937569003 8:0.214238485907 9:-0.0993799116523 10:-0.036046780425 11:-0.476965833083 12:0.0578165198528 13:-0.0648143349537 
0.0 0.0 0.0 0.0 0.0 0.0 0.0 0.0 0.0 0.0 0.0 1.0 1:-0.0858481295698 2:0.130700506099 3:-0.0435186796907 4:-0.177776636412 5:-0.238021702116 6:-0.190302109411 7:-0.274378793788 8:-0.0635261032941 9:0.150204312068 10:-0.0799852275117 11:0.222028786448 12:0.189734310094 13:-0.0265127916918 
0.0 0.0 0.0 0.0 0.0 0.0 0.0 0.0 0.0 0.0 0.0 1.0 1:-0.0802408331717 2:0.130640601555 3:-0.0279288293929 4:-0.181375679048 5:-0.239169461499 6:-0.191872289089 7:-0.276818182528 8:-0.0664527876769 9:0.150019841817 10:-0.0805787407376 11:0.267208750543 12:0.204563117081 13:0.315138172751 
0.0 1.0 0.0 0.0 0.0 0.0 0.0 0.0 1.0 0.0 0.0 1.0 1:-0.103288317703 2:0.127592128251 3:-0.0289357128125 4:-0.158419974451 5:-0.235086329629 6:-0.185577770464 7:-0.265105564537 8:-0.0528273167128 9:0.140736135851 10:-0.0806251507846 11:0.097811033049 12:0.225025365747 13:-0.105412675793 
0.0 0.0 0.0 0.0 0.0 0.0 0.0 0.0 0.0 0.0 1.0 0.0 1:0.260891079582 2:0.0419186337448 3:-0.138850709965 4:-0.189809624258 5:-0.242439984833 6:-0.200979339982 7:-0.291434135452 8:0.206428535581 9:-0.0934142660701 10:-0.0362616035687 11:-0.364381731002 12:0.0558246030139 13:0.0836708701253 
0.0 1.0 0.0 0.0 0.0 0.0 0.0 0.0 1.0 0.0 0.0 1.0 1:-0.0438076140229 2:0.134188280322 3:-0.0825775250808 4:-0.161092248473 5:-0.240737507989 6:-0.189729194187 7:-0.262980784924 8:-0.0796666819952 9:0.160908058819 10:-0.070393617548 11:0.16121740794 12:-0.0549557402434 13:-0.321906590042 
1.0 0.0 1.0 0.0 1.0 0.0 1.0 1.0 1.0 1.0 1.0 0.0 1:0.17996902641 2:-0.693875671159 3:-0.0145548712735 4:-0.189970671503 5:-0.243558754991 6:-0.202921899317 7:-0.290739620887 8:0.0613761687416 9:0.025216503248 10:-0.0796620356443 11:0.258863510348 12:-0.104502420036 13:-0.0315552875842 
0.0 0.0 0.0 0.0 0.0 0.0 0.0 0.0 1.0 0.0 0.0 0.09098391859701362 1:0.0934290346553 2:0.123991202526 3:-0.0756266597539 4:-0.174841952414 5:-0.239716068228 6:-0.164174117395 7:-0.273297253282 8:-0.0383881590482 9:0.129855829009 10:-0.0722450587144 11:-0.247308731239 12:-0.183062852078 13:0.288821784795 
0.0 0.0 0.0 0.0 0.0 0.0 0.0 0.0 0.0 1.0 0.0 0.0 1:-0.187383562949 2:0.104265941946 3:-0.0781270248173 4:-0.181554771618 5:-0.240455838256 6:-0.192696562522 7:-0.28298853493 8:0.0310354843751 9:0.0718615069658 10:-0.0720773258808 11:0.251552772344 12:0.189857866131 13:0.165859461135 
0.0 0.0 0.0 0.0 0.0 0.0 0.0 0.0 1.0 0.0 0.0 0.0 1:0.0110252157302 2:0.135506179427 3:-0.0221869733349 4:-0.169150773238 5:-0.237315008873 6:-0.190336685332 7:-0.273791507594 8:-0.0804175001209 9:0.164974504396 10:-0.0803698167106 11:-0.0413248240099 12:-0.158548670354 13:0.0467430298206 
0.0 0.0 0.0 0.0 0.0 0.0 0.0 0.0 1.0 0.0 0.0 1.0 1:-0.0458366169713 2:0.133283056135 3:-0.0201844356124 4:-0.169801503165 5:-0.236162785066 6:-0.18204124528 7:-0.274731181442 8:-0.0791885827488 9:0.158124705173 10:-0.0801996770178 11:0.0403540265209 12:0.263935037 13:0.347407937003 
0.0 1.0 0.0 1.0 0.0 0.4867025298431263 0.0 0.0 1.0 1.0 0.0 1.0 1:0.0112810622223 2:0.133452787734 3:-0.0257578538602 4:-0.129899861193 5:-0.210972649341 6:-0.124113116366 7:-0.229684177597 8:-0.0800657978887 9:0.158733973322 10:-0.0799398448733 11:0.0978732999463 12:-0.171964559676 13:-0.391913244384 
0.0 1.0 0.0 0.0 0.0 0.0 0.0 0.0 1.0 0.0 0.0 1.0 1:0.0142019734855 2:0.13484723083 3:-0.0737139555495 4:-0.157001615328 5:-0.239955428916 6:-0.147960967792 7:-0.256127022762 8:-0.0797596152568 9:0.162939609648 10:-0.073364249363 11:-0.174142087734 12:0.217796851396 13:-0.283929785721 
0.0 1.0 0.0 0.0 0.0 0.0 0.0 0.0 1.0 1.0 0.0 1.0 1:-0.0305640163462 2:0.127961538941 3:0.0410258458652 4:-0.162005743635 5:-0.230308384797 6:-0.143196932755 7:-0.249722292005 8:-0.081861041592 9:0.141869014753 10:-0.0610400156633 11:-0.192075741024 12:-0.0217320345365 13:0.163520684997 
0.0 1.0 0.0 0.0 0.0 0.0 0.0 0.0 1.0 0.0 0.0 1.0 1:2.51245052182E-4 2:0.13585895154 3:-0.0557135735983 4:-0.16001754179 5:-0.23201510396 6:-0.139423454455 7:-0.248647131958 8:-0.0818483008966 9:0.166065527255 10:-0.0771829757308 11:0.124002711255 12:-0.0929193360535 13:-0.400061345802 
0.0 0.0 0.0 0.0 0.0 0.0 0.0 0.0 1.0 0.0 0.0 1.0 1:-0.0335275689007 2:0.134224890266 3:-0.0504583153542 4:-0.177069322739 5:-0.242164640806 6:-0.175280369181 7:-0.278508991561 8:-0.08156373994 9:0.16102060811 10:-0.0791275389584 11:0.276929967132 12:0.304476166184 13:0.463952919402 
0.0 1.0 0.0 1.0 0.0 1.0 0.0 0.0 1.0 1.0 0.0 1.0 1:-0.0263638733525 2:0.133808886554 3:-0.078190656484 4:-0.104239322012 5:-0.228866160389 6:-0.134583542385 7:-0.227641385178 8:-0.0821558039824 9:0.159765804759 10:-0.0719522672714 11:-0.249427835617 12:0.193385506383 13:-0.426908042026 
0.0 0.0 0.0 0.0 0.0 0.0 0.0 0.8671092577177463 0.0 0.0 0.0 0.0 1:0.0287248025343 2:0.107510768677 3:0.127932244625 4:-0.192800453848 5:-0.244923069114 6:-0.20353576254 7:-0.2943516406 8:-0.0757977131694 9:0.0812111591117 10:0.0145074091482 11:-0.0827492911515 12:-0.117052649868 13:0.00287925160548 
0.0 1.0 0.0 0.0 0.0 0.0 0.0 0.0 1.0 1.0 0.0 1.0 1:-0.204866391647 2:0.10001605435 3:-0.0357630566599 4:-0.170885427903 5:-0.231775989271 6:-0.187703059845 7:-0.266549469585 8:0.0552312642393 9:0.0597294696852 10:-0.0805349316283 11:-0.0912631425855 12:-0.0724050081778 13:0.0604826805041 
0.0 1.0 0.0 0.0 0.0 0.0 0.0 0.0 1.0 0.0 0.0 1.0 1:-0.0417572903375 2:0.135622660418 3:-0.0543436128592 4:-0.166420062949 5:-0.23187526897 6:-0.175993012243 7:-0.252498341402 8:-0.080107437029 9:0.16533490439 10:-0.0784904213911 11:0.208238712923 12:0.248109563412 13:0.0303553040192 
1.0 0.9452086261538348 1.0 0.0 1.0 0.0 1.0 0.0 1.0 1.0 1.0 1.0 1:0.179226367201 2:-0.695270114429 3:-0.0222318900598 4:-0.176674407018 5:-0.236583470805 6:-0.193172381237 7:-0.266860369197 8:0.060275351619 9:0.0290626890505 10:-0.0803672142976 11:0.141820397101 12:0.0081882338211 13:-0.250815892765 
-0.0 0.0 1.0 0.0 1.0 0.0 1.0 1.0 0.0 0.0 1.0 0.0 1:-0.252649231579 2:-0.209277794189 3:-0.443146597056 4:-0.193755375848 5:-0.243987327455 6:-0.204749021372 7:-0.295219270224 8:0.133314529691 9:-0.481804052433 10:0.563780328087 11:0.0670590331298 12:-0.160188935213 13:0.0135064382114 
-0.0 0.0 1.0 0.0 1.0 0.0 1.0 1.0 0.0 0.0 1.0 0.0 1:-0.218927281523 2:-0.287043889697 3:-0.478488595447 4:-0.193289318758 5:-0.243625593225 6:-0.203821715988 7:-0.293804282761 8:0.0763981893167 9:-0.511908867105 10:0.678918984328 11:-0.0886771430361 12:0.112216377119 13:-0.0591999204751 
-0.0 1.0 1.0 1.0 1.0 1.0 1.0 0.0 1.0 1.0 1.0 1.0 1:-0.032049347165 2:-0.143555848089 3:0.0632259406609 4:0.674011322065 5:0.462247907834 6:0.478836824401 7:0.56479187782 8:-0.0710403518155 9:-0.393713484406 10:-0.0459919603009 11:0.209789221198 12:-0.234541424663 13:-0.430534879873 
-0.0 1.0 1.0 0.0 1.0 0.0 1.0 1.0 0.0 1.0 1.0 0.0 1:0.283167468133 2:-0.4025931146 3:0.323436081513 4:-0.100376133455 5:-0.212544554114 6:-0.146952361675 7:-0.154798118514 8:0.255760118461 9:-0.477924466619 10:0.393964366832 11:-0.177579235386 12:-0.276537798444 13:-0.200783784704 
-0.0 1.0 1.0 1.0 1.0 1.0 1.0 0.0 1.0 1.0 1.0 1.0 1:-0.080578409293 2:-0.00797520591264 3:0.0351342644932 4:0.344251180875 5:0.129028303622 6:0.36854757964 7:0.374754219417 8:-0.0324565116168 9:-0.189192219071 10:-0.0437027480115 11:0.330154915051 12:0.033846810168 13:-0.118368127159 
-0.0 0.0 1.0 0.0 1.0 0.0 1.0 1.0 0.0 1.0 0.0 0.0 1:-0.099891248375 2:-0.138773467199 3:0.356783007563 4:-0.0993510121532 5:-0.0819502239459 6:0.131109835031 7:-0.0699754927817 8:-0.0537652377376 9:-0.413461701726 10:0.504576916877 11:0.471125424183 12:-0.504800109754 13:-0.506443716972 
-1.0 1.0 1.0 1.0 1.0 1.0 1.0 1.0 1.0 1.0 1.0 1.0 1:0.112095151001 2:0.0894362556271 3:-0.183621464487 4:-0.117205752261 5:-0.165180870709 6:-0.0753285501099 7:-0.14156406868 8:-0.0205223316456 9:0.0302672436651 10:0.00874197125776 11:0.00867300371338 12:0.339191101472 13:0.0206637905944 
-1.0 1.0 1.0 1.0 1.0 1.0 1.0 1.0 1.0 1.0 1.0 1.0 1:0.0363966375338 2:-0.0340103904645 3:-0.128531093331 4:0.258760916961 5:-0.010950792143 6:0.426787069473 7:0.245501693171 8:-0.0466636754258 9:-0.247313924659 10:-0.00184468966948 11:0.209176221525 12:0.200880989925 13:0.416781511794 
-1.0 1.0 1.0 0.0 1.0 0.0 1.0 1.0 1.0 1.0 1.0 1.0 1:-0.325256268151 2:-0.175005734909 3:0.29389583313 4:-0.192223378248 5:-0.244139499395 6:-0.203400335944 7:-0.294000689407 8:0.285310887558 9:-0.455007673887 10:0.318013931147 11:0.17928448671 12:0.0879095847184 13:0.193645154187 
-1.0 1.0 1.0 1.0 1.0 1.0 1.0 1.0 1.0 1.0 1.0 1.0 1:-0.434186372261 2:-0.190820539795 3:0.142556383549 4:-0.164000504022 5:-0.166350763836 6:-0.17486356208 7:-0.212529559291 8:0.588772143775 9:-0.468325609844 10:0.0328821463165 11:-0.0262621426829 12:0.174606440439 13:0.180701222328 
-1.0 1.0 1.0 1.0 1.0 1.0 1.0 1.0 1.0 1.0 1.0 1.0 1:0.201051481548 2:-0.00233419032243 3:-0.0226735718899 4:0.089700458335 5:0.122683913487 6:0.099468996616 7:0.00111908158117 8:0.100726213705 9:-0.177268321166 10:-0.075853625125 11:-0.433912672311 12:-0.455204926674 13:0.461187473716 
-0.0 1.0 1.0 1.0 1.0 1.0 1.0 1.0 1.0 1.0 0.0 1.0 1:-0.0800631629919 2:-0.0793481510914 3:-0.377014213466 4:0.279636927247 5:0.233994821461 6:0.418173022814 7:0.426954539329 8:-0.0586445650382 9:-0.320724252581 10:0.437416535582 11:0.300927036376 12:0.0753921074351 13:0.235529141749 
-0.0 0.0 1.0 0.0 1.0 0.0 1.0 1.0 0.0 1.0 0.834642396959613 0.0 1:-0.183883444111 2:-0.133451945244 3:0.378915715487 4:-0.191210247238 5:-0.242041969062 6:-0.202160146908 7:-0.29030212564 8:0.0264436767164 9:-0.411415787437 10:0.554285533055 11:-0.117308619739 12:-0.174974689883 13:-0.0077897302766 
-0.0 1.0 1.0 1.0 1.0 1.0 1.0 1.0 0.0 1.0 1.0 0.0 1:0.238529402031 2:-0.272417194762 3:0.277576089694 4:0.281818810028 5:0.0976700858002 6:0.340227611603 7:0.292664538165 8:0.163458588224 9:-0.503466521016 10:0.357315425604 11:-0.302051058529 12:-0.0900848542795 13:0.0136858149065 
-0.06695606960013871 1.0 1.0 1.0 1.0 1.0 1.0 1.0 1.0 1.0 1.0 1.0 1:0.238486761272 2:-0.256629015663 3:-0.279492482693 4:-0.00198317194904 5:0.206354444862 6:0.117218914683 7:-0.0624193788821 8:0.161355562107 9:-0.504826361909 10:0.153998626839 11:0.474543075679 12:0.490543309398 13:0.479559267801 
-1.0 1.0 1.0 0.0 1.0 0.0 1.0 1.0 1.0 1.0 1.0 1.0 1:-0.264077043101 2:-0.0996491438981 3:0.304155574858 4:-0.192312175102 5:-0.24221050374 6:-0.202478314359 7:-0.291408405663 8:0.154572133545 9:-0.366982094595 10:0.343622788037 11:0.115196956342 12:-0.146755211207 13:-0.0698724508171 
-1.0 0.0 1.0 0.0 1.0 0.0 1.0 1.0 0.0 1.0 1.0 0.0 1:0.201708855545 2:-0.151380048054 3:0.357202236502 4:-0.188515200025 5:-0.238828543171 6:-0.197541788407 7:-0.286074905693 8:0.0954356375672 9:-0.431713930408 10:0.488739837783 11:0.083861129509 12:0.141127470699 13:0.0823258175735 
-0.0 0.0 1.0 0.0 1.0 0.0 1.0 1.0 0.0 0.0 0.0 0.0 1:-0.101291295333 2:-0.113487091186 3:0.416825457738 4:-0.06319346852 5:-0.0857524370806 6:0.0407787723718 7:0.0078360003159 8:-0.0531794923611 9:-0.38544103495 10:0.6818424178 11:0.0851828311448 12:-0.120694906989 13:-0.36886825542 
-0.0 0.0 1.0 0.0 1.0 0.0 1.0 1.0 0.0 0.0 0.0 0.0 1:-0.122064590343 2:-0.167963624508 3:0.41108359913 4:-0.145268054194 5:-0.231173722943 6:-0.194664806006 7:-0.257077629613 8:-0.0385241920957 9:-0.448441544231 10:0.657955088205 11:0.162556890512 12:0.145670919141 13:0.218822873114 
-0.0 0.0 1.0 0.0 1.0 0.0 1.0 1.0 0.0 1.0 1.0 0.0 1:-0.207101488279 2:-0.141093105327 3:0.367259832309 4:-0.171380761536 5:-0.233039655206 6:-0.195906613622 7:-0.261276208682 8:0.0585006289129 9:-0.420337509599 10:0.518657843024 11:0.21962620229 12:0.0736352078228 13:0.148825726448 
-1.0 1.0 0.0 1.0 1.0 1.0 1.0 1.0 1.0 1.0 1.0 1.0 1:-0.029043151231 2:0.0760975070505 3:-0.0561814573029 4:0.0896235378835 5:-0.028706822298 6:0.114211193492 7:-0.0482151788595 8:-0.0704514413774 9:0.00165270121594 10:-0.0571956761278 11:0.461334747865 12:-0.496193286663 13:-0.503215182133 
-1.0 0.0 1.0 0.0 1.0 0.0 1.0 1.0 0.3694170250477398 1.0 1.0 0.0 1:-0.250261335754 2:-0.159996320362 3:-0.430809480293 4:-0.193707506868 5:-0.243302465607 6:-0.203050032132 7:-0.294012080484 8:0.128998695789 9:-0.440666282592 10:0.525815270846 11:0.115429618438 12:0.0147264411434 13:-0.0275148658689 
-1.0 1.0 1.0 1.0 1.0 1.0 1.0 0.0 1.0 1.0 1.0 1.0 1:-0.425281498487 2:-0.202694952925 3:0.148844726691 4:0.0256002822175 5:-0.117972105797 6:-0.125331934459 7:0.021619011971 8:0.560682190667 9:-0.47549068281 10:0.0415752636175 11:3.9573384927E-4 12:0.186484964221 13:-0.222522598483 
-1.0 1.0 1.0 0.0 1.0 0.0 1.0 1.0 0.6996956970456946 1.0 1.0 0.0 1:0.304530637426 2:-0.343473977642 3:0.31292182024 4:-0.192525580797 5:-0.242151109247 6:-0.203356857765 7:-0.292825333601 8:0.305385827722 9:-0.507071112029 10:0.36613318888 11:-0.0204900516932 12:-0.0345380779584 13:-0.179311519414 
-1.0 1.0 1.0 1.0 1.0 1.0 1.0 1.0 1.0 1.0 0.0 1.0 1:0.058459824051 2:0.0679837649322 3:-0.270112381165 4:-0.112816706659 5:-0.14217269044 6:-0.0551120061516 7:-0.131909876686 8:-0.0625071194024 9:-0.0270226307912 10:0.138116239053 11:-0.11384422907 12:-0.00831682868847 13:-0.172796236075 
-0.0 1.0 1.0 1.0 1.0 1.0 1.0 1.0 1.0 1.0 1.0 1.0 1:0.218427701827 2:-0.115627013915 3:0.158090088286 4:0.269950685418 5:0.319611570094 6:0.337046040547 7:0.401705704307 8:0.130529338916 9:-0.384147683296 10:0.0576716436529 11:-0.258387508166 12:-0.195158436192 13:0.36749430432 
-0.0 0.0 1.0 0.05526997016466555 1.0 1.0 1.0 1.0 0.0 0.0 0.0 0.0 1:-0.20953913978 2:-0.144747282709 3:0.383092986016 4:-0.0588413503172 5:-0.0973222293475 6:-0.0310933616209 7:0.0452739799212 8:0.0626235031773 9:-0.424236289588 10:0.567921864156 11:-0.0613477148213 12:0.180745390272 13:-0.337734507009 
-0.0 0.0 1.0 0.0 1.0 0.0 1.0 1.0 0.0 0.0 0.0 0.0 1:-0.19646610556 2:-0.165574098689 3:0.381386143418 4:-0.152942951821 5:-0.225941449926 6:-0.194215557266 7:-0.254195627808 8:0.0436553132229 9:-0.446171846534 10:0.561973878627 11:0.186515768875 12:0.154612659896 13:0.0715732745416 
-1.0 1.0 1.0 1.0 1.0 1.0 1.0 1.0 1.0 1.0 1.0 1.0 1:0.100891216643 2:-0.048430742375 3:0.0152473813498 4:0.168876162128 5:0.200087016862 6:0.231723505305 7:0.0499312688056 8:-0.0205331014132 9:-0.270359279819 10:-0.0540132472145 11:-0.498164984394 12:-0.479022370324 13:0.482339919988 
-0.0 0.0 1.0 0.0 1.0 0.0 1.0 1.0 0.0 0.0 1.0 0.0 1:-0.226563576021 2:-0.244401832642 3:0.385046867984 4:-0.169851172144 5:-0.213758980176 6:-0.192723109859 7:-0.262242950254 8:0.0885634640282 9:-0.50066062161 10:0.573441969159 11:-0.0444941831351 12:0.17459009644 13:-0.198029675136 
-0.0 0.0 1.0 0.0 1.0 0.0 1.0 1.0 0.0 0.0 0.0 0.0 1:-0.186711967237 2:-0.168329707518 3:0.385952686457 4:-0.172994679138 5:-0.235188442139 6:-0.193564237069 7:-0.273560722835 8:0.0301788883149 9:-0.448821194212 10:0.576302982071 11:-0.144818745142 12:0.320207119884 13:-0.05823844836 
-1.0 0.0 1.0 0.0 1.0 0.0 1.0 1.0 1.0 1.0 1.0 0.0 1:0.148855283602 2:-0.511955533086 3:0.345299295312 4:-0.17732214181 5:-0.239567662737 6:-0.197873186301 7:-0.277638262885 8:0.0189044086093 9:-0.359124519898 10:0.454324698962 11:0.223537169132 12:-0.286622971704 13:-0.269683457851 
-0.0 1.0 1.0 1.0 1.0 1.0 1.0 0.024621671945653123 1.0 1.0 1.0 1.0 1:-0.193317775522 2:-0.276320974345 3:-0.234512127329 4:0.182771326704 5:0.255348337551 6:0.165025319153 7:0.00975408378532 8:0.0524141554541 9:-0.482920323296 10:0.0915983937199 11:0.475053189956 12:0.490501740025 13:0.486631386261 
-1.0 1.0 1.0 1.0 1.0 1.0 1.0 1.0 1.0 1.0 1.0 1.0 1:-0.204347593347 2:-0.68682690411 3:-0.00925843964972 4:-0.152436226825 5:-0.213411500161 6:-0.133138504039 7:-0.229863289518 8:0.0546219539412 9:0.00615065527672 10:-0.0785326967541 11:0.140080090421 12:0.0698934667296 13:-0.361034803184 
-1.0 1.0 0.0 1.0 1.0 1.0 1.0 1.0 1.0 1.0 1.0 1.0 1:-0.0739654930948 2:0.0572774900134 3:0.0428487177725 4:-0.0952868903552 5:0.015092542819 6:0.169278429742 7:-0.0667161199382 8:-0.0675938425971 9:-0.0403013474321 10:-0.0420957757857 11:0.449445210872 12:-0.480777084017 13:-0.494222572901 
-0.0 0.0 1.0 0.7032595987714055 1.0 0.0 1.0 1.0 1.0 1.0 1.0 0.0 1:-0.189544043443 2:-0.132919461897 3:0.338157526595 4:-0.105755618259 5:-0.122935758956 6:0.0540660918905 7:-0.0838913819131 8:0.034603279731 9:-0.409061597732 10:0.441626937233 11:0.475963012015 12:-0.506412346975 13:-0.510160361853 
-0.0 0.0 1.0 0.0 1.0 0.0 1.0 1.0 0.0 0.0 0.9415566038004866 0.0 1:0.147931395423 2:-0.270260630978 3:0.42235395829 4:-0.0524233115234 5:-0.218346703328 6:-0.150946663583 7:-0.180625357503 8:0.0221116468136 9:-0.508894971403 10:0.696211285121 11:-0.186459302783 12:0.0994192744722 13:-0.0905917251945 
-0.0 1.0 1.0 1.0 1.0 1.0 1.0 1.0 1.0 1.0 1.0 1.0 1:0.205429290495 2:-0.474941171671 3:0.275966575927 4:0.320023553928 5:0.134327183147 6:0.320366467968 7:0.418343503911 8:0.114611335411 9:-0.399775144136 10:0.2947005965 11:0.0509215448216 12:0.131124654317 13:0.35400093665 
-1.0 1.0 1.0 1.0 1.0 1.0 1.0 1.0 1.0 1.0 1.0 1.0 1:-0.0489671802271 2:0.0278643571083 3:-0.0416808375265 4:0.00352545231415 5:0.218091359902 6:0.175457024613 7:0.256113081801 8:-0.0742606635957 9:-0.0917233081851 10:-0.0618876254062 11:-0.335572016763 12:-0.42144027799 13:0.401593274797 
-1.0 1.0 1.0 0.0 1.0 0.0 1.0 1.0 1.0 1.0 1.0 1.0 1:0.316981810801 2:-0.267907713613 3:0.299106175612 4:-0.190840002389 5:-0.241067023625 6:-0.203075136189 7:-0.291041080348 8:0.336284777724 9:-0.508453052872 10:0.33091959601 11:-0.213700309321 12:0.137792271534 13:-0.241095200103 
-0.0 1.0 0.38941865582260493 1.0 1.0 1.0 1.0 1.0 1.0 1.0 1.0 1.0 1:-0.0138913668471 2:-0.0191474054638 3:-0.0573605176574 4:0.306762082847 5:0.208237036679 6:0.526418922388 7:0.337845954234 8:-0.0259436572189 9:-0.205996318211 10:0.0648674350802 11:-0.14794968304 12:-0.322214101888 13:0.411209716548 
-0.0 0.0 1.0 0.0 1.0 0.0 1.0 1.0 0.0 0.0 1.0 0.0 1:-0.280586222434 2:-0.272696749513 3:0.359837352955 4:-0.18986441478 5:-0.241830266702 6:-0.202566300771 7:-0.289846291548 8:0.187037811357 9:-0.509558470549 10:0.496503221398 11:0.121292294796 12:-0.170476001309 13:-0.241925840494 
-0.0 0.0 1.0 0.0 1.0 0.0 1.0 1.0 0.0 0.0 0.0 0.0 1:-0.121211770602 2:-0.164039876124 3:0.409807215937 4:-0.101765910343 5:-0.171251897333 6:-0.157746457081 7:-0.148789967932 8:-0.0393930966251 9:-0.444685364968 10:0.653716430199 11:-0.278252294931 12:-0.0845150562599 13:-0.0591218210667 
-0.0 1.0 1.0 1.0 1.0 1.0 1.0 1.0 1.0 1.0 1.0 1.0 1:-0.0623493611366 2:-0.0792749350038 3:0.133067723741 4:0.263903344036 5:0.147399518787 6:0.361824170933 7:0.27131311662 8:-0.0595950323637 9:-0.28730962744 10:0.104147634823 11:-0.0224303064395 12:-0.316487959233 13:0.0617217885947 
-1.0 1.0 1.0 1.0 1.0 1.0 1.0 1.0 1.0 1.0 1.0 1.0 1:0.101239448647 2:-0.0255971280295 3:0.0902583307186 4:0.115569673576 5:0.101251757018 6:0.224824699401 7:-0.0693344770546 8:-0.028551813042 9:-0.237127243421 10:-0.01826841761 11:-0.522108047539 12:-0.506300367736 13:0.488020503145 
-1.0 0.0 1.0 0.0 1.0 0.0 1.0 1.0 1.0 1.0 0.0 1.0 1:-0.178087814044 2:-0.0875750403792 3:-0.427931069796 4:-0.189255865396 5:-0.242351228456 6:-0.201913332525 7:-0.290529606047 8:0.0190845424142 9:-0.349158618509 10:0.517124418442 11:0.0101505226633 12:-0.258540979078 13:-0.0400499937775 
-0.0 0.0 1.0 0.0 1.0 0.0 1.0 1.0 0.0 0.4666752763473409 1.0 0.0 1:-0.283382770514 2:-0.2734888205 3:0.358583427214 4:-0.191669883109 5:-0.243954041904 6:-0.203536547671 7:-0.292862447594 8:0.192743065536 9:-0.50972818678 10:0.49280200109 11:0.0936180124322 12:0.0408963209535 13:0.151372924596 
-0.0 1.0 1.0 1.0 1.0 1.0 1.0 0.0 1.0 1.0 1.0 1.0 1:-0.125546941809 2:-0.185991563792 3:0.157674609557 4:0.313967687832 5:0.22612620904 6:0.418421831819 7:0.496699310111 8:-0.0189765019831 9:-0.420343962027 10:0.054380938027 11:0.268546099246 12:-0.302403402282 13:-0.3001290034 
-0.0 1.0 1.0 0.7678908246309468 1.0 1.0 1.0 1.0 1.0 1.0 1.0 1.0 1:0.289773275984 2:-0.221608150525 3:0.24398211074 4:-0.0272456409649 5:0.016365764764 6:0.0429364572796 7:-0.0785382239208 8:0.274133284269 9:-0.478162855818 10:0.214587942453 11:-0.519462282326 12:-0.505780766022 13:0.485618536491 
-1.0 1.0 1.0 1.0 1.0 1.0 1.0 1.0 1.0 1.0 1.0 1.0 1:0.0764152577724 2:0.129485777922 3:-0.0824764614499 4:-0.131126816107 5:-0.182954380156 6:-0.14067732112 7:-0.208198893614 8:-0.0511815852346 9:0.146679042379 10:-0.0703106882536 11:0.0168961701665 12:-0.110476551913 13:0.276522700162 
-0.0 1.0 1.0 0.0 1.0 0.0 1.0 1.0 0.0 1.0 1.0 0.2589108698296811 1:-0.331634668094 2:-0.262945619747 3:0.314894412107 4:-0.191433399282 5:-0.242116873385 6:-0.203200585456 7:-0.292309886986 8:0.300583125472 9:-0.507135640795 10:0.371279232439 11:-0.0864168228267 12:0.146324177436 13:-0.0186702809922 
-0.0 0.0 1.0 0.0 1.0 0.0 1.0 1.0 0.0 1.0 1.0 0.0 1:-0.242934188534 2:-0.1926742537 3:0.363018950576 4:-0.192116368526 5:-0.243456576566 6:-0.2035005724 7:-0.292952427161 8:0.116028382641 9:-0.469855759296 10:0.505947789682 11:0.0772651039529 12:-0.18194503807 13:0.086402738034 
-0.0 1.0 1.0 1.0 1.0 1.0 1.0 1.0 1.0 1.0 1.0 0.47051870311203464 1:0.312309067195 2:-0.242291861365 3:-0.393790613046 4:0.102435923089 5:-0.0367959795892 6:0.124060111164 7:0.229739463291 8:0.330908244905 9:-0.496926784007 10:0.423652417524 11:0.00269027528723 12:-0.0409230526509 13:0.151672474141 
-0.0 0.0 1.0 0.0 1.0 0.0 1.0 1.0 0.0 1.0 0.0 0.0 1:0.122744751633 2:-0.220489932677 3:0.41013285215 4:-0.15662186363 5:-0.145674202453 6:-0.03680588407 7:-0.0672181136721 8:-0.0108824904117 9:-0.488369620357 10:0.655833202845 11:-0.382942874445 12:-0.502822988438 13:0.324156121529 
-0.0 0.0 1.0 0.0 1.0 0.0 1.0 1.0 0.0 0.0 1.0 0.0 1:-0.190467931603 2:-0.4593526762 3:-0.451373887683 4:-0.189576519334 5:-0.240726793414 6:-0.202756823596 7:-0.291343733502 8:0.0351154075957 9:-0.426794010887 10:0.589739335545 11:0.0435783410625 12:-0.15882919556 13:-0.31496871529 
-1.0 0.0 1.0 0.0 1.0 0.0 1.0 1.0 0.0 1.0 1.0 0.0 1:0.187228671863 2:-0.182783345473 3:-0.45997543395 4:-0.164028965915 5:-0.234828130693 6:-0.189679515564 7:-0.269740988054 8:0.0725331313921 9:-0.461793844912 10:0.617444005365 11:-0.34747592192 12:-0.263306311857 13:0.244431696268 
-1.0 0.0 1.0 0.0 1.0 0.0 1.0 1.0 1.0 1.0 1.0 1.0 1:0.122606168263 2:-0.0734708509563 3:0.34968991096 4:-0.17423117838 5:-0.235835418129 6:-0.19742846631 7:-0.2794388636 8:-0.011092527251 9:-0.327033769715 10:0.466905150045 11:-0.145771810597 12:-0.274773587665 13:-0.199727248852 
-0.0 1.0 1.0 1.0 1.0 1.0 1.0 1.0 1.0 1.0 1.0 1.0 1:-0.106063539119 2:-0.0735706898003 3:0.20110909215 4:0.20937660293 5:0.206324480755 6:0.491169916469 7:0.357411463009 8:-0.0427569329384 9:-0.322857214318 10:0.182880253901 11:0.297671896634 12:-0.203736833324 13:-0.33713493756 
-0.5752012016910593 0.0 1.0 0.0 1.0 0.0 1.0 1.0 0.0 1.0 1.0 0.0 1:0.255841670824 2:-0.215454621956 3:0.3511384813 4:-0.192977259537 5:-0.242247477217 6:-0.204243770239 7:-0.293159840263 8:0.195914869848 9:-0.485753289503 10:0.471071665989 11:0.0595955819692 12:0.138940493347 13:-0.0112355915181 
-1.0 1.0 0.0 1.0 1.0 1.0 1.0 1.0 1.0 1.0 1.0 1.0 1:-0.0242389282489 2:0.0949840776341 3:-0.0672833767897 4:0.0365000931495 5:-0.0552088099671 6:4.69665162637E-4 7:-0.0100208465003 8:-0.0767762671048 9:0.0493561458948 10:-0.0701554410639 11:-0.479549366398 12:-0.465053233246 13:0.461545905135 
-0.0 1.0 1.0 1.0 1.0 1.0 1.0 1.0 0.5200508985316153 0.9587005796121825 1.0 1.0 1:-0.211461540469 2:-0.283130127838 3:0.327190355382 4:-0.0677415164811 5:0.0322864669478 6:0.121911851575 7:-0.031740889357 8:0.0665085483511 9:-0.498639208764 10:0.420461383334 11:-0.514312072778 12:0.492739100144 13:-0.503920454795 
-0.0 0.0 1.0 0.0 1.0 0.0 1.0 1.0 0.0 0.0 1.0 0.0 1:0.181219837022 2:-0.169537782836 3:0.381498427047 4:-0.174255129879 5:-0.239245552168 6:-0.197957225734 7:-0.274827859743 8:0.0632565240661 9:-0.449965268247 10:0.562323744405 11:-0.167120210464 12:0.0507343567711 13:-0.393726194005 
-0.0 1.0 1.0 1.0 1.0 1.0 1.0 1.0 1.0 1.0 1.0 1.0 1:0.246716477742 2:-0.200811286915 3:0.264524028409 4:0.0285474289825 5:0.0578139516426 6:0.0342751197564 7:-0.0861182217519 8:0.183594306221 9:-0.461919800343 10:0.257231653078 11:-0.521624837032 12:-0.505861319605 13:0.488137785205 
-0.0 0.0 1.0 0.0 1.0 0.0 1.0 1.0 0.0 0.0 0.0 0.0 1:-0.181744284715 2:-0.158615186911 3:0.384889649085 4:-0.182604064774 5:-0.241462973246 6:-0.20019675748 7:-0.284664331065 8:0.023699347651 9:-0.439265623804 10:0.572945764847 11:0.0342580515583 12:0.236294348987 13:-0.0594368394891 
-1.0 0.0 1.0 0.0 1.0 0.0 1.0 1.0 0.8523555433466113 1.0 1.0 1.0 1:-0.281471025332 2:-0.153563236118 3:0.319711728624 4:-0.176342995671 5:-0.238997353863 6:-0.197268375152 7:-0.278113726659 8:0.188846969834 9:-0.434033389112 10:0.383970280153 11:-0.150406101901 12:-0.0760495494496 13:0.223992032251 
-1.0 1.0 1.0 0.0 1.0 0.0 1.0 1.0 1.0 1.0 0.5275648105972662 1.0 1:-0.163920330056 2:-0.0358241704166 3:0.317959974676 4:-0.188148551849 5:-0.240106340855 6:-0.201756649445 7:-0.289291397124 8:0.00217448045644 9:-0.261128040054 10:0.37933472233 11:0.195882824739 12:-0.0859293044062 13:0.050182746762 
-1.0 0.5316494025770723 1.0 0.0 1.0 0.0 1.0 1.0 0.0 1.0 1.0 0.0 1:0.304839783591 2:-0.319289178723 3:0.315272460561 4:-0.191203358345 5:-0.241505483273 6:-0.203287913146 7:-0.291660218048 8:0.306138702332 9:-0.51189337858 10:0.372268625824 11:0.0449391932721 12:-0.0420790402782 13:-0.22507038367 
-1.0 1.0 0.0 1.0 1.0 1.0 1.0 1.0 1.0 1.0 1.0 1.0 1:-0.0603878735001 2:0.0371129538839 3:-0.0205475121174 4:0.201666148206 5:0.147585406883 6:0.203398674459 7:0.34671360589 8:-0.0622014669147 9:-0.0913436850436 10:-0.0533260730529 11:0.242701509476 12:-0.383588713262 13:-0.310470738718 
-0.0 1.0 1.0 1.0 1.0 1.0 1.0 1.0 0.0 1.0 1.0 1.0 1:-0.226279303397 2:-0.10530346361 3:-0.437655549823 4:0.127814180367 5:0.100182762546 6:0.229151955977 7:0.294636035613 8:0.0922710155696 9:-0.372016817939 10:0.560444328171 11:-0.00945971962588 12:-0.13125619779 13:0.36233654798 
-1.0 1.0 1.0 1.0 1.0 1.0 1.0 1.0 1.0 1.0 1.0 1.0 1:-0.0670718565146 2:0.0989510944589 3:0.0786136673676 4:0.027434539479 5:-0.0386455869686 6:-0.00469384996561 7:-0.0139021728038 8:-0.0602764898583 9:0.056917748549 10:-0.0261048710968 11:0.227244659776 12:-0.0444904522601 13:-0.418024700643 
-1.0 0.0 1.0 0.0 1.0 0.0 1.0 1.0 0.0 1.0 1.0 0.0 1:0.203073366105 2:-0.168625904053 3:-0.445950157871 4:-0.19257785033 5:-0.243566828672 6:-0.20364329441 7:-0.294005234399 8:0.0976936874484 9:-0.449105788784 10:0.572568961024 11:0.128108583246 12:0.144672807844 13:0.125309947693 
-1.0 1.0 1.0 1.0 1.0 1.0 1.0 1.0 1.0 1.0 1.0 1.0 1:-0.0519769279708 2:0.0236976611497 3:-0.139370992946 4:0.185057225004 5:0.14800164128 6:0.329206070546 7:0.258022360207 8:-0.0644159435298 9:-0.123170497886 10:-0.00314542869342 11:0.154356772772 12:0.308307710907 13:0.44847849986 
-1.0 1.0 1.0 0.0 1.0 0.0 1.0 1.0 1.0 1.0 1.0 1.0 1:0.323054612988 2:-0.35859654973 3:0.28682145225 4:-0.166742443146 5:-0.221473715687 6:-0.188957403295 7:-0.249796412882 8:0.351856693201 9:-0.50190304093 10:0.300846546752 11:-0.0148662428202 12:-0.0122883262493 13:-0.341214755426 
-1.0 1.0 1.0 1.0 1.0 0.0 1.0 1.0 1.0 1.0 1.0 1.0 1:0.18126957593 2:-0.588150790532 3:-0.347226931557 4:-0.19311944661 5:-0.244457439742 6:-0.204567938765 7:-0.294344316256 8:0.0633095821407 9:-0.226531473708 10:0.298960235706 11:-0.0602900086991 12:-0.0283469984306 13:0.0559016436228 
-0.0 0.0 1.0 0.0 1.0 0.0 1.0 1.0 0.0879281965772202 1.0 1.0 0.0 1:-0.203946056129 2:-0.116655376994 3:0.358059396346 4:-0.146883678395 5:-0.193895660975 6:-0.165121473497 7:-0.215328956064 8:0.054098460994 9:-0.389749777561 10:0.491360232769 11:0.167437021819 12:-0.245551790525 13:-0.0728700654827 
-0.0 1.0 1.0 0.0 1.0 0.0 1.0 1.0 0.0 1.0 1.0 0.0 1:-0.339032886974 2:-0.2671356105 3:0.309766421684 4:-0.192663174799 5:-0.243581285453 6:-0.203952551258 7:-0.294057879478 8:0.318688303039 9:-0.508259825351 10:0.357963708669 11:0.086791557072 12:0.0490336308972 13:0.0720142678707 
-1.0 0.0 1.0 0.0 1.0 0.0 1.0 1.0 0.0 1.0 1.0 0.0 1:0.255909186728 2:-0.215261596522 3:0.350936356524 4:-0.19347184875 5:-0.24294126333 6:-0.204207175536 7:-0.293302220712 8:0.196054773065 9:-0.485633920167 10:0.470487548877 11:-0.0684074042302 12:0.108682911804 13:-0.150524231567 
-0.0 0.0 1.0 0.0 1.0 0.0 1.0 1.0 0.0 0.5226971102032479 1.0 0.0 1:-0.195254390446 2:-0.164499143565 3:0.376445293068 4:-0.167499154591 5:-0.199701387567 6:-0.107306844806 7:-0.0806425752074 8:0.0416306679229 9:-0.445124155436 10:0.546795847351 11:0.455924995457 12:-0.500931024058 13:-0.492245349295 
-0.9148143882821694 1.0 0.8072380820373812 1.0 1.0 1.0 1.0 1.0 1.0 1.0 1.0 1.0 1:-0.0267050022965 2:-0.00727631938426 3:-0.185519196233 4:0.116154727243 5:0.0480340412122 6:0.401884313069 7:0.418193430587 8:-0.0808880582346 9:-0.195671199829 10:0.0554577910269 11:0.0763177674522 12:-0.158315644225 13:-0.27362442595 
-0.0 0.0 1.0 0.0 1.0 0.0 1.0 1.0 0.0 0.0 1.0 0.0 1:-0.262737402533 2:-0.259963703923 3:0.371332280429 4:-0.187961435601 5:-0.234693938236 6:-0.198201071228 7:-0.278156473521 8:0.152027880618 9:-0.506258409007 10:0.530987466061 11:0.365556380117 12:-0.370992199499 13:-0.322649004906 
-0.0 1.0 0.0 1.0 1.0 1.0 1.0 1.0 1.0 1.0 1.0 1.0 1:-0.0206855080672 2:-0.0457949477608 3:0.0482387247743 4:0.216460195657 5:0.111273518126 6:0.643860087365 7:0.411602764736 8:-0.0819606423376 9:-0.278343002162 10:-0.0455054128819 11:-0.0881453411823 12:-0.154846678488 13:-0.349145045606 
-1.0 1.0 1.0 0.0 1.0 0.0 1.0 1.0 1.0 1.0 1.0 1.0 1:-0.359678261077 2:-0.17182746791 3:0.249312232205 4:-0.191331686161 5:-0.240425772121 6:-0.200386600948 7:-0.289224076222 8:0.371420222041 9:-0.452103547177 10:0.215994213327 11:-0.171156396411 12:-0.0256892755027 13:0.14925332421 
-1.0 1.0 1.0 1.0 1.0 1.0 1.0 1.0 1.0 1.0 1.0 1.0 1:0.173828716111 2:-0.606288558256 3:-0.315130180439 4:-0.149851540709 5:-0.154186293651 6:-0.0364584989522 7:-0.17416877247 8:0.0526198965795 9:-0.187455201198 10:0.230486632034 11:0.403496892921 12:-0.499160154711 13:-0.462312221094 
-1.0 0.0 1.0 0.0 1.0 0.0 1.0 1.0 1.0 1.0 1.0 0.0 1:0.146748106414 2:-0.500393950027 3:-0.444359358728 4:-0.186962410253 5:-0.232377201808 6:-0.197991854823 7:-0.281297055906 8:0.0162921940959 9:-0.37566674171 10:0.567574598597 11:-0.115908104914 12:-0.183844476228 13:0.0235793663177 
-0.0 0.0 1.0 0.0 1.0 0.0 1.0 1.0 0.0 1.0 0.0 0.0 1:-0.17143581306 2:-0.117114641668 3:0.371646696535 4:-0.189869143636 5:-0.241737919041 6:-0.201646846776 7:-0.291090253347 8:0.0109566326843 9:-0.390946125191 10:0.531944887759 11:-0.182466060387 12:-0.207283803671 13:0.120139165448 
-0.0 0.0 1.0 0.0 1.0 0.0 1.0 1.0 0.0 0.0 1.0 0.0 1:-0.284789927467 2:-0.274054585827 3:0.357812357524 4:-0.190807670342 5:-0.243027281165 6:-0.203400993301 7:-0.292233359619 8:0.195636979919 9:-0.509844970332 10:0.490531810509 11:0.0925739161297 12:0.036942832906 13:0.0826428801843 
-1.0 1.0 1.0 1.0 1.0 1.0 1.0 1.0 1.0 1.0 1.0 1.0 1:0.141716464058 2:-0.0340503250215 3:0.16576710883 4:0.0644912736205 5:0.106243285739 6:0.0730238734868 7:-0.0797029808459 8:0.0134153385111 9:-0.249789260719 10:0.0682327647424 11:-0.511831823921 12:-0.492973197277 13:0.484071079111 
-1.0 1.0 1.0 1.0 1.0 1.0 1.0 1.0 1.0 1.0 1.0 1.0 1:-0.00132292031363 2:-0.599213168649 3:0.0134432238559 4:0.0144940676562 5:0.253287482024 6:0.185034360166 7:0.0707802389157 8:-0.0739421568648 9:-0.182468255998 10:-0.059898788773 11:-0.462400816619 12:0.427922128628 13:-0.428806394997 
-1.0 1.0 1.0 0.0 1.0 0.0 1.0 1.0 1.0 1.0 1.0 1.0 1:0.234904912488 2:-0.133199015753 3:-0.406363553527 4:-0.141310664539 5:-0.220947778698 6:-0.166989777654 7:-0.216363515394 8:0.154471032374 9:-0.411092583256 10:0.454002217411 11:-0.194753979796 12:-0.0354225458051 13:0.260129399986 
-0.0 0.0 1.0 1.0 1.0 1.0 1.0 1.0 0.0 1.0 0.0 0.0 1:-0.13956518597 2:-0.237286502932 3:0.371845083943 4:0.0989458651473 5:-0.0389526650881 6:0.18506643674 7:0.27113405394 8:-0.0218427642889 9:-0.492933439995 10:0.541229473923 11:-2.62453260743E-4 12:-0.0758030111014 13:-0.332986145845 
-0.0 1.0 1.0 0.0 1.0 1.0 1.0 1.0 0.0 1.0 1.0 0.1424836289060992 1:-0.29165157747 2:-0.202678312192 3:-0.416993848367 4:-0.094411905592 5:-0.132693188045 6:-0.120273503725 7:-0.0750143024584 8:0.2102267212 9:-0.47715950254 10:0.484858551811 11:0.302367396027 12:0.250200114278 13:0.244964535906 
-0.0 0.0 1.0 0.0 1.0 0.0 1.0 1.0 0.0 1.0 1.0 0.0 1:-0.221961898765 2:-0.145083414674 3:0.357561572829 4:-0.192350903707 5:-0.243159692452 6:-0.204310987206 7:-0.293832846677 8:0.0811647260882 9:-0.424844683753 10:0.489794362577 11:0.0375199083289 12:-0.00525365463001 13:0.0982850129093 
-0.0 1.0 1.0 0.0 1.0 0.0 1.0 1.0 0.0 1.0 1.0 0.0 1:-0.332867706386 2:-0.264859237337 3:0.315586878035 4:-0.191497308386 5:-0.241020282853 6:-0.20402891794 7:-0.292397672243 8:0.303572483325 9:-0.507664253509 10:0.373093469151 11:0.186194602873 12:0.113031316128 13:0.0549425082226 
-0.0 0.0 1.0 0.0 1.0 0.0 1.0 1.0 0.0 0.8688305642552169 1.0 0.0 1:-0.254401070806 2:-0.233575749406 3:-0.449775583896 4:-0.143214644869 5:-0.207980634078 6:-0.144047129937 7:-0.218435727758 8:0.136776053497 9:-0.495667722657 10:0.585068891777 11:0.152335869688 12:0.304405833424 13:0.273918401103 
-0.0 0.0 1.0 0.0 1.0 0.0 1.0 1.0 0.0 0.0 0.0 0.0 1:-0.163444170247 2:-0.176313653161 3:0.401321709178 4:-0.186119368312 5:-0.24123754473 6:-0.201958570998 7:-0.288264220913 8:0.00163262878394 9:-0.4561823026 10:0.625665631596 11:0.0977630760941 12:0.0642712196664 13:0.124652200136 
-0.0 0.4351919865677246 1.0 0.0 1.0 0.0 1.0 1.0 0.0 1.0 1.0 0.0 1:-0.320626165147 2:-0.204162613811 3:0.314860723876 4:-0.185129321161 5:-0.242599870116 6:-0.20146533135 7:-0.28710597092 8:0.274417798521 9:-0.478330087529 10:0.371191011919 11:-0.0085935816088 12:-0.0454456283299 13:0.301225862684 
-0.0 0.0 1.0 0.0 1.0 0.0 1.0 1.0 0.0 1.0 0.0 0.0 1:-0.146338004508 2:-0.0964409183545 3:0.36681440919 4:-0.18883531717 5:-0.241631866097 6:-0.201971621086 7:-0.290847331986 8:-0.0166829646829 9:-0.362346050798 10:0.51731478747 11:0.0247669415985 12:-0.205353593965 13:0.0699111550944 
-0.0 1.0 1.0 1.0 1.0 1.0 1.0 1.0 1.0 1.0 0.0 1.0 1:-0.0368606766255 2:-0.0958485276835 3:0.202838385452 4:0.126557340051 5:0.0541159231425 6:0.602030853214 7:0.223612453713 8:-0.0641332385629 9:-0.351336280079 10:0.189515881062 11:0.159785672202 12:-0.357963581071 13:-0.415109883707 
-1.0 0.0 1.0 0.0 1.0 0.0 1.0 1.0 0.0 1.0 1.0 0.0 1:0.290117955511 2:-0.255940114221 3:0.327542223961 4:-0.19159301457 5:-0.243050949542 6:-0.20324997135 7:-0.292364833347 8:0.271096441514 9:-0.504981410819 10:0.404972816161 11:-0.0796340786219 12:0.0569470779323 13:-0.094251968686 
-1.0 1.0 1.0 1.0 1.0 1.0 1.0 1.0 1.0 1.0 1.0 1.0 1:0.124429073434 2:0.00584610215014 3:-0.154111168965 4:0.163491865382 5:0.0691303511542 6:0.095766976881 7:-0.0746303118008 8:7.75758086572E-4 9:-0.1689587676 10:-0.0156230486052 11:-0.519742631839 12:0.486438113776 13:-0.507332057409 
-0.0 0.0 1.0 0.0 1.0 0.0 1.0 1.0 0.0 0.0 1.0 0.0 1:-0.260136297111 2:-0.204485432279 3:0.364314048673 4:-0.193116385635 5:-0.242419207354 6:-0.204993228092 7:-0.294341877807 8:0.147128350017 9:-0.478554747355 10:0.509813991257 11:-0.00338945472161 12:-0.0895139953749 13:-0.0273057686539 
-0.0 0.0 1.0 0.0 1.0 0.0 1.0 1.0 0.0 1.0 1.0 0.0 1:-0.281630931362 2:-0.187066520164 3:0.339598614219 4:-0.187283454938 5:-0.241983719792 6:-0.200989196977 7:-0.289322264773 8:0.189166491415 9:-0.465380652112 10:0.4382226452 11:0.0778007800827 12:0.103293129106 13:0.218830584047 
-0.0 1.0 1.0 0.0 1.0 0.0 1.0 1.0 1.0 1.0 1.0 1.0 1:-0.302855511163 2:-0.167507683796 3:0.316597504846 4:-0.144111991603 5:-0.221916711597 6:-0.192182035352 7:-0.249296269429 8:0.234260977363 9:-0.447951835229 10:0.37574627681 11:0.204976613516 12:-0.0413566824906 13:0.0545394591419 
-0.0 1.0 1.0 0.0 1.0 0.8850185929158715 1.0 1.0 0.21121199175020425 0.6064061746191789 0.9927999669491587 0.46086835950000293 1:-0.17920714252 2:-0.477743375084 3:-0.452500530239 4:-0.137812575851 5:-0.131314387473 6:-0.139164146771 7:-0.0947982846864 8:0.0209262268901 9:-0.404853274667 10:0.593399581073 11:-0.321809517639 12:0.262527988451 13:-0.138779130122 
-0.09764824815686814 0.0 1.0 0.0 1.0 0.0 1.0 1.0 0.0 0.0 1.0 0.0 1:-0.253733025506 2:-0.189742259406 3:-0.437071617447 4:-0.180911127218 5:-0.241984010515 6:-0.200664032315 7:-0.280934704298 8:0.135324368875 9:-0.467544208971 10:0.544945838026 11:0.0310829881194 12:-0.0395781719164 13:-0.286043661514 
-1.0 1.0 1.0 0.8916825699688581 1.0 0.0 1.0 1.0 1.0 1.0 1.0 1.0 1:-0.163270054591 2:-0.0353981833493 3:0.317956232047 4:-0.185516044263 5:-0.240390677728 6:-0.201096178835 7:-0.287385552815 8:0.00143466400387 9:-0.260325244464 10:0.379325003575 11:0.0849303950901 12:-0.0910970332059 13:-0.188098346801 
-0.0 1.0 1.0 1.0 1.0 1.0 1.0 0.5442449537708082 1.0 1.0 1.0 1.0 1:-0.131523796413 2:-0.0351419190639 3:0.12135568587 4:0.179654253564 5:0.225811417335 6:0.519665871887 7:0.336699644882 8:-0.0248175880093 9:-0.25482956829 10:0.0377034233853 11:0.160536945414 12:-0.210661479615 13:-0.433766995361 
-0.0 1.0 1.0 0.0 1.0 0.0 1.0 1.0 0.0 1.0 1.0 1.0 1:-0.342692909244 2:-0.258356265045 3:0.304919156868 4:-0.109647860916 5:-0.202992449965 6:-0.151306659859 7:-0.176130758707 8:0.3286901154 9:-0.505670000522 10:0.345797666151 11:-0.121344913188 12:0.353277738748 13:-0.0254583997599 
-1.0 1.0 1.0 0.0 1.0 0.0 1.0 1.0 1.0 1.0 1.0 1.0 1:0.34564370294 2:-0.220203722277 3:-0.341267981371 4:-0.188293267803 5:-0.239170514511 6:-0.20079478529 7:-0.287023829938 8:0.41190722305 9:-0.488606357524 10:0.284807905688 11:-0.0768098874275 12:-0.0926954482698 13:0.326249212764 
-0.0 1.0 1.0 1.0 1.0 1.0 1.0 1.0 1.0 1.0 1.0 1.0 1:0.179169514309 2:-0.0730282210716 3:-0.302007007263 4:0.00631000506186 5:0.0536413142844 6:0.264894603906 7:0.351288327985 8:0.0605799177578 9:-0.32510552701 10:0.266292197253 11:0.262092156391 12:0.0671660775397 13:0.0927080541291 
-1.0 0.0 1.0 0.0 1.0 0.0 1.0 1.0 1.0 1.0 0.0 1.0 1:0.109991526574 2:-0.0695271302185 3:0.350730482671 4:-0.167722801729 5:-0.237121202361 6:-0.196337279468 7:-0.27794744665 8:-0.0237510814337 9:-0.320599840305 10:0.469895027901 11:-0.0918104415273 12:-0.169886535597 13:-0.344595416635 
-0.0 1.0 1.0 1.0 1.0 1.0 1.0 0.0 1.0 1.0 1.0 1.0 1:0.240167526299 2:-0.140340970643 3:-0.259560691294 4:0.439272923767 5:0.353989897445 6:0.393548370108 7:0.549782780549 8:0.214170341106 9:-0.393103836533 10:0.162428357254 11:0.0636131499661 12:0.140513316938 13:-0.323970842772 
-0.0 0.0 1.0 0.0 1.0 0.0 1.0 1.0 0.0 0.0 0.0 0.0 1:0.141044866361 2:-0.265548139562 3:0.420568509857 4:-0.181431699721 5:-0.238259396273 6:-0.195978287153 7:-0.283186918602 8:0.00939512104351 9:-0.507845144056 10:0.690016324793 11:-0.053127691485 12:0.0793788385527 13:-0.181613069438 
-0.0 1.0 1.0 1.0 1.0 1.0 1.0 0.0 1.0 1.0 1.0 1.0 1:-0.0675195872214 2:-0.131781276002 3:0.0279288756313 4:0.440015992966 5:0.33914137717 6:0.73168193751 7:0.703793286653 8:-0.0717737606931 9:-0.342087054317 10:-0.0364924983351 11:-0.0519397802846 12:-0.0647245837345 13:0.078250386885 
-0.0 0.0 1.0 0.0 1.0 0.0 1.0 1.0 0.0 1.0 1.0 0.0 1:-0.232039391173 2:-0.152082261332 3:0.360926583021 4:-0.192604184584 5:-0.243266354695 6:-0.204759278774 7:-0.293806475732 8:0.0974991007813 9:-0.432464862613 10:0.499727712732 11:0.142453075827 12:-0.110172575002 13:-0.0349140104656 
-0.0 -0.0 0.0 1.0 0.0 1.0 0.5706818078602641 0.0 0.0 0.0 0.0 0.0 1:-0.00102798554962 2:0.0984452321649 3:-9.37615466951E-4 4:0.131982628597 5:0.210508001473 6:0.280984659026 7:0.293058225185 8:-0.0786291092106 9:0.0693939589379 10:-0.0478531588054 11:0.217111134134 12:0.0377533682117 13:0.211262181372 
-0.0 -0.0 0.0 1.0 0.0 1.0 0.0 0.0 0.0 0.0 0.0 0.0 1:0.00778094304966 2:0.150771859869 3:-0.0669240419532 4:0.116266104393 5:0.145223329997 6:0.0850296718854 7:0.143409841171 8:-0.0798073204939 9:0.214603694196 10:-0.0711147296521 11:0.278231501954 12:-0.152796098313 13:-0.299425409393 
-0.0 -0.0 0.0 0.0 0.0 0.0 0.0 0.0 1.0 0.0 0.0 0.0 1:-0.0380333062437 2:0.132767209802 3:0.00413797704006 4:0.0148335963647 5:-0.0182567093873 6:0.0361430205661 7:0.0199072702693 8:-0.0773563261467 9:0.159052294231 10:-0.0722291019618 11:0.141186023877 12:-0.122110730533 13:-0.133287689229 
-0.0 -0.0 0.0 0.0 0.0 0.0 0.0 0.0 1.0 0.0 0.0 0.0 1:0.0626883938673 2:0.130793688564 3:0.0215132669713 4:-0.0361583207263 5:-0.0254322673843 6:0.0492043959143 7:0.0270107372015 8:-0.0582477368776 9:0.151145022518 10:-0.0566376079054 11:0.0779993000271 12:0.122954938633 13:-0.0666733622209 
-0.0 -0.0 0.0 1.0 0.0 0.0 0.0 0.0 0.0 0.0 0.0 0.0 1:0.0595258497378 2:0.141263674029 3:0.0254097944395 4:0.152083917001 5:0.119658416445 6:0.153988692903 7:0.17528672675 8:-0.0617623102531 9:0.195123841591 10:-0.0634439324329 11:0.145003888949 12:0.230901743563 13:0.295970205213 
-0.0 -0.0 0.0 1.0 0.0 0.0 0.0 0.0 0.0 0.0 0.0 0.0 1:-0.02202870068 2:0.138008860363 3:-0.0320012795266 4:0.0895616695559 5:0.112121962024 6:0.105919141241 7:0.227446321977 8:-0.0824316614257 9:0.17893053938 10:-0.0762458464037 11:0.218809552817 12:0.0591574525397 13:0.0794435842001 
-0.0 -0.0 0.0 0.0 0.0 0.0 0.0 0.0 1.0 0.0 0.0 0.0 1:0.0767848124433 2:0.138255134388 3:-0.0733546214536 4:0.0366223823159 5:-0.026375975429 6:0.0649012557333 7:0.0895549755224 8:-0.0501754764144 9:0.178348891196 10:-0.0707217447455 11:-0.204186353174 12:-0.24739756013 13:0.199050307486 
-0.0 -0.0 0.0 0.0 0.0 0.0 0.0 0.0 0.0 0.0 1.0 0.0 1:-0.407848424556 2:-0.0534594015573 3:-0.105735846126 4:0.128314213984 5:-0.0257034325082 6:0.109429354371 7:0.0744954946394 8:0.514517985953 9:-0.292203259742 10:-0.0454558597884 11:-0.294354885318 12:-0.0578169753029 13:0.192908852833 
-0.0 -0.0 0.0 0.0 0.0 0.0 0.0 0.0 0.0 0.0 0.0 1.0 1:0.0125638468879 2:0.115787596484 3:-0.00399943887856 4:0.0147223547291 5:0.041102396682 6:0.0715961412472 7:0.0945521739775 8:-0.0790447495232 9:0.116999210493 10:-0.0726461622071 11:0.154456544966 12:0.154969126377 13:0.195247927466 
-0.0 -0.0 0.0 1.0 0.0 1.0 0.0 0.0 0.0 0.0 0.0 0.0 1:-0.00643629218861 2:0.119940981928 3:0.0203229745044 4:0.0388020594912 5:0.151324076406 6:0.131283693847 7:0.0986557592703 8:-0.080255007727 9:0.121523201723 10:-0.0615910731439 11:0.138352311435 12:0.0527584166126 13:0.0032806496432 
-0.0 -0.0 0.0 1.0 0.0 0.0 0.0 0.0 0.0 0.0 0.0 0.0 1:0.131351136285 2:0.155500986704 3:-0.0354523826696 4:0.210849156822 5:0.0693038153355 6:0.0636041165047 7:0.212172089922 8:0.0017683931122 9:0.244701194035 10:-0.0775142533437 11:0.0894651647043 12:-0.0328929452629 13:0.199542824925 
-0.0 -0.0 0.0 1.0 0.0 1.0 0.0 0.0 0.0 0.0 0.0 0.0 1:-0.0418461261598 2:0.131359452775 3:-0.00170119897698 4:0.098844608637 5:0.192667399342 6:0.257197772643 7:0.220672904626 8:-0.0763322022098 9:0.166912734974 10:-0.0708987489154 11:0.263190610474 12:0.0432142312805 13:-0.00336849804518 
-0.0 -0.0 0.0 1.0 0.0 0.0 0.0 0.0 0.0 0.0 0.0 0.0 1:0.092235084379 2:0.128111294581 3:-0.0303206454558 4:0.307738529248 5:0.107378379225 6:0.120792631033 7:0.281852992323 8:-0.0375000183928 9:0.153743507547 10:-0.0789323134285 11:0.208092276605 12:-0.0667752894539 13:0.104925450013 
-0.0 -0.0 0.0 1.0 0.0 1.0 0.0 0.0 0.0 0.0 0.0 0.0 1:0.0158294403787 2:0.133888757499 3:-0.0388885120181 4:0.125712525939 5:0.161781896788 6:0.163656234929 7:0.333443161339 8:-0.0725485621257 9:0.172947542653 10:-0.0646961651104 11:0.100635130064 12:0.0209659560118 13:0.195575809285 
-0.0 -0.0 0.0 1.0 0.0 1.0 0.0 0.0 0.0 0.0 0.0 0.0 1:-0.0440137124774 2:0.125794984919 3:-0.0101305726082 4:0.115501078712 5:0.182931754914 6:0.22969565531 7:0.252278560095 8:-0.0767797387893 9:0.150335890598 10:-0.0730323238701 11:0.284204828636 12:0.0403592559662 13:0.103400105862 
-0.0 -0.0 0.0 0.0 0.0 0.0 0.0 0.0 0.0 0.0 0.0 1.0 1:-1.92931801902E-4 2:0.130254548881 3:-0.0165574097535 4:0.0429400562163 5:0.0145577809504 6:0.0306266064926 7:0.0868574463646 8:-0.0799956263245 9:0.150929860945 10:-0.0667376466202 11:0.175648513437 12:0.11728014546 13:0.184203652029 
-0.0 -0.0 0.0 0.0 0.0 0.0 0.0 0.0 1.0 0.0 0.0 1.0 1:-0.18675460809 2:0.10124077808 3:0.0446004700455 4:-0.00484633048756 5:-0.0465081551364 6:-0.0249539762196 7:-6.46494818208E-4 8:0.032819749661 9:0.063613249163 10:-0.0530928967906 11:-0.074573043863 12:-0.0169216846359 13:-0.202413958957 
-0.0 -0.0 0.0 0.0 0.0 0.0 0.0 0.0 1.0 0.0 0.0 1.0 1:-0.0844054411473 2:0.120160630059 3:-0.100256002536 4:-0.0728740023414 5:-0.0227436519475 6:0.0173619812671 7:0.00252213606305 8:-0.0639377606354 9:0.12112528278 10:-0.050911362962 11:-0.0856448377242 12:0.0242437116647 13:-0.0721799505208 
-0.0 -0.0 0.0 0.0 0.0 1.0 0.0 0.0 0.0 0.0 0.0 1.0 1:-0.270174705595 2:0.0447008643326 3:-0.087585739876 4:0.0185643936885 5:0.0572555466241 6:0.0383089960639 7:0.0347182881788 8:0.167364029261 9:-0.08606871256 10:-0.0665729581643 11:-0.190908161645 12:0.0427340769478 13:0.239783053313 
-0.0 -0.0 0.0 0.0 0.0 0.0 0.0 0.0 1.0 0.0 0.0 1.0 1:-0.00370015812337 2:0.144368729444 3:-0.00594582989826 4:-0.0428224449361 5:0.00370208093786 6:0.00548127985946 7:-0.0369761171044 8:-0.0794118922819 9:0.193193995165 10:-0.0757484905263 11:0.114509225073 12:-0.0105854101695 13:-0.0441151016938 
-0.0 -0.0 0.0 1.0 0.0 0.0 0.0 0.0 0.0 0.0 0.0 0.0 1:0.0976789243776 2:0.127179446486 3:-0.00605812193085 4:0.138287788008 5:0.102642580119 6:0.0918171795943 7:0.206949357243 8:-0.0325172760672 9:0.140080614147 10:-0.0744991630051 11:0.119914680488 12:0.160829437199 13:-0.196684062137 
-0.0 -0.0 0.0 1.0 0.0 1.0 0.0 0.0 0.0 0.0 0.0 0.0 1:-0.0389891750141 2:0.126127790986 3:-0.0588203135123 4:0.0848205063169 5:0.135123913244 6:0.19896038043 7:0.246179852853 8:-0.0795159825443 9:0.13704045694 10:-0.0646923255598 11:-0.0504702223598 12:0.159290913407 13:-0.236277904075 
-1.0 -0.0 0.0 0.0 0.1832700924399246 0.0 0.0 0.0 1.0 1.0 0.0 1.0 1:0.0603857779165 2:0.128913352014 3:0.0119160587326 4:-0.0397441823067 5:-0.0969593214906 6:-0.00323781557236 7:-0.052758439483 8:-0.0610948925642 9:0.148502371723 10:-0.068611078905 11:-0.0697657269436 12:-0.0146690634506 13:-0.0562140283203 
-0.0 -0.0 0.0 0.0 0.0 0.0 0.0 0.0 0.0 0.0 0.0 1.0 1:0.0324203597981 2:0.14632893551 3:0.0152548686924 4:-0.0452030700889 5:-0.00757994989628 6:0.0582339787828 7:0.0523212470499 8:-0.0734107482941 9:0.2065887362 10:-0.0639616776981 11:-0.176379969412 12:0.0979748274788 13:-0.058472261204 
-0.0 -1.0 0.916040033252788 0.0 1.0 0.0 0.7327500466374389 1.0 1.0 1.0 1.0 0.0 1:0.385843549761 2:-0.0576227679447 3:-0.0499455158909 4:0.12633373223 5:-0.038919986772 6:0.0319548573032 7:0.0970063549219 8:0.530442567291 9:-0.294286101506 10:-0.0706382641331 11:-0.129436212969 12:-0.219200168264 13:0.112178190696 
-0.0 -0.0 0.0 0.0 0.0 0.0 0.0 0.0 0.0 0.0 0.0 1.0 1:0.030288307634 2:0.138138650374 3:0.0252787876796 4:0.00213897408953 5:0.0234971699986 6:0.042963277035 7:0.0936987053701 8:-0.0737127509107 9:0.173678137839 10:-0.0669317359442 11:-0.100689464777 12:0.209306874293 13:0.00342208549549 
